* -0.228201 -0.881568 2.538855 -1.578756 3.147885 -1.650829 -1.403640 -2.554450 0.669113 -2.316924
将 -0.426274 -1.670178 0.860556 -1.120525 1.513893 -1.166848 -0.973244 -3.684237 -0.814951 -2.247251
> 1.577177 -2.559901 1.128207 1.419201 0.553180 0.021066 -2.044531 -0.473716 -4.307687 -3.589868
的 0.600443 -0.046917 1.876740 -0.742395 2.065827 -0.282314 -1.540281 -1.655764 -3.288648 -1.025763
， 2.094447 -2.268485 3.538577 -1.269232 0.873747 -0.504890 -0.358504 -1.017634 -1.784608 -1.430179
∶ -0.036487 -0.400595 2.315462 -1.580991 2.680362 -0.594248 -1.053126 -0.937282 -0.037346 -2.963715
至 2.217483 -4.508151 1.289924 0.356678 -0.560712 -2.138242 0.185835 -3.422344 -0.521378 -0.553653
： -0.147218 0.840377 2.681872 -2.490485 2.746903 -0.451189 -0.340815 -2.793389 -0.632765 -1.453727
中国 0.402133 -0.096181 2.643177 -1.959500 2.810553 -0.211064 -0.138624 -3.348483 -0.831755 -0.206572
- 1.852948 -2.130783 1.437144 -0.687550 0.903818 -0.575489 -1.247791 -1.764395 -2.180253 -0.997206
从 0.440153 -3.278956 0.150271 -0.232577 -0.258589 -2.009438 -0.513372 -4.429327 -0.314683 -1.312021
美元 1.141516 -4.590802 0.082182 -0.437413 -1.543546 -0.353358 -0.868753 -3.084641 -1.001309 -1.805561
在 0.650850 -0.529375 1.128849 -1.383985 1.947996 -0.827428 -0.729887 -2.824291 -2.099489 -1.425142
评级 -0.448273 -1.376786 0.222031 -0.355235 -0.106767 -0.680816 0.575123 -4.463304 -0.286684 -2.884656
目标价 0.084123 -2.909531 -0.283896 -0.196454 -0.461035 -1.766013 -0.319309 -4.748930 0.281027 -1.106739
亿元 1.095699 -3.034433 2.640207 -0.763179 1.983617 -2.369259 -1.219346 -0.978459 -0.449369 3.122638
为 0.787239 -2.893375 2.044660 -1.009478 1.278798 -0.943307 -1.035673 -0.596254 -0.994710 -1.280700
公司 0.029954 -0.504803 2.342254 -0.404744 1.609806 -0.256172 -1.792361 -2.149421 -2.009771 -1.967318
和 0.064992 -0.360271 2.047537 -0.391958 2.173168 0.750508 -1.206751 -2.148833 -1.422210 -2.193129
年 1.301543 -1.764287 2.397984 -1.747963 3.093890 -1.833814 0.520323 -0.744981 -1.126554 -0.624471
上调 0.999480 -3.301454 0.547547 -0.082540 -0.686326 -1.702301 0.160562 -3.945597 -0.797953 -1.166239
人民币 0.746093 -3.214412 2.686399 -1.355240 1.974130 -1.787173 -0.987415 -1.449087 -0.166291 2.163143
港元 0.470531 -2.775593 0.017431 -1.524316 -1.154969 -3.397685 -0.213839 -2.863102 0.156325 0.421846
亿美元 0.491796 -3.242604 1.680513 0.050062 1.440905 -1.559086 -3.157182 -1.012469 -2.065627 0.290576
下调 1.224662 -2.976829 0.800172 -0.305746 -0.370838 -1.391699 0.355551 -3.930628 -0.858691 -1.284009
－ 0.943258 -0.898652 1.743209 -0.915898 0.944205 0.186964 -1.735706 -2.424239 -2.630959 0.215901
收购 -0.081952 0.359789 1.501884 0.354989 0.930238 -1.298759 -2.873969 -2.063649 -1.503236 -0.411617
集团 -0.051495 -0.883622 2.545626 -1.324985 2.184069 -0.876899 -1.767324 -2.217942 0.400466 -1.498418
, 1.708096 -4.044584 1.565281 0.235201 0.988865 -0.756362 -2.313965 0.235602 -0.329135 -0.550062
业绩 0.877343 -1.260606 1.783823 -0.924712 0.877435 -1.812585 0.047741 0.758859 -1.202323 -3.800256
月 1.565760 -2.502766 1.633732 -1.925386 3.356848 -0.933279 -0.612610 -0.471637 -0.798237 -0.662439
与 -0.453531 0.933685 1.419279 -0.556126 1.928781 -0.914832 -2.003301 -2.775279 -1.702241 -1.617123
财季 1.488448 -1.979480 2.676496 0.353172 1.894217 -1.808167 -0.088345 0.814851 -0.391842 -3.238009
净利润 1.834796 -1.876102 3.702667 -0.587611 1.892885 -3.294810 0.953166 -0.401892 0.179431 0.307997
美国 0.909166 -0.502627 1.717489 -1.477561 1.923051 1.031167 -0.611838 -1.832527 -1.389679 -1.830106
预计 0.726357 -0.690359 2.519421 -1.145211 2.701927 -1.906958 0.408490 -0.770301 -0.228160 -1.745698
计划 -0.160705 -0.776637 1.230843 -1.272485 2.066659 -0.637579 -1.681270 -2.131094 -1.778989 -0.757434
增长 2.843756 -1.401745 3.721867 0.434070 1.471642 -1.109318 1.827143 -0.633621 -1.457644 -0.772020
财年 0.841338 -1.994247 2.151477 -1.146486 1.438122 -2.923874 0.333909 1.058135 -0.151175 -3.010557
交易 0.238873 0.024494 1.713386 -0.880006 0.730566 -0.949045 -2.310787 -1.030520 -2.415725 -1.305279
香港 -0.325805 -0.454197 1.807555 -2.181023 1.829383 -0.712032 -0.677543 -2.768286 0.155060 -0.074968
1 1.348874 -3.112044 1.993797 -1.033422 2.948569 -0.517898 -1.513680 -0.820440 -0.197351 -0.187367
国际 -0.334358 -1.030376 2.212735 -1.341777 2.090209 -1.158533 -0.727982 -2.112716 0.921858 -1.272821
中性 0.572907 -2.396663 0.306296 0.801059 -0.648743 -0.745004 0.294434 -3.762499 -0.904154 -2.115672
买进 0.302575 -1.910503 0.215867 0.424556 -0.671009 -0.587763 0.091097 -3.553336 -0.933425 -2.485266
月份 2.358826 -2.379024 2.194801 -0.652553 3.457711 0.061526 0.406691 -0.580849 -0.188739 -0.024636
维持 -0.168998 -1.289829 -0.107537 -0.132707 -0.213790 -1.122539 0.566331 -3.158049 -0.948756 -2.973500
对 0.149651 1.212536 1.970523 -1.143116 1.436025 -0.505970 -1.128604 -1.868745 -2.110869 -1.672884
定为 0.327078 -2.604831 -0.018587 -0.191169 -1.428320 -0.736200 -0.337718 -3.874858 -0.556088 -1.689969
2 1.520690 -2.098926 1.826954 -1.379411 1.997397 -0.115121 -0.920643 -1.215074 -1.375091 -0.322840
首席 -1.194342 -0.601563 0.988893 -1.251020 1.451230 -0.964385 -1.396254 0.978894 -0.187429 -3.961112
发行 -0.651389 -2.209202 1.221916 -2.702549 1.485929 0.163092 -1.909976 -2.119293 -0.059720 1.191464
收入 1.846593 -1.955130 2.817088 0.169281 2.165196 -1.585065 0.445882 0.362567 -0.810356 -0.973194
银行 0.073358 0.219459 2.046084 -0.756676 1.309073 0.504450 -0.971240 -2.917873 -0.883199 -0.634173
= 0.078528 0.808432 2.319434 -1.480758 1.889283 -0.492810 -0.478069 -2.205010 -0.171259 -2.031517
控股 -0.344218 -1.242610 2.183895 -1.837715 1.963202 -0.981377 -0.601455 -1.873128 1.067602 -1.114980
业务 0.479932 -0.202969 2.440834 0.361539 2.198155 0.875681 -0.765556 -0.937912 -2.182889 -1.153702
. -0.709253 -2.058973 0.334540 -0.397144 -0.518421 -1.365707 -2.230888 -0.106859 0.053213 -3.986461
股份 0.701134 -0.944770 2.524339 0.000722 0.305586 -0.943319 -1.695752 -2.686367 -0.589589 0.034446
汽车 1.200312 -0.246419 1.416515 0.204966 3.309448 -0.359934 -0.403561 -1.688673 -0.827659 -1.191647
、 -0.069168 -0.560412 1.945295 -0.591742 1.851993 1.053097 -0.947270 -1.462272 -0.883899 -1.885686
大盘 0.681946 -1.722533 0.025363 0.212213 -0.894277 -1.483373 0.783510 -3.701375 -1.840025 -2.731050
3 1.115179 -2.378018 1.579417 -1.759828 2.319514 -0.294666 -1.111074 -1.163635 -0.719332 0.058966
元 0.808232 -4.129457 -0.057141 0.124526 0.032340 -2.151148 -1.647627 -1.704219 0.809502 0.506344
出售 -0.096505 -0.248171 2.001831 0.006821 1.059413 -0.469106 -2.580030 -1.791307 -1.121951 -0.169367
上半年 0.995319 -1.020452 3.210517 -1.093763 2.352550 -2.469912 0.902463 -0.639495 0.452918 -0.431812
新台币 0.645223 -3.234375 1.285420 0.231925 1.438432 -2.719411 -1.053505 -1.659330 1.163627 0.857879
投资 -0.113143 -0.673176 2.034842 -0.617292 1.952443 0.189616 -1.565263 -1.436774 -1.560324 0.177284
每股 0.284349 -2.736642 1.197207 -1.437735 -0.179733 -3.425215 -1.157005 -0.096557 -0.475338 -1.090156
市场 1.088110 -0.253966 2.045053 -1.204825 1.267996 1.384650 1.129247 -2.002707 -1.718323 -1.700983
以 -0.305355 -1.644178 1.238269 -0.734598 0.909995 -1.146442 -2.040126 -1.418304 -1.280361 0.303459
执行长 -1.001831 -0.366910 0.893285 -1.709188 0.895503 -1.754292 -1.123275 1.624683 -0.417622 -3.990471
预期 1.649041 -1.660345 1.517510 -0.257296 0.635515 -1.453993 1.183506 -0.045256 -1.876473 -3.174087
于 0.184018 -1.279275 0.626919 -2.075571 1.811728 -1.608130 -0.166894 -1.499529 -1.601868 -1.468828
亿港元 0.154488 -2.397733 2.844580 -1.239420 1.079111 -2.075059 -0.961846 -0.233443 0.094643 1.702827
石油 0.741649 0.315261 1.123878 0.153048 2.627620 -0.833840 -0.255478 -2.385592 -0.967723 -0.798419
上年 1.918661 -2.594179 2.561353 -0.405951 1.244588 -3.009052 0.523712 -0.399778 -0.137760 0.741300
日 0.528394 -2.065919 0.143581 -2.083039 1.961654 -1.310741 -1.244838 -0.341528 -1.498811 -0.499121
利润 1.540967 -1.141301 3.067648 -0.121875 1.280080 -1.474608 0.593464 0.667422 -0.938508 -1.910798
新 -0.615099 -0.788728 0.755203 -0.805994 2.266032 0.373470 -1.413882 -1.346080 -2.068718 -1.087901
MarketWatch 0.798834 -0.648450 1.662577 -0.266297 0.682616 -0.331104 -0.527994 -0.718179 0.203699 -3.470433
2019 0.048546 -1.585918 1.448130 -1.358928 1.079840 -2.447465 0.042834 1.535992 0.017623 -3.331722
向 -0.417095 0.312676 0.994456 -0.825699 1.541598 -0.414260 -2.142704 -1.936354 -1.243087 -0.757239
债券 -0.078748 -2.190302 0.836252 -2.268886 0.338586 0.707728 -1.305687 -2.212005 -0.964360 0.962086
摩根士丹利 -0.425744 -1.027782 0.506376 -0.052434 0.314568 -0.526300 -0.826971 -2.846296 0.361478 -1.991601
台湾 0.288705 0.468429 2.271561 -1.241665 1.955654 -0.614021 -0.328753 -3.033922 0.999746 -0.133383
股票 0.170287 -1.441473 1.492122 -0.973289 0.314767 -0.449040 -1.866735 -2.012872 -0.968515 -1.020785
5 0.805840 -2.556756 1.502300 -1.566215 2.215335 -0.601863 -1.421132 -1.250240 -0.512984 0.608688
报告 0.443304 -0.607810 0.864583 -0.611987 0.862002 0.118158 -0.063815 1.182938 -1.354088 -3.186008
亿 0.873123 -2.650548 1.883502 -0.050677 1.142593 -1.268950 -1.973208 0.160287 -0.965003 0.424109
CEO -0.398992 0.253163 1.320845 -0.874489 2.009711 -0.591899 -1.372369 -0.215845 -0.861545 -3.177935
10 0.925629 -2.418566 1.041249 -1.572284 2.469776 -0.666354 -1.502504 -1.249198 -1.004015 0.217289
同比 3.209837 -2.418131 3.607376 0.511535 1.810279 -0.460105 1.776094 -0.092527 -0.035914 0.481586
消息人士 0.295165 -0.929139 0.884213 -0.748764 0.323559 -0.228902 -2.237952 -1.819636 -2.212020 -0.005965
更新 0.276980 0.092139 1.807508 -1.322815 2.099919 -0.999274 -0.424496 -1.764172 -0.414112 -1.083513
持有 0.676381 -1.044313 1.123899 -0.288166 -0.608383 -0.728878 -0.707192 -2.652139 -1.053775 -1.101604
同期 2.049075 -2.745502 2.633740 -0.443158 0.681857 -2.440854 0.493859 0.136505 -0.519320 1.102786
因 1.320853 0.045748 2.679769 -1.083447 1.074879 0.663436 0.153007 -0.685282 -1.452695 -1.693743
股权 0.989323 0.241595 2.435079 0.389555 -0.196164 -0.559550 -1.999538 -2.340518 -1.438529 0.472163
； 1.424998 -1.419590 2.573153 -1.722225 -0.056084 -0.149715 0.273759 -1.445295 -1.012178 -1.392535
6 0.994804 -2.171352 1.395725 -1.390795 2.723378 -1.066243 -0.957232 -0.529373 -0.572991 -0.011815
高盛 -0.446944 -0.847453 0.914688 -0.901646 0.728808 -0.641930 -0.689080 -2.548255 0.344688 -1.324745
航空 0.908683 0.003529 0.935552 0.356883 3.158234 -0.914900 -0.393455 -2.277541 0.153277 -0.401300
销售额 1.788831 -2.719258 2.143609 0.272896 2.023728 -0.077185 0.714066 0.615469 0.169606 -1.339071
称 -0.022485 0.854000 1.616272 -1.191545 1.872833 -0.529331 -1.117222 -0.845078 -1.201641 -2.211534
报导 0.765068 -0.209119 1.672381 -0.445030 1.135924 -0.106739 -1.574506 -1.724115 -2.484627 0.331265
欧元 1.132389 -2.067071 1.975761 -1.328899 -0.268694 0.239012 -1.105652 -0.365933 -0.689870 -0.995851
消息 0.736636 -1.204579 1.152073 -0.560027 -0.267586 0.384062 -2.128052 -0.954039 -2.799738 -0.910742
强于 0.234962 -1.520421 0.110141 -0.022901 -0.922394 -1.176595 0.537067 -3.949332 -1.497267 -2.655599
就 -0.257111 1.313272 0.955291 -0.793208 1.657031 -0.325663 -1.949227 -1.816800 -2.117179 -0.912686
地产 -0.100675 -1.543928 1.989015 -1.345468 2.226146 0.007751 -0.260410 -2.200460 1.068267 -0.285965
记录 -1.089955 -1.095896 -0.318411 -0.624543 -0.012177 -1.717258 -1.750578 0.882055 0.004281 -3.144322
第三 0.740517 -1.420669 2.336159 -0.058513 1.610105 -1.946662 -0.252194 0.604260 0.182477 -3.116390
9 1.435239 -2.248088 1.662368 -1.188316 3.075797 -1.178012 -0.695203 -0.570640 -0.268128 -0.136678
受 1.451067 -0.109641 3.234663 -1.134098 0.577061 1.085119 0.615621 -0.610931 -1.276349 -1.731373
增持 0.426220 -1.611031 0.886874 -0.035660 -0.405474 -0.454545 -0.853353 -3.065416 -0.948269 -1.502469
电话会议 -1.100971 -1.116538 -0.397508 -0.794066 -0.144178 -1.920475 -2.205948 0.861791 0.063947 -3.104679
信贷 0.058080 -0.843383 1.231125 -0.226865 0.709032 -0.555025 0.245038 -2.612657 -0.192938 -1.334996
协议 0.303082 -0.023503 0.682161 -0.044150 1.651220 -0.058688 -2.056164 -0.833386 -3.000517 -0.286623
下降 2.651114 -1.396721 3.757667 0.042551 1.084462 -0.615588 1.539841 -0.037304 -0.978835 -0.598561
中 0.431263 0.108589 1.141040 -1.171700 1.138362 -0.555736 -0.470920 -1.503970 -2.003196 -0.590024
谈 -0.541466 -1.126275 0.524027 -2.537145 0.123277 -3.237180 -0.341130 2.674211 -0.142431 -3.900402
第二 0.554791 -1.158150 2.101415 -0.042472 1.737406 -1.741925 -0.093150 0.520901 0.050934 -3.096625
瑞士 -0.036981 -0.353524 0.778551 -0.608943 0.328700 -0.822983 -0.012283 -2.768368 -0.059460 -1.491077
批准 -0.637210 0.331993 0.873789 -1.155881 1.000169 -0.936256 -2.422156 -1.755095 -1.079045 -0.262099
4 1.065930 -2.409803 1.284925 -1.240209 2.548835 -0.695925 -1.195037 -0.684684 -0.556718 -0.001319
或 0.839951 -0.306060 1.879540 -1.670871 0.971866 -0.474135 -0.494595 -1.093335 -1.960629 -1.054733
收益 0.818169 -2.953214 1.622886 -0.848693 -0.033043 -1.971349 -0.527263 1.048597 -0.963593 -1.497300
IPO -0.329146 -0.885049 0.828521 -2.350458 0.278494 -0.724124 -1.393770 -2.071318 -0.603217 0.518435
进行 -0.356723 0.182319 0.733489 -1.289148 1.117337 -0.155107 -1.770916 -1.537049 -2.857719 -0.192040
可能 0.712962 0.387530 1.704108 -1.869449 1.081973 -0.702160 -0.177417 -1.469062 -2.138930 -0.809225
科技 0.144839 -0.363699 1.285680 0.535432 2.099031 -1.268403 -0.340029 -2.303248 0.656309 -1.106936
花旗集团 -0.413965 -0.883162 0.450698 -0.246855 0.190580 -0.833775 -0.710237 -2.591456 -0.020364 -1.794526
资产 0.173184 -0.088420 2.250177 0.041523 1.342748 0.527223 -1.703909 -1.141493 -1.720897 -0.001629
年期 0.407914 -2.540248 0.958212 -2.559216 0.830663 0.746115 -1.349816 -2.225091 -0.380182 2.429393
影响 1.095345 0.466502 2.140793 -1.024805 0.582215 0.367478 0.395441 -0.250837 -2.731605 -1.522434
料 0.862738 -0.808445 1.876177 -1.181303 1.278712 -1.511569 0.487077 -0.255113 0.160728 -2.355664
交易所 -0.419792 0.054492 0.869800 -1.430798 1.476247 -0.272362 -0.698831 -1.613581 0.104991 -0.850474
子公司 -0.258328 -0.167034 1.817017 -0.232063 1.639863 0.217545 -1.932843 -2.046985 -0.797758 -0.208275
人士 0.288503 -0.244983 1.147150 -0.623312 1.293516 -0.549229 -1.484961 -1.442185 -1.741446 -0.705060
合约 1.223867 -2.410618 1.768082 -1.191829 1.816300 1.191690 -0.774754 -1.131432 -0.403659 1.080488
不 0.047193 0.171986 1.599119 -2.190286 0.684393 -1.056301 -0.925250 -1.168154 -1.992014 -0.235358
股价 1.448659 -0.647687 2.300200 -1.079869 -0.685380 -0.737560 0.092795 -1.060460 0.029386 -2.395564
通过 -0.821650 -0.771616 1.212985 -2.027347 1.071467 -0.324642 -1.741936 -1.787088 -0.638912 0.552937
汇丰 -0.368114 -0.870768 1.453463 -1.005991 0.795199 -0.248039 -0.973386 -2.337639 0.370898 -1.489912
7 1.408977 -2.310081 0.994475 -1.249990 2.819581 -0.644956 -0.988920 -0.854953 -0.635878 0.224377
较 2.469830 -1.488235 2.100349 -1.077266 1.631533 -1.326973 1.522274 -0.843974 -0.982421 0.480214
由 0.007891 -1.841543 0.637708 -1.110118 0.013042 -1.378902 -0.407969 -2.714457 -0.578591 -0.186894
12 0.977478 -2.291388 1.222505 -1.339446 2.647322 -1.042934 -0.772716 -0.741740 -0.383829 -0.269665
及 0.021744 -0.814536 2.395179 -0.911466 1.808757 1.265798 -0.609222 -0.627812 -1.368016 -0.934705
增 3.153898 -2.263510 3.368948 0.769206 0.826250 -0.321247 1.388712 -0.170570 -0.123930 0.103906
摩根 -0.572249 -0.801837 0.707969 -0.370306 0.153866 -0.139093 -0.892743 -2.145013 -0.170691 -2.102280
初始 -0.441264 -0.931219 0.063301 -0.209073 -0.722349 -0.356064 -0.175356 -3.225587 -0.186898 -2.214913
上市 0.177372 -0.265223 1.347710 -1.980602 0.209373 0.157170 -0.482533 -1.468696 -0.602700 -0.494735
亏损 1.112241 -1.432981 2.670315 -0.924858 1.255714 -1.317799 -0.201205 1.379320 -0.581147 -0.851932
任命 -1.429444 -0.980612 1.038718 -1.262279 1.405283 0.269771 -1.342770 0.612561 0.494028 -2.509708
后 0.737194 -0.846857 1.396380 -1.492458 0.353043 -1.100714 -0.632135 -0.066775 -1.703076 -1.756516
8 1.230940 -2.357326 0.877192 -0.846731 2.897235 -0.864632 -0.980548 -0.787345 -0.493372 0.080402
是 0.295960 0.323461 1.644203 -1.464915 1.092646 -0.219178 -0.268789 -0.537815 -2.291948 -1.229616
销售 1.523683 -1.575647 1.484427 -0.296240 2.347926 1.021915 0.046150 0.006329 -1.322874 -0.459976
全球 0.893663 -0.855791 1.581359 -0.515575 2.142414 0.970225 0.273205 -1.078496 -1.276304 -1.199393
宣布 -0.507836 -0.474632 0.656056 -1.008531 1.241362 -1.173615 -1.663592 -0.871013 -1.090080 -1.630015
资本 -0.318710 -1.725502 1.194761 -1.421923 1.242913 0.325967 -0.157039 -1.032759 -1.156739 -0.579733
第一 0.849856 -0.964639 2.073302 0.040295 1.777689 -1.577581 -0.043126 -0.260080 0.168937 -2.406603
大通 -0.497232 -0.674669 0.664385 -0.271260 0.307229 -0.005047 -0.797481 -2.135813 -0.292515 -2.041630
证券 -0.448031 -0.884090 1.223436 -0.512228 1.201807 0.292810 -1.084417 -2.495726 0.084270 -0.620052
瑞银 -0.639433 -0.781910 0.646619 -0.554368 0.314426 -0.248845 -0.477464 -2.543530 0.370955 -1.793718
董事长 -1.037925 0.048701 1.160279 -1.287980 1.958327 -0.580567 -1.180977 -0.489732 -0.151876 -1.747048
开盘 1.023436 -0.797368 2.774693 -1.985235 -1.294676 0.059297 0.682086 -1.134590 1.459128 -1.467522
约 1.324075 -2.163940 2.164251 -0.696951 0.378280 -0.652413 -1.221734 -0.031792 -1.659124 0.402087
英国 0.220802 0.936485 1.742423 -0.488574 1.320958 0.311795 -0.838860 -1.607122 -0.773818 -1.228222
公布 0.814625 -0.728371 1.346137 -1.897902 0.841476 -0.811626 -0.261398 -0.071742 -1.097286 -1.702661
股东 -0.478813 0.348931 1.345740 -1.310116 0.348331 -0.984759 -2.214649 -1.162169 -1.046018 -0.483767
其 0.015275 0.201790 1.583037 -1.082856 0.944139 0.028377 -1.387098 -1.495448 -2.276663 -1.094022
万美元 1.086598 -2.732419 1.660413 0.713634 1.286728 -0.522482 -3.079908 0.853072 -0.926766 0.720618
了 0.385788 0.161850 1.287194 -1.445418 0.864770 -0.748010 -1.226939 -0.731914 -2.376940 -0.681914
合并 0.140135 0.552854 0.853313 0.092388 1.022489 -1.084469 -2.057403 -0.912240 -1.583645 -1.134840
截至 -0.473419 -0.748475 1.151393 -2.176322 3.186648 -1.504894 0.259199 -0.057091 0.725486 -0.252034
& -0.403288 -1.565866 0.593111 1.012501 -0.627242 0.096770 -2.381096 -0.628192 0.807648 -3.597037
日本 0.425968 0.811046 1.514272 -1.030161 1.823213 0.765520 0.196954 -1.760779 -0.403764 -0.735833
调查 -0.042914 1.408404 0.823537 -0.816582 1.215206 0.716685 -1.838381 -0.755517 -2.450213 -1.599607
完成 0.346503 -0.405073 0.790137 -1.010178 1.354753 -2.116693 -1.111063 -0.336253 -1.526887 -0.772787
已 -0.073762 0.256614 1.141494 -1.775122 1.325443 -0.624996 -1.538721 -0.926749 -1.539763 -0.452287
000 1.301435 -2.956476 1.280373 0.012510 1.547740 0.540187 -1.931985 -0.267426 -1.128675 0.481239
第一季度 1.166827 -0.707124 2.382066 -0.338728 2.304707 -2.003915 0.834149 -0.492341 0.206766 -0.504811
拟 -0.903328 -1.160758 1.172667 -1.859615 1.335085 -0.604613 -1.762979 -2.259499 -0.052626 0.518800
第四 0.897489 -0.988299 2.250520 0.271946 1.578778 -1.594706 -0.042608 0.303511 0.192294 -2.798585
Inc -0.626919 -1.647178 -0.042354 -0.003011 -0.505700 -1.818025 -1.437010 0.020601 0.684970 -3.722521
管理 -0.276686 -0.196687 1.680716 -0.578569 1.849732 0.511511 -1.228872 -1.249900 -1.117968 -0.508077
增加 1.699158 -1.438318 2.392025 -0.503767 1.438195 0.121481 0.405219 0.021721 -1.636961 -0.157981
董事会 -1.114273 -0.375364 0.713167 -1.403640 0.873572 -0.510011 -2.235589 -0.595266 -0.853529 -1.803289
30 0.316924 -2.156297 0.783121 -1.361083 1.800811 -1.339680 -1.554330 -0.537234 -1.090864 0.437775
前 0.389302 -0.435242 1.204212 -1.957745 1.455343 -0.480893 -0.707323 -0.136520 -1.055480 -1.460883
调整 0.103529 -1.060735 1.301415 -1.416621 0.494380 -0.965492 0.064998 -0.021920 -1.381478 -2.155027
项目 0.268211 0.264618 1.549477 0.359008 2.237307 0.360128 -0.732032 -1.083751 -1.592876 1.140308
价格 0.978690 -0.886713 1.194419 -1.093319 0.560935 -0.074390 0.215206 -1.847271 -1.585162 0.236270
上涨 1.855798 -0.803115 2.683924 -0.852967 -0.708994 0.263430 0.498534 -0.515735 -0.405905 -2.268171
下跌 1.825849 -0.806364 2.731031 -1.025750 -0.581408 0.573450 0.627640 -0.732120 -0.232905 -2.441268
达成 -0.232823 0.387496 0.666632 -0.292723 1.207965 -0.481645 -2.005188 -0.954214 -2.291556 -0.510634
更正 -0.148762 -0.240166 1.848799 -1.180594 1.760245 -1.071791 -0.904033 -1.575462 0.521869 -1.509388
後 0.747864 -0.423709 1.438454 -1.624530 0.266883 -0.961604 -0.782585 -0.060381 -1.620418 -1.649383
11 1.178657 -2.233891 1.121311 -1.332573 2.619692 -0.843738 -0.757073 -0.590532 -0.249264 -0.345183
欧洲 0.813106 0.268337 2.112842 -0.939073 1.123660 1.544243 -0.244887 -1.448313 -0.912412 -1.186971
大 0.128066 0.002491 0.851417 -0.445872 0.735476 -0.802921 0.642148 -2.395455 -0.635670 -0.970148
能源 -0.025164 -0.572057 1.334364 0.151625 1.960683 0.085455 -0.324055 -2.131258 0.860095 -0.969809
合作 -0.244902 0.369581 0.475640 0.169252 1.676531 0.483766 -1.249550 -1.707029 -2.651213 -0.613925
跌 1.969559 -0.955357 3.635854 -0.087208 -1.126612 0.416037 0.699717 -1.321290 1.046256 -1.310014
下滑 2.450811 -0.943535 3.236333 0.288420 1.029311 -0.519076 1.508354 0.223113 -0.927488 -1.086043
通用汽车 0.170427 0.596229 1.036592 -0.160629 2.548142 -0.598577 -1.169655 -0.936483 -0.597810 -1.099590
被 -0.234771 0.243896 0.762201 -1.448678 0.518580 0.530398 -1.359967 -0.562725 -1.628685 -1.311732
Capital -1.333123 -0.456675 -0.713210 0.017421 -0.770775 -0.572255 -1.828449 -2.202280 -0.290563 -2.460290
: -0.583905 -0.177697 1.131780 -1.290444 1.677305 -0.895935 -0.788052 -0.785232 0.181699 -2.086380
（ 0.401051 0.244423 0.375894 -0.955370 0.554303 -0.168008 0.798658 -1.631987 -1.357091 -0.506515
考虑 -0.621673 0.751156 0.970835 -1.414965 1.047381 -0.493711 -1.517063 -1.842799 -1.569652 -0.881013
个 1.556185 -2.713950 0.478085 -0.952596 0.917793 0.384503 -0.619961 -0.413207 -1.406349 0.580555
提振 1.197492 -0.407712 2.462290 -0.764590 0.377490 0.588060 0.373359 0.098422 -2.289221 -1.542641
上 0.559061 0.103288 0.456877 -0.914076 1.404776 -0.848085 0.152256 -0.905285 -2.210382 -0.782653
） 0.310954 -0.160095 0.641602 -1.026375 0.804950 -0.378476 0.578458 -1.792075 -0.976018 -0.324970
首次 -0.130578 -1.087981 0.383971 -1.280584 0.561580 -0.686202 -0.014577 -2.138878 0.117983 -0.885821
贷款 0.039355 -0.728511 1.093677 -0.964325 1.473024 0.773813 -0.759512 -1.301709 -1.995498 0.684884
上海 -0.131189 -0.084095 1.567655 -0.989596 1.066850 -0.410407 -0.329039 -2.842284 0.445677 0.469865
亚洲 0.023472 -0.175849 1.639315 -0.950960 0.979061 1.112533 -0.122884 -2.007149 -0.573608 -0.953941
融资 -0.187143 -1.050999 1.662908 -1.134810 0.944965 0.621921 -1.710332 -0.893840 -1.813616 0.977991
仍 0.252703 0.746209 1.099321 -1.465403 0.955966 -0.581683 0.235542 -1.057236 -1.918045 -1.731687
纽约 0.184030 -0.444788 1.787104 -1.370375 -0.637055 1.793311 -0.836031 -1.483298 0.425324 -1.572968
提议 -0.190133 0.337604 0.732042 -0.443074 0.041725 -1.593955 -2.165813 -0.506385 -1.967478 -1.177617
推出 0.210150 -0.728946 -0.809797 -0.540696 2.404998 0.359098 0.158549 -1.176988 -1.919098 -1.165990
涨 2.096624 -0.867120 3.508642 -0.162700 -1.467030 0.127802 0.664734 -1.272340 0.991038 -1.230581
获得 -0.087536 -0.272055 1.035627 -1.184137 0.964784 -0.598757 -1.937259 -1.081502 -1.518657 0.575375
服务 0.329661 -0.520404 0.125749 0.800785 2.469710 0.542712 -0.028414 -1.398501 -1.822568 -0.778829
股市 1.497067 -0.231210 2.693621 -2.623944 -0.392187 1.121802 1.142482 -1.040376 0.118174 -0.965631
企业 -0.026689 -0.095777 1.620257 -0.597955 1.525087 0.839862 -0.370533 -1.536043 -1.173419 -0.638466
美分 1.253947 -4.152335 0.287269 0.262490 0.116367 -2.745395 -1.314075 0.991031 -1.111988 -0.348782
金融 -0.441248 -0.181460 1.266078 -0.236103 1.769919 0.829704 -0.635805 -1.954377 0.338700 -1.150416
合资 0.182634 0.466155 1.317229 0.519593 1.737884 0.124609 -1.589229 -2.308201 -1.374814 0.610937
发展 -0.264511 -0.760410 1.455643 -1.088424 1.701512 0.050174 0.309622 -1.720651 -0.184682 0.037146
一致 0.321693 -0.793317 0.025426 -0.339198 -1.154311 -0.796366 -0.087211 -2.305964 -2.535028 -2.194929
投资者 -0.370370 0.135422 1.411954 -2.015191 -0.420644 0.859120 -1.310031 -1.393317 -1.483614 -0.816343
销量 2.575081 -1.802588 1.615338 0.621883 2.562193 0.728482 0.814959 -0.214470 -0.580711 -0.086067
超过 1.242901 -1.918590 1.923914 -1.074777 0.795205 -1.375299 -0.682755 -0.569829 -1.780811 0.971323
基金 -0.530771 -0.531957 1.316277 -0.557447 1.038472 1.077013 -1.257628 -1.986710 -0.583896 0.331670
富国银行 -0.507910 -0.801295 0.017718 0.103187 -0.095318 -0.009661 -0.626511 -1.497670 -0.542886 -2.324388
巴克莱 0.018172 -0.617155 1.017213 -0.275461 -0.064429 -0.447157 -0.857069 -1.721481 0.036757 -1.972669
报 0.713862 -1.763528 1.845263 -1.808084 -1.999460 -0.228964 0.457575 -1.128695 1.246193 -0.478430
合同 0.925899 -1.405541 1.114795 -0.091887 2.836658 0.728557 -0.740435 -0.198461 -0.628256 0.729831
中期 -0.148507 -1.575217 0.627396 -2.539938 1.275561 -1.937118 -0.336723 0.456003 -0.539154 -0.331246
点 1.117554 -1.729512 1.536432 -1.471974 -1.519606 -0.211187 0.362724 -0.854058 1.113228 1.066441
旗下 -0.355374 0.193811 1.351987 0.296635 1.628127 0.252671 -1.758038 -1.644245 -0.339851 -0.671858
筹资 -0.495729 -2.031103 1.326551 -1.848726 0.258905 -0.296775 -2.091422 -1.167059 -0.500764 1.856198
经济 0.815156 0.885886 1.855762 -2.079136 0.574201 0.811889 1.814522 -1.351702 -1.868303 -1.682601
电力 0.267200 -0.386236 1.815320 -0.778779 1.832128 -0.628513 0.074809 -2.098291 0.992619 -0.112782
实现 0.848220 -0.773344 1.773487 -1.396610 1.664452 -1.770875 0.742170 0.329244 -1.526927 -0.406414
辆 2.508208 -3.008120 0.627891 2.160500 1.829142 0.544992 -0.811510 0.403045 -0.101928 0.778241
第三季度 0.929079 -0.484961 2.135412 -0.291119 2.197818 -2.108997 0.947310 -0.563838 -0.053895 -0.668547
寻求 -0.587881 0.310500 1.128098 -1.349047 1.029064 -0.235949 -1.603512 -1.757291 -1.301451 -0.433646
欧盟 -0.381663 1.764761 0.499519 -1.637390 1.257472 0.314743 -1.216503 -1.022241 -1.465841 -1.314076
微软 0.033337 0.465907 -0.086030 0.227191 1.723497 -0.756186 -0.804125 -1.094680 -1.413323 -1.953733
飞机 0.673995 -0.370834 -0.670516 0.577973 3.521544 -0.441733 -1.275212 0.012098 -1.887858 -0.061606
下 0.161572 -0.436587 0.603229 -2.257893 1.180105 -0.571382 0.215993 -1.094245 -1.324220 0.002017
提高 0.993714 -0.984368 1.160565 -0.318231 0.322862 -0.960010 0.123244 -1.025419 -1.695210 -0.155968
问题 0.581103 0.901245 1.034506 -0.435398 1.155777 0.675837 -0.446798 -0.506724 -3.000124 -0.734481
扩大 0.634068 -0.691218 1.923169 -0.595118 1.131642 0.068980 -0.374821 -0.526817 -1.744449 -0.068069
长 -0.845497 -1.076519 0.597821 -0.830336 1.527494 0.798765 -1.093373 1.267690 -1.045859 -2.775904
) -0.316286 -0.553672 -0.280681 0.011420 0.548053 -1.344556 -0.559692 -1.944773 -0.232014 -1.801764
法国 0.024633 1.244038 2.039849 -0.477041 0.989586 0.650235 -0.821199 -1.684543 0.349258 -0.877133
2016 0.668044 -1.002583 1.718613 -0.996805 1.756579 -1.800830 0.310531 0.129263 -0.398124 -1.608933
提供 -0.135310 -0.380464 0.646223 -0.350710 1.411943 0.418849 -1.371888 -0.797719 -2.197330 -0.069950
知情 0.178913 -0.956631 0.592394 -0.545094 0.309793 0.099545 -2.167781 -1.278821 -2.384349 -0.055899
至多 0.508078 -1.979636 1.370697 -1.093702 0.449059 -0.920411 -2.243581 -1.149660 -0.961657 1.564696
谈判 0.306191 1.271346 0.880878 -0.428469 0.262520 -0.617135 -1.588925 -1.140669 -3.010390 -0.183384
卖出 0.653322 -2.041527 0.574911 -0.063666 -0.860658 -0.452991 0.378518 -3.154245 -0.650173 -1.116888
( -0.222477 -0.309354 -0.524861 0.097111 0.590365 -1.018849 -0.013200 -2.058579 0.031645 -1.871432
继续 0.042546 0.168084 1.496732 -1.541766 0.744799 0.263434 -0.046525 -0.697927 -1.684898 -1.581892
有 0.381945 0.117325 1.363564 -1.558124 0.640068 -0.326653 -0.735677 -0.467403 -2.439018 -0.228472
Group -0.779556 -0.554671 -0.166088 0.145722 -0.648958 -1.763899 -2.247259 -1.175245 -0.040217 -1.975821
净亏损 1.219760 -1.452947 2.394494 -1.032812 1.648442 -2.155628 0.405862 0.793237 0.252588 0.123306
文件 0.760663 -1.480720 0.648840 -1.094255 -1.102287 1.116448 -1.686104 -1.280472 -2.028174 -0.100323
海外 -0.094466 -0.444487 1.902902 -1.062361 1.382551 0.604715 -0.452242 -1.598127 -0.916552 -0.105893
把 -0.105546 -1.049446 1.256859 -0.886954 0.926588 0.331199 -0.441457 -1.728903 -0.765490 -0.409897
2015 0.754948 -0.995854 1.727358 -1.310919 1.991931 -1.588927 0.578337 -0.160325 -0.193810 -0.872330
机构 -0.633356 0.921032 0.917461 -1.431524 1.228391 0.864247 -1.565993 -1.512986 -1.391518 -0.814815
日圆 1.365192 -2.585249 1.698130 -1.205151 -0.463649 1.228710 -0.661280 -0.035035 0.081953 -0.914039
政府 -0.313423 1.068924 1.460280 -2.076278 1.125133 0.133638 -1.027097 -1.887552 -1.454531 0.005794
2017 0.568916 -1.229809 1.620707 -0.897846 1.741928 -2.114547 0.312091 0.243697 -0.308014 -1.995040
石化 0.196065 0.024068 0.926603 -0.191978 2.542280 -0.832115 0.241661 -2.344099 0.204218 0.267747
部分 0.257508 -0.021019 1.505750 -0.597485 1.186517 0.584442 -1.047332 -1.025832 -1.652022 -0.229977
2018 0.384622 -1.312070 1.441121 -1.053600 1.616093 -2.107697 0.247384 0.385921 -0.203085 -1.916579
签署 -0.399816 0.209284 0.446877 -0.511899 2.013583 -0.422135 -1.820451 -1.201432 -1.493666 0.665239
拖累 1.242156 -0.317051 2.579061 -0.538748 0.029150 1.234251 0.778088 0.313595 -1.864800 -1.903292
给 0.119960 0.099628 2.254221 -0.348611 0.521505 -0.232011 -0.882142 -0.645747 -0.986536 -1.131569
波音 0.268646 0.177951 -0.861450 0.328448 2.967238 -0.945229 -1.285493 -0.346836 -0.997451 -1.084736
德国 0.214046 1.293466 1.730699 -0.620724 1.171215 0.397172 -1.022938 -1.532567 0.132019 -0.800605
今年 0.676010 -0.506377 1.339585 -1.537122 2.127202 -0.886211 0.527544 -0.760777 -1.053197 -0.639934
数据 1.135845 -0.105941 0.907249 -1.072891 0.966674 1.835503 0.445309 -0.033874 -1.831301 -1.932091
正 -0.727627 0.247970 0.841079 -1.806784 0.955974 -0.110802 -1.686598 -1.618759 -1.155413 -0.216558
电子 0.196357 -0.312262 0.972198 0.483922 1.947493 -0.995892 -0.144632 -1.850478 0.730126 -0.565065
20 0.650756 -2.302462 0.603801 -0.902374 1.376270 -1.194715 -1.607391 -0.814596 -1.291193 0.795453
汇市 0.407218 -1.281917 2.353875 -2.371482 -1.559364 2.868115 -0.594424 -1.066663 0.174376 -1.844966
房地产 0.441612 -1.074177 1.528434 -0.694124 2.325480 0.802019 0.304339 -1.862007 -0.158264 0.270904
谷歌 -0.113605 0.900240 -0.303058 0.059022 2.140830 -0.191579 -0.748678 -1.116265 -1.760926 -1.809299
阿里巴巴 -0.118074 0.010846 1.192545 -0.179484 0.974890 -0.344526 -0.694298 -1.436068 -0.227127 -1.298802
停牌 -0.274498 0.549065 1.247231 -2.472964 0.150999 -0.672417 0.029496 -0.672081 -0.049818 -1.012615
美国银行 -0.410062 -0.475867 0.745732 -0.339177 -0.168167 -0.434763 -1.113206 -1.662164 -0.490773 -1.599125
标准 -0.483669 -0.324076 0.722867 -1.354938 0.451795 0.964879 0.656873 -2.108465 -0.270647 -1.592984
股息 0.273096 -1.671486 0.537654 -1.329499 -0.468177 -2.413655 -0.650089 -0.172422 -0.786626 -0.555635
走高 0.937221 -0.552649 2.424376 -2.300892 -0.787729 2.011224 0.338772 -0.691408 -0.255263 -2.064190
发 -0.052274 -1.102311 1.134270 -2.383146 1.457892 -0.965409 -1.247742 -1.267315 0.211806 0.199446
目标 0.977879 -1.504173 1.216201 -0.870347 1.104120 -1.032196 0.628565 -0.466306 -1.648444 -0.349387
财务 -0.525609 -0.328648 1.067234 -1.250099 1.343605 0.367651 -0.621981 0.348545 -1.086805 -2.282866
债 0.316665 -2.076026 0.930024 -2.452753 -0.228172 1.186218 -0.629683 -1.832039 -0.904639 1.782380
监管 -0.302084 1.110718 0.913408 -1.395388 0.889449 0.987212 -1.011960 -1.503141 -2.036724 -0.881446
总裁 -0.791872 -0.586898 1.036042 -1.142388 1.938930 0.721009 -1.051033 0.255236 0.041849 -2.116432
澳大利亚 -0.231845 1.243381 1.270540 -0.338818 1.132020 0.883092 -0.844305 -1.658394 0.092548 -1.117596
支付 0.094269 -0.982506 0.815934 -0.497074 0.878187 -0.239423 -2.347525 -0.096935 -1.768859 0.051941
支出 0.546400 -1.446570 1.890233 -0.448192 1.541862 -0.537426 -0.361370 0.747590 -1.726000 -0.296728
大幅 1.573394 -0.909461 2.979778 -1.359936 0.388044 -0.017378 1.161371 -0.083825 -0.604986 -1.223160
财经 -0.168897 -0.169119 1.875861 -3.285832 0.924138 1.197413 0.033797 -0.316309 1.257497 -2.223610
2011 0.396611 -0.829186 1.275801 -1.659558 2.091173 -1.715183 0.733940 -0.736370 -0.273805 -0.313176
德银 -0.580522 -0.784507 0.300523 0.020090 -0.358005 0.027010 -0.590311 -2.132087 0.312550 -2.314414
价值 0.508162 -1.285543 1.364633 -0.835821 0.778662 -0.938812 -1.682109 -0.074426 -1.732316 0.770511
' -0.764100 -1.611094 0.307616 -0.702546 -0.181327 0.154780 -0.202668 -0.624888 1.783168 -3.398041
A股 -0.393579 -0.680901 0.945202 -2.242753 0.274735 -0.398634 -0.575764 -3.025362 0.403752 0.594002
不会 0.109130 1.011000 1.534075 -1.645044 0.817540 -0.695595 -0.043959 -0.868111 -2.017798 -1.015848
减持 0.017675 -1.313989 0.782822 -0.480437 -0.867889 0.147283 -0.695976 -2.442994 -0.527976 -0.962825
回购 0.277108 -1.600273 0.793916 -0.838394 0.660565 -0.805024 -1.976032 -0.354794 -1.284999 -0.084422
苹果 0.708775 0.608993 -0.294544 -0.011760 1.655752 -0.419467 -0.244612 -0.852044 -1.308584 -1.735920
未来 0.064739 -0.531763 0.336726 -2.109141 1.740646 -1.290444 0.074329 -0.480943 -1.659824 -0.844639
2014 0.714495 -0.831645 1.993051 -1.468688 1.942289 -1.650339 0.694749 -0.119867 0.181052 -0.541831
此前 1.006239 -0.217710 2.196063 -0.853875 0.065509 -1.519609 -0.064966 -0.577631 -0.603519 -1.937083
指数 0.515152 -2.153188 1.735943 -1.366187 0.038709 2.331243 -0.189156 -0.506023 1.091764 -0.745710
未 0.061371 0.631109 1.449399 -1.651196 1.159287 -1.164698 -0.743264 -0.101161 -1.601301 -0.693802
早间 -0.236421 0.142144 1.938040 -4.121305 0.712966 1.304097 0.424651 -0.010501 1.133442 -2.086750
生产 0.706120 -0.149887 0.324702 0.227064 2.285511 0.655145 0.129542 -0.949699 -2.135196 -0.004090
细则 0.733684 -2.415488 0.847614 -1.012106 -0.578711 1.412432 -1.355363 -1.331533 -1.493267 1.390014
同意 -0.365989 0.152170 0.851154 -0.610701 0.910690 -0.943373 -2.308248 -1.043839 -0.784322 -0.550505
万 1.308863 -3.016856 0.841788 -0.267880 1.598555 0.254160 -1.018591 1.041477 -0.073706 0.815508
可 -0.120125 -0.673756 1.009876 -1.243941 1.263917 -0.267386 -0.881395 -0.703149 -1.012214 0.200715
收盘 1.068292 -0.826378 2.807381 -2.530631 -0.940550 1.506112 0.819683 -0.504700 0.683103 -1.438075
简报 -0.041152 0.184894 2.109929 -4.009313 0.838548 1.297753 0.292000 0.007182 1.217378 -2.114701
丰田 0.831935 -0.046312 0.786400 -0.399148 3.087267 0.237394 0.037426 -1.059728 0.111713 -0.605841
用于 -1.009732 -1.503180 1.834533 -1.041807 1.672059 2.214915 -1.372360 0.442905 -1.051624 0.314017
花旗 -0.582867 -0.374325 0.912573 -0.699713 0.506614 -0.204276 -0.820048 -2.294465 0.041223 -1.060242
产量 1.838480 -1.273373 1.006341 0.252727 2.480798 -0.158003 1.297243 -0.726783 -0.880922 0.255345
100 0.830585 -2.399827 1.019025 -0.507644 1.319826 -0.199008 -1.694588 -0.701358 -0.909233 0.705294
AAPL 1.423147 -1.078543 -0.526937 1.356583 0.555744 -0.178604 -0.521701 -0.534551 -2.584052 -1.729089
逾 1.740210 -1.857994 1.890075 -0.540174 0.026269 -0.778991 -0.918115 -0.151411 -1.333052 0.393437
电脑 0.729121 0.016142 0.084953 0.525203 2.451375 -1.794607 0.863101 -1.633344 -0.051395 -0.678322
人 0.962926 -1.909556 1.187467 -0.563458 0.676076 1.065937 -1.747553 0.171333 -1.299071 -0.023239
到 0.671748 -1.045078 0.530331 -1.476973 1.008103 -1.477086 0.802711 -1.279296 -1.752421 -0.720747
相关 0.371992 0.325412 1.745067 -0.707418 0.976653 0.853257 -1.245963 -0.371641 -2.537034 -0.822338
债务 -0.472561 -0.952608 1.633289 -1.460324 0.680925 2.199372 -0.633577 -0.410189 -1.737654 -0.141683
发布 0.674251 -0.191940 0.318333 -1.463321 1.334750 -1.000310 0.543353 0.037223 -1.829368 -1.839493
惠誉 -0.451578 0.107601 1.044793 -2.118538 0.449616 0.694287 1.358640 -2.379684 0.517904 -1.944475
联合 -0.455714 0.102730 0.812645 0.054086 1.233759 0.172491 -1.181798 -1.679028 -0.594181 -1.319246
力拓 0.028613 1.336104 1.646272 0.166714 0.858205 -1.028579 -0.725704 -1.419634 -0.216168 -1.173550
和解 0.028200 0.071953 0.884769 0.208344 0.657842 0.329633 -2.865811 -0.242900 -2.304328 -0.460781
普尔 -0.745206 -0.282249 0.597860 -1.919834 0.224259 0.579682 1.097898 -2.500361 0.763462 -1.813330
担任 -1.272989 -0.700572 0.939344 -1.739781 1.053387 0.743737 -1.544941 0.308777 -0.458742 -2.173066
Energy -0.910632 -0.366938 -0.436063 1.408141 -0.034378 -1.789079 -1.488470 -1.653809 0.600869 -2.040445
多 0.183087 -0.525813 0.607116 -1.058801 0.923069 0.006331 -0.391799 -1.030974 -2.326899 0.047988
美国股市 0.651341 -0.299275 2.106936 -3.050144 -0.664735 1.380222 1.169841 0.379919 0.943005 -2.468401
大众汽车 0.640846 0.623198 0.925122 0.142226 2.456014 -0.655234 -0.704503 -0.407172 -0.154649 -1.437266
资金 -0.785514 -0.924185 1.396333 -1.319239 0.770730 1.798853 -1.486093 0.017743 -1.840242 0.688869
高管 -0.608783 -0.048357 0.953144 -0.993488 1.456762 0.379943 -0.995835 -0.286234 -0.532081 -1.719044
没有 -0.137240 1.102104 1.502393 -1.986384 0.710005 -0.764347 -0.513944 -0.590158 -1.978057 -0.766787
穆迪 -0.338018 0.081656 0.951044 -1.462690 0.344774 0.225099 1.047762 -2.309969 0.025767 -1.736648
综述 -0.189047 -1.167800 2.369408 -2.428471 -1.815905 3.145913 -1.376970 -0.680241 0.234753 -2.112986
2012 0.387003 -0.999183 1.262119 -1.909556 2.048761 -1.470200 0.849142 -0.662611 -0.425025 -0.849725
“ 0.060305 -0.081877 0.094527 -1.409379 -0.017825 0.428868 0.484358 -1.665756 -1.607241 -0.922863
A -0.216750 -2.332376 1.047092 -1.495994 -0.394270 0.545235 0.071907 -1.162640 1.076777 -2.183892
福特 0.436624 -0.141840 0.471576 0.539142 2.900767 -0.189566 -0.272666 -0.716953 0.244548 -1.266999
开始 0.126891 -0.368056 0.059441 -1.847707 1.676434 -0.646553 -0.394338 -0.594344 -1.800206 -0.552390
减少 1.861097 -1.538561 1.925432 -0.317461 1.129101 0.143968 0.396498 0.712039 -1.361338 0.278390
并 -0.075926 -0.310286 1.184227 -1.356733 0.597679 0.073966 -1.060030 -0.687572 -2.370270 -0.741919
新闻稿 -1.231031 0.085911 0.168878 -1.871867 0.878533 -0.161040 0.345721 -1.918478 0.769261 -2.106883
” 0.531484 -0.352633 -0.112266 -0.948650 -0.063270 0.468882 0.377171 -1.471392 -2.031529 -0.539610
利率 0.892408 -1.429529 0.434767 -1.846877 -0.586063 0.567984 0.436996 -1.977486 -1.467720 1.026545
但 1.164057 -0.219271 1.948693 -1.569712 -0.055475 -0.377525 0.815803 -0.147146 -2.060594 -1.638471
更 -0.052355 0.350350 0.214553 -1.470764 0.831778 -0.190898 -0.167006 -0.978050 -2.741106 -0.253774
国泰 0.743054 -0.452968 0.664402 0.194418 2.598737 -0.824180 0.354872 -2.188018 1.168520 -0.277365
现金 -0.245631 -1.375134 0.921102 -0.939181 -0.284575 -0.501486 -2.085662 -0.110998 -1.530138 -0.065791
有限公司 0.208235 -0.714493 1.081656 -0.017423 0.741036 -0.681787 -0.264378 -2.208201 0.224935 -0.958672
部门 0.036113 -1.044267 1.341783 0.028556 1.755960 1.576181 -1.415484 -0.245436 -1.258563 -1.147409
15 0.646296 -2.538720 0.668819 -1.201691 0.971391 -0.802131 -1.714774 -0.648445 -1.043028 0.450191
产品 0.680873 -0.252071 0.890342 0.093186 1.842511 0.891573 0.229634 -0.719761 -1.811286 -0.911207
要求 -0.387426 0.933360 0.562918 -1.335990 1.094059 0.162421 -1.328658 -1.022984 -1.660648 -1.076883
所得 -1.193590 -1.524243 2.203989 -1.774387 1.321193 2.425483 -1.663929 0.357128 0.188023 0.019727
德意志银行 -0.172480 -0.227328 1.292246 -0.356519 0.601973 -0.236157 -0.845465 -1.333812 -0.091354 -1.791457
规模 0.330163 -1.498498 1.471817 -1.409848 0.640758 -0.137006 -1.081465 -0.433456 -1.670357 0.469010
BA 1.152356 -0.920356 -1.134500 1.385457 1.485637 0.004943 -1.071167 0.292168 -2.226250 -1.283634
达 0.673738 -1.677735 0.997554 0.016195 1.206365 -1.090001 -0.376451 -0.559774 -0.265984 -0.165880
该 0.131253 0.307297 1.458986 -1.038925 0.398754 -0.243771 -1.217531 -1.073697 -1.772118 -1.085118
500 0.944677 -2.550020 1.494407 -0.623075 0.843648 0.603955 -1.518619 0.088548 -0.376259 -0.288611
申请 -0.526419 0.221086 -0.019526 -1.238493 0.453401 0.181384 -1.716067 -1.404599 -1.359392 -0.411057
主要 0.534408 -0.247836 2.457666 -1.296405 0.982402 0.997876 0.174257 -0.165741 -1.112846 -0.602109
2010 0.767298 -0.833018 1.355011 -1.563388 2.181826 -1.947553 0.951727 -0.747870 -0.400964 -0.112992
大陆 0.177366 -0.238504 1.305427 -0.473605 1.704446 0.557318 -0.407624 -2.138758 -1.003992 0.238393
2020 0.113220 -1.336766 0.888429 -1.371433 1.229797 -2.067754 0.046128 0.667547 -0.882367 -2.008897
工厂 0.893305 0.233963 0.559926 0.011408 1.883530 0.466545 -0.216236 -1.622702 -1.774322 0.816459
美 0.375248 0.484444 0.844950 -0.524245 1.096189 -0.023472 -0.403955 -1.236945 -0.486722 -1.338073
2013 0.554960 -0.937277 1.281613 -1.876984 1.874876 -1.550567 0.703684 -0.549144 -0.103833 -0.807857
汽车销量 2.352016 -1.840941 1.496466 0.531273 2.888266 0.089970 0.894389 -0.712690 0.034932 0.355868
Facebook 0.110608 0.192823 -0.294276 -0.085148 0.855483 0.385826 -0.587298 -1.018324 -1.272605 -2.271296
裁员 0.876790 -1.304901 1.490807 -0.620845 0.228674 0.356049 -1.543192 -0.505779 -1.342298 0.152681
主席 -1.425192 -0.173101 1.178437 -2.002156 0.748769 0.130225 -1.427894 -0.462022 0.660111 -1.413428
有关 -0.024702 1.396141 1.248774 -1.005510 0.917373 -0.006178 -1.345733 -0.662507 -1.856995 -1.030402
亚马逊 -0.067643 -0.460579 -0.350219 0.167383 1.133933 0.431720 -0.499810 -1.244805 -0.978795 -2.098744
需求 1.260273 0.146932 1.540393 -0.557639 1.583123 0.829621 1.876128 -0.697107 -2.077239 -0.867204
/ 0.427409 -2.393255 0.348273 -0.192811 0.427987 0.845375 -0.553579 -0.789962 0.647290 -1.290935
股 0.521257 -1.189822 1.943212 -0.695035 -0.331739 1.312676 -0.908738 -0.938148 -0.535792 -0.153321
董事 -1.132664 -1.085309 0.311707 -1.358764 0.527395 1.023456 -2.263270 0.477568 -0.714771 -1.559708
盘前 1.335622 -0.770013 1.924205 -0.388534 -0.701959 -0.704277 0.392844 -0.908181 0.709359 -2.473885
战略 -0.838981 -0.090582 0.561340 -0.609076 1.033619 0.661714 -1.529649 -0.859095 -2.387600 -0.708983
中信 -0.627793 0.281715 1.209044 -0.575139 1.167986 -1.248989 -0.348352 -2.224462 0.987109 -0.268394
包括 -0.166831 -0.555207 1.026232 -0.748730 1.142255 0.213490 -1.649578 -0.226523 -1.771145 -0.689162
展望 0.391639 -1.673110 0.868149 -1.471782 -0.485836 0.515723 1.601335 -1.257349 -0.292333 -2.458644
支持 -0.469500 0.235819 0.726145 -1.001217 0.507718 0.107326 -1.260728 -0.976046 -1.634473 -0.788735
央行 -0.425291 0.800142 0.940391 -1.995859 0.305743 0.701572 0.046146 -1.913290 -0.134320 -0.662703
运营 -0.260725 -0.776239 1.319043 -0.623535 1.650462 0.943504 -0.468126 0.204337 -1.613837 -1.023748
天然气 0.749648 0.647742 0.302949 0.920146 2.749013 -0.157399 0.001121 -1.409240 -1.582607 0.435102
派息 0.042288 -1.316978 0.560197 -2.066572 -0.396241 -2.585222 0.099523 -0.194065 -0.541273 -0.017145
置业 -0.046509 -1.245569 0.910960 -0.833883 2.487414 -0.375685 -0.127291 -1.500516 2.256700 0.016424
Holdings -0.444615 -0.659920 -0.650541 1.028079 -0.435465 -1.720454 -1.037544 -1.253483 0.408972 -2.517001
营运 0.004612 -1.544639 2.450911 -0.530543 1.702383 0.941163 -0.099732 1.105467 -0.574626 -1.185741
31 0.515255 -2.303153 0.379393 -1.435109 1.612363 -1.759238 -0.704662 0.103981 -0.536422 -0.358584
华润 -0.267856 -0.593930 1.166221 -0.181480 1.936490 -1.275546 0.042457 -2.112932 2.091204 -0.087180
获 -0.442228 -0.479952 0.791027 -1.489493 0.403714 -0.135544 -1.978351 -0.816633 -0.823262 -0.392102
生效 -0.032735 -3.201770 0.265295 -2.269492 1.235259 0.175621 -1.344721 1.487791 -0.480838 -1.117496
苹果公司 0.306785 0.158305 -0.437194 0.417563 0.973538 -0.890212 -0.501143 -1.217468 -1.163336 -2.031657
电 0.162392 -0.699940 1.033266 -0.270634 1.982547 -1.631232 -0.217223 -1.159420 0.638444 -0.658891
分析师 0.668378 -0.192136 1.331177 -1.043191 -0.178120 -1.609723 0.871215 -0.701765 -0.198703 -2.270348
新加坡 -0.244090 0.422548 1.049341 -1.089077 0.987166 0.410913 -1.330288 -2.058871 0.281690 0.012514
第二季度 1.221944 -0.220992 1.696186 -0.030163 2.137723 -2.144247 0.807669 -0.543653 -0.149898 -0.790847
H股 -0.176217 -0.824336 1.196016 -1.433473 0.048178 -0.533532 -0.048335 -3.064396 0.412166 0.102551
》 -0.088413 -0.555431 0.488236 -0.658928 -0.187752 2.118267 -1.501012 -0.524770 -0.661350 -1.289887
票据 -0.647233 -2.354129 0.445595 -2.366624 0.452457 0.615480 -0.725849 -0.248389 -0.578351 0.440121
重组 -0.109466 0.191851 1.313497 -0.689854 0.814229 0.300127 -1.105447 0.118808 -1.531403 -0.802590
《 -0.232686 -0.245900 0.730276 -0.415308 -0.329023 1.878611 -1.856610 -0.907167 -0.578650 -1.157554
技术 -0.171449 -0.071335 0.391330 0.720337 1.827706 0.943629 -0.548712 -0.900740 -1.410500 -1.154293
重 -0.434198 0.214647 1.615481 -1.847194 1.452621 -0.801218 -0.592831 -1.606978 0.353006 -1.067331
华 1.193416 -0.666636 0.990733 0.176113 2.488850 -0.005983 0.239514 -1.312478 -1.080462 0.880219
铝业 0.001954 0.160926 1.013183 -0.085724 1.374356 -1.056207 -0.145030 -2.043051 0.532729 -0.510517
出现 0.985519 0.150635 1.968131 -1.356276 1.132612 -0.891526 1.104612 0.630557 -1.629387 -0.490028
决定 0.151618 0.744973 0.385369 -1.772635 0.514002 -0.832438 -0.979592 -0.576018 -2.311124 -1.057013
第四季度 0.989915 -0.486866 1.568517 -0.112371 2.101908 -1.914197 0.930649 -0.235392 -0.155358 -0.834959
购买 -0.130128 -0.667411 0.114747 -0.447094 1.765960 -0.206453 -1.851168 -1.032347 -1.304093 0.946035
面积 1.943676 -3.969990 1.134720 0.512387 1.854311 1.532115 -0.306893 -0.089521 0.730014 1.377997
员工 0.233036 -0.638619 0.872858 -0.773269 0.792040 1.225141 -1.366658 0.342629 -1.423556 -0.195659
确认 -0.386766 -0.622881 0.807894 -1.686369 0.402969 -0.037685 0.538160 -1.566126 0.209725 -1.941414
竞购 -0.383246 1.326547 0.794418 -0.310209 -0.010958 -0.420168 -2.065673 -1.870215 -1.390417 0.021389
Co -1.007390 -1.329325 -0.463648 0.291724 -1.084225 -0.564212 -2.151556 -1.082104 0.513656 -2.695328
成本 0.657462 -0.754892 1.914275 -0.583487 1.116763 0.467724 0.082336 0.738440 -1.981760 -0.591804
风险 0.532417 -0.135621 1.701441 -1.328774 -0.263539 1.489054 0.486830 -0.772491 -2.285210 -0.602379
走低 1.160332 -0.597784 2.575880 -2.406467 -0.767880 2.217719 0.592131 -0.728826 -0.428840 -1.737391
电讯 -0.400590 0.551946 1.261784 -0.394200 0.697348 -1.325930 -0.859949 -2.339063 0.604599 0.056381
早盘 1.073908 -0.949819 2.401306 -1.386876 -1.779976 1.629005 -0.205396 -1.112547 0.232957 -1.610799
B -0.513244 -1.605322 0.715109 -1.784777 -1.506458 0.486955 0.248076 -1.162554 0.887011 -2.641184
野村 -0.230589 -0.891713 0.334906 -0.199964 0.121792 -0.227069 -0.408669 -2.861435 0.281162 -1.585250
克莱斯勒 0.398917 0.737068 0.885115 0.314749 2.047892 -0.788855 -1.267109 -0.675273 -0.448129 -1.017609
上升 2.115826 -1.250960 1.920772 -0.411030 0.913321 0.332305 1.464213 0.240446 -1.496719 -0.125067
前景 0.554638 -0.117620 0.780403 -1.508206 -0.376586 -0.128484 2.296073 -1.782934 -1.788633 -1.951012
实业 -0.551274 -0.303803 0.965536 -0.398872 1.349728 -1.780309 0.058438 -2.073560 1.774575 -0.447757
麦格理 -0.279792 -0.505732 0.377374 -0.502774 0.124809 -0.963354 0.224366 -3.021513 0.440872 -0.862366
面临 0.384973 0.717313 1.034624 -1.296765 0.328321 0.272712 0.311242 -0.907692 -2.590183 -0.932969
周二 0.177807 -0.779748 0.936424 -3.292128 0.616883 -0.476467 0.098213 -0.638176 -0.202255 -0.208359
时间 0.185396 -0.633287 -1.010014 -2.519759 0.906089 -1.531320 -0.112712 -0.464255 -2.031896 -0.085538
s -0.481973 -1.084649 0.256657 -0.164430 -0.016174 -0.321981 -0.331072 -0.793333 1.220186 -2.923666
展开 0.041441 1.064741 0.393726 -0.306257 0.716046 0.283899 -1.393361 -1.108470 -2.877900 -0.497577
降 2.681154 -2.044901 2.789806 0.754686 0.461986 -0.223827 1.520667 -0.346778 -0.166095 -0.141115
10% 2.081570 -0.805555 2.385421 0.174670 -0.279507 -0.983962 0.133241 -0.644272 -1.323628 0.032613
去年 0.951788 -1.101424 1.414897 -1.025470 1.891566 -1.407278 0.390817 -0.255301 0.016883 -0.439530
通用电气 -0.300001 0.394105 0.976991 0.299257 1.238251 -0.650584 -1.242001 -0.765300 -0.111236 -1.841182
中海 -0.108672 0.142842 0.728958 0.135317 1.669065 -1.949389 0.502084 -2.583775 0.809659 -0.294951
中国银行 -0.438955 -0.278346 1.360989 -1.000157 1.031526 -0.492097 -0.614805 -1.914617 0.249001 0.310398
品牌 0.611729 -0.531650 0.826128 0.569289 2.417708 0.888484 -0.149260 -0.142120 -0.600184 -0.543741
正在 -0.411731 1.349630 0.845126 -1.499371 0.824555 -0.200524 -0.832359 -1.046844 -1.756904 -0.934649
200 1.058950 -2.805368 1.176174 -0.553178 0.982382 0.181384 -1.666785 -0.541311 -0.386298 0.739625
T 0.216459 -0.771465 0.008996 1.380812 0.020846 -0.275555 -1.666750 -0.719813 -1.286538 -2.403136
AMZN 0.951651 -1.627710 -0.580898 1.341308 0.439010 1.224061 -0.671292 -0.444776 -2.402588 -1.739037
稳定 0.338248 -1.326780 0.516931 -1.274801 -0.747490 0.749029 1.413173 -1.594634 -1.274998 -1.595857
之前 0.388821 -0.466219 0.684715 -1.637527 0.816516 -1.478159 -0.520116 -0.025019 -1.321958 -1.265839
目前 0.104643 0.318106 1.391641 -1.658458 0.796604 -0.810191 -0.246468 -0.487496 -1.053594 -0.852498
皇家 -0.287776 0.264040 1.662239 0.402119 0.506905 -0.728842 -1.176805 -1.354962 0.146049 -1.378150
系统 0.457795 0.075345 0.321507 0.647510 1.214968 0.021749 0.190483 -1.039164 -1.499705 -1.399433
持股 0.697653 -0.449263 1.308144 -0.206066 -0.748280 -0.674236 -0.621606 -2.002884 -1.074040 0.249280
James -0.935439 -0.787435 -0.540995 -0.890090 -0.955585 -0.988695 -0.175905 -1.068521 0.089228 -2.932301
结果 0.539664 -0.048330 0.914354 -1.738412 0.497954 -0.659188 0.258931 1.143746 -1.944317 -1.108627
东京 1.061522 0.553582 1.756199 -1.191297 0.400487 0.273804 0.655399 -1.191945 0.817430 -0.537743
恢复 0.683187 -0.122348 0.417101 -1.575420 1.063216 -0.672318 0.539311 -0.946786 -1.749036 0.058573
资源 -0.534854 0.275194 1.365820 -0.444247 1.828659 -0.170443 -0.243054 -0.879668 0.815867 -0.431756
标普 -0.330415 -0.920315 0.847496 -1.846909 0.318908 1.251860 0.154051 -1.184272 0.321610 -2.084724
诉讼 0.152258 1.075605 0.415247 0.312763 0.675736 -0.160073 -1.949862 0.094758 -2.822937 -0.666236
用户 1.073840 -1.537216 0.013336 -0.112204 2.558027 0.874760 -0.266713 0.845123 -0.721221 -0.009857
定价 0.369702 -1.371839 0.394165 -1.759359 -0.163432 0.139483 -0.323396 -1.414680 -1.445261 0.326218
类股 0.829492 -0.638583 1.248555 -0.003550 -0.604248 1.353876 1.175547 -2.492864 -0.972710 -1.793100
建设 -0.118834 -0.519207 0.425612 -0.368017 1.788641 -0.308531 0.156209 -2.238159 -0.476839 1.090332
2009 0.464415 -0.588975 1.579623 -1.477304 1.840326 -1.764013 0.749646 -0.703893 -0.081681 -0.036454
周三 0.254076 -0.747131 0.860048 -3.098345 0.615494 -0.622384 0.068102 -0.805550 -0.439745 -0.580970
订单 0.900005 -0.588205 0.017720 0.200178 2.440989 -0.190155 -0.706377 0.671973 -2.050863 0.250352
斥资 -0.197324 -1.602273 0.850147 -0.803683 0.896095 -1.340600 -2.197172 -1.183800 -0.156162 1.089192
中国移动 0.091239 -0.620465 0.405200 -0.356437 2.215986 -0.744388 -0.085150 -1.315665 0.589956 -0.519922
保险 -0.011491 0.163305 0.678249 1.276836 1.660740 -0.525570 -0.971059 -1.430031 0.172518 -0.948903
GOOG 0.934665 -0.483755 -0.782539 1.649009 0.506590 0.704060 -0.841892 -0.486264 -3.009957 -1.878162
指控 -0.093340 1.619649 0.679166 -0.215150 0.480337 0.676097 -2.106113 0.061043 -2.271275 -1.096727
辞职 -0.560185 -0.662371 0.763405 -1.774022 1.190494 0.482704 -0.977772 0.799325 -0.774143 -1.713073
家 0.595555 -1.980577 0.795505 -0.685089 0.787161 0.746143 -0.838519 -0.832211 -0.517190 0.392721
中国联通 0.450412 -0.888371 0.353144 -0.083596 2.648014 -0.609476 -0.216948 -1.210171 1.183308 -0.484898
Corp -0.684842 -0.568401 -0.699266 0.349487 -0.517089 -1.972206 -1.232694 -1.016924 0.285315 -2.511187
提出 -0.257500 0.707064 0.383935 -1.064859 0.286673 -1.147886 -1.672752 -0.556783 -1.893120 -0.735681
50 0.375277 -1.996205 0.492044 -0.477724 0.821606 -0.808685 -1.667178 -0.814397 -1.241060 0.845985
关闭 0.455700 -0.157184 0.740061 -0.847986 1.102993 0.295560 -0.269964 -1.088213 -1.171885 0.179944
美林 -0.476455 -0.659954 0.513126 -0.607731 0.049368 -0.116768 -0.665795 -1.789195 0.063375 -1.355931
配售 -0.600589 -1.192803 1.136370 -1.911902 0.172206 -0.016360 -1.587736 -0.895433 0.020734 0.713730
印度 -0.160416 0.625400 0.730150 -0.062575 1.428186 0.552653 -0.875881 -1.659408 -0.688241 -0.324806
亿股 -0.392610 -1.865199 0.892133 -1.427877 -0.267080 -0.393322 -2.334594 -1.260054 -0.357206 1.479377
商业 -0.008595 -0.502261 0.501241 -0.736641 1.883904 0.733426 -0.560507 -1.104236 -0.608165 -0.253461
C -0.043285 -1.564326 0.340534 1.118867 -0.099697 0.213036 -1.520532 -0.291189 -0.590368 -2.462680
周四 0.228543 -0.864052 0.863580 -3.260771 0.661306 -0.549617 0.071028 -0.720160 -0.175574 -0.424583
暂停 -0.000811 0.191604 0.636788 -1.446138 1.048993 0.096999 -0.468398 -0.858560 -1.208532 -0.444399
委员会 -1.503142 0.936739 -0.079687 -1.582435 1.513905 0.997878 -1.774940 -0.510895 -1.290325 -1.253456
售价 1.617283 -2.252828 0.811881 -1.437820 1.532264 0.452747 0.835032 -0.620243 -0.046063 -0.064724
FB 1.071877 -0.847353 -0.582859 1.131926 -0.030186 0.797864 -0.546061 -0.525756 -2.731642 -1.982222
年收入 0.932536 -1.350934 1.869048 -1.487061 1.327545 -2.831354 1.108228 0.172368 0.106470 0.355388
进一步 0.527900 -0.004042 1.289396 -1.546286 0.074352 -0.025701 0.020282 -1.035435 -2.172259 -0.803241
韩国 -0.506297 1.025962 1.077542 -0.583564 1.151333 0.733399 -1.043511 -1.516219 0.463591 -0.537828
并购 -0.240618 0.795092 1.225811 -0.721989 0.506502 0.515394 -0.700570 -0.884159 -2.025331 -0.911312
证实 -0.252622 1.139339 1.022698 -0.782129 1.146365 -0.967927 -1.545946 -1.065145 -0.570095 -1.032856
IBM -0.023994 -0.423219 0.112307 0.946106 0.733330 -0.566615 -0.761916 -0.401872 -0.946519 -1.575618
台积 0.008488 -0.396882 0.994133 0.081906 2.091556 -1.337871 -0.219117 -1.011535 1.070398 -0.527979
母公司 -0.532887 0.035080 1.084894 -0.423147 0.889548 -0.725997 -1.470210 -1.675812 -0.196833 -0.132105
必拓 0.323514 0.911298 1.498413 0.552664 0.474440 -0.789884 -0.325277 -1.257009 0.159476 -1.649472
特斯拉 0.679339 -0.114487 0.034381 0.714606 1.097308 -0.764565 -0.296033 -0.952516 -0.229692 -2.094481
GM 1.248095 -0.776733 0.196071 1.791663 0.941765 0.145175 -0.819819 -0.356391 -1.825167 -1.358536
食品 -0.045747 0.132510 0.246453 1.164646 1.540132 -0.977864 -0.077965 -1.251322 0.353298 -1.415625
成为 -0.275015 0.113064 0.932324 -1.226884 1.083563 0.113208 -0.363996 -0.615754 -1.018204 -1.154166
必 0.130123 1.196493 1.452296 0.338771 0.398360 -0.579699 -0.126013 -1.619081 0.187148 -1.521489
担忧 1.189056 0.984788 1.803936 -1.096904 -0.677332 1.748777 0.711067 -0.476798 -2.652724 -1.088752
成立 -0.784884 -0.224924 0.308222 -0.454784 1.517500 0.606102 -1.630164 -1.614230 -1.132054 0.537403
铁矿石 0.834593 0.851904 0.707790 0.706816 2.031884 -0.243737 0.476104 -1.527751 -1.156671 -0.040198
原油 1.596757 -0.666246 0.553435 -0.119782 2.967865 0.551375 1.032887 -1.075863 -0.576313 0.584222
月底 0.714957 -1.612857 0.442411 -2.039426 2.841553 -0.557642 0.093461 0.901382 -0.672375 -0.032374
希望 -0.446006 0.986419 0.970687 -1.740401 1.289466 -0.901371 -0.227189 -1.079253 -0.937649 -0.980201
网络 -0.068914 -0.210684 0.207378 0.916073 2.151234 0.922083 -0.084198 -1.245597 -1.197803 -0.580817
削减 0.532865 -0.528524 1.253118 -0.557422 1.164250 0.159704 -0.215308 -0.300426 -1.892039 0.079386
官员 -0.729806 1.347990 0.537126 -2.013312 1.118312 0.554468 -0.660327 -1.048183 -0.382301 -1.091210
开发 -0.025024 0.233031 0.831623 0.080365 2.033814 0.764643 -0.461545 -1.298993 -1.521222 0.770100
收益率 1.058725 -1.802411 1.275795 -1.704227 -0.986239 0.658332 -0.135429 -1.340433 -1.044593 1.215912
诺基亚 0.049113 0.542582 0.460694 0.798433 1.775190 -0.968806 -0.445570 -0.448486 -0.275124 -1.835981
GE 0.432736 -0.767233 0.240571 1.708891 0.466856 -0.206379 -1.170087 -0.167452 -1.209758 -1.585501
Raymond -0.804401 -0.128262 -0.548988 -0.898435 -1.184785 -1.252195 0.206007 -2.112317 -0.324626 -2.509376
记 -0.548014 0.222977 1.197808 -0.194623 1.269755 -1.314058 -0.178355 -2.590010 1.174343 0.225668
负面 0.039290 -1.390199 0.215322 -1.779802 -1.631625 0.940711 1.317087 -2.082187 -0.777944 -1.815347
20% 1.884039 -0.740332 2.401406 0.400155 -0.144492 -1.072539 0.077799 -0.921984 -1.323864 0.347228
光电 -0.047853 0.128431 0.446728 0.517242 1.693322 -1.683198 -0.102151 -2.173756 1.247552 -0.448123
召回 1.275269 -0.357112 0.953454 0.352938 1.974980 0.455047 -0.521157 -0.441522 -1.218092 0.514840
评估 -0.788483 0.510024 0.565740 -1.214682 0.420871 -0.068931 -1.193638 -0.716941 -2.188160 -1.259652
平均 1.283135 -2.435102 0.888496 -1.252444 1.605990 0.183858 0.866619 -0.350221 0.425347 0.203559
俄罗斯 -0.287155 1.202642 0.533445 -0.428555 1.699076 0.453368 -0.640733 -1.520351 -0.695355 -0.508357
平方米 1.961783 -3.865935 0.938026 0.656550 1.242235 2.352787 -1.155469 0.723716 1.396406 0.588003
新闻 0.026774 0.442191 -0.124455 -0.495531 0.262136 0.113587 -0.788947 -0.910041 -0.649865 -1.714449
报道 1.100024 -0.036874 1.015570 0.357112 -0.081978 0.537726 -1.239543 -0.419619 -2.342804 -1.872372
事宜 -0.185801 0.605242 0.837600 -0.492413 0.366322 0.177401 -2.260199 -1.568240 -2.543386 0.598075
强劲 1.243811 -0.160892 1.591827 -0.845466 0.707222 0.477073 1.879635 0.016083 -1.974800 -1.616458
英特尔 -0.099394 0.229505 0.088030 0.966606 1.246345 -0.628163 -0.494125 -0.811810 -0.556151 -2.232168
其他 -0.096483 0.208345 1.434798 -1.289998 0.655184 1.126854 -0.789665 -0.817916 -1.864351 -0.809326
半导体 0.237322 0.262085 0.244524 1.183726 2.091903 -1.958692 0.015151 -1.860762 0.316482 -0.396669
TSLA 1.299169 -1.039609 -0.415292 1.413842 0.451190 -0.169138 -0.753709 -0.300359 -1.969701 -1.596584
年底 0.174149 -0.887920 0.584949 -1.967393 1.464501 -1.270101 0.226725 0.143681 -0.959366 -0.727979
Stifel -0.818447 -0.206043 -0.714496 -0.423278 -1.111953 -0.629768 -0.097201 -2.728930 -0.202658 -2.200407
执行 -1.183157 -0.917264 0.550811 -1.750721 1.165478 0.883597 -1.251757 0.384956 -0.396334 -1.696371
还 0.017591 0.706612 1.689731 -1.549980 0.837191 -0.708654 -0.366586 0.003467 -1.331999 -0.931950
F 1.245393 -1.499978 0.139681 1.773267 1.139187 0.256897 -0.487813 0.329862 -1.291151 -1.547394
精密 -0.284164 -0.253795 0.783560 0.217245 1.447122 -1.680401 -0.300667 -1.975141 1.150353 -0.070697
总 0.780607 -1.252930 1.858237 -0.644446 1.806421 0.250689 -0.491287 0.710253 -0.430478 -0.141829
净 -0.111537 -1.781328 2.067173 -0.957790 1.270824 0.702107 0.105215 0.754642 0.045433 0.015649
40 0.659940 -2.064691 1.104573 -0.654872 0.243005 -0.813696 -1.431093 -0.832240 -0.697879 0.844940
明年 0.165036 -0.569350 0.537691 -1.853932 1.842665 -1.073460 0.343475 -0.449733 -0.977827 -0.873529
认购 -0.152806 -0.951665 0.859944 -1.474908 -0.022537 -0.011466 -1.627669 -0.715141 -1.061519 1.742927
带来 0.486278 -0.384132 2.067497 -1.159540 0.284699 -0.269933 0.004310 0.544158 -2.369761 -0.502132
万辆 1.658941 -1.973141 0.433133 1.309883 1.824136 -0.212964 -0.598389 -0.287661 -1.156174 0.844236
针对 -0.384985 1.163567 0.118635 -0.840752 1.255462 -0.444106 -0.815408 -0.902850 -1.468181 -1.167246
2008 0.487434 -0.702717 1.536648 -1.574353 1.818920 -1.772191 0.932771 -0.794930 -0.106818 0.062688
加拿大 0.097078 0.367955 0.885127 -0.140345 1.162727 0.772748 -0.871439 -1.121692 -0.146455 -0.750031
手机 0.949266 0.228203 0.005297 0.735073 2.762896 -0.028832 0.479594 -1.083670 -1.249041 -0.320716
北京 -0.300092 -0.078691 0.473046 -0.380105 1.503202 -0.267268 -0.267158 -1.779975 0.326939 0.912933
发货量 1.855297 -0.566051 0.717414 0.742060 2.421940 -1.188187 1.558501 -0.460824 -0.198054 0.490634
会 0.170891 0.515117 1.108942 -1.704547 -0.031957 -1.323258 0.536456 -0.916684 -1.861965 -0.594135
方案 -0.355016 0.370230 0.649160 -1.316487 0.277671 0.495595 -1.694661 -0.336548 -2.184242 0.244628
银行业 -0.015746 0.501311 1.351396 -1.495297 1.264654 1.134522 0.582601 -1.737136 -1.164946 -0.425105
雅虎 -0.323146 1.292535 0.614133 0.229879 1.167087 -0.542631 -1.308815 -0.455193 -0.744035 -1.505625
复牌 -0.258074 -0.398688 0.566780 -2.659610 -0.348433 -0.431669 0.686107 -1.083347 0.170928 -1.077972
周五 0.074643 -0.425248 0.877867 -3.288709 0.625864 -0.659179 0.094466 -0.774686 -0.309134 -0.484236
组建 -0.322957 0.212852 0.629355 0.397621 1.525791 0.432299 -1.529253 -2.090614 -0.783658 0.486642
空中客车 0.202537 0.180141 -0.088863 0.482607 2.943460 -1.326038 -1.012249 -0.056345 -0.292411 -0.686889
MSFT 0.840992 -0.984636 -0.682572 1.648789 0.670449 -0.431188 -0.536823 -0.225542 -2.597004 -1.552911
南方 0.553316 -0.796478 0.437227 0.193984 2.380862 -0.564361 0.287834 -1.924964 1.109394 0.104623
50% 1.628701 -0.284950 2.303491 0.471191 -0.238919 -1.163252 0.109631 -0.714447 -1.399773 0.934777
分拆 -0.463722 0.233945 0.549035 -0.422965 0.874613 -0.024718 -1.044770 -0.859886 -0.889336 -0.900271
腾讯 -0.144573 -0.221223 1.234087 0.221341 1.054741 -0.698599 -0.495038 -1.296694 0.462994 -0.945479
国航 0.699797 -0.920452 0.757164 -0.038496 2.540096 -0.415492 0.319714 -1.809311 0.850215 0.366925
矿业 -0.062075 0.303150 1.317899 0.039634 1.485619 -0.258724 -0.032000 -1.593519 1.277053 -0.233590
接近 0.290490 -0.243093 0.772407 -0.707743 0.055521 -1.060511 -1.287353 -0.669867 -1.116524 -0.414972
地 -0.309378 -0.256874 0.396381 -1.195149 1.139063 -1.315772 0.050399 -1.557581 0.249412 0.431682
天下 -0.249982 1.583378 1.265485 -1.664503 0.909605 0.037211 0.664668 -1.733075 -0.307154 -1.675089
前瞻 0.411704 0.036640 0.876659 -0.115043 -0.503871 1.240410 0.831410 0.795547 -0.523446 -3.575850
损失 0.478372 -0.470401 2.235079 -0.664531 0.516838 0.025681 -0.827051 0.887258 -1.526560 0.160005
达克 -1.045524 -0.038723 0.552933 -2.280020 -1.363514 1.617248 -1.463166 -0.998288 0.319881 -0.663429
那斯 -0.853886 0.061792 0.444657 -2.162241 -1.385494 1.540958 -1.485725 -1.126571 0.458654 -0.734486
盈利 0.764911 -0.807106 1.478471 -1.369263 0.615864 -0.842884 0.957517 0.346290 -1.458633 -0.484417
平台 1.143669 -0.460474 0.073407 0.563938 1.922275 0.838264 0.662570 -0.630787 -1.433078 -0.170683
一 0.408949 0.058788 1.230247 -0.998236 0.671990 -1.040832 0.170627 -0.823175 -0.659912 0.320056
原因 0.416223 0.522069 2.038825 -1.797200 0.518099 0.144823 0.140026 0.973989 -1.091853 -0.913111
离职 -0.254194 -1.105200 0.163726 -1.042166 0.705808 0.489944 -1.452350 1.037387 -1.604346 -1.736869
中国电信 0.296211 -0.799681 0.318225 -0.210907 2.637378 -0.676313 -0.023297 -0.954336 1.079704 -0.090064
人寿 0.176981 -0.354911 1.129055 -0.120405 1.607508 -0.760401 0.037453 -1.934164 0.791823 -0.062794
平安 -0.020847 0.136983 1.235848 -0.213010 1.374041 -0.982424 -0.066959 -2.095800 0.860248 0.248690
快讯 1.225222 -0.518833 2.923324 -0.601021 -0.660728 1.773801 0.720052 -1.014824 2.136841 -1.894747
金控 -0.322772 0.054987 0.517455 0.070218 1.741316 -1.271814 0.220734 -2.366188 1.423024 -0.166867
工商银行 -0.498453 -0.319307 1.281428 -0.869068 0.910103 -0.451151 -0.701769 -1.847575 0.559035 0.223605
报价 0.670942 -0.027837 0.784677 -0.541342 -0.647680 -1.753545 -1.223023 -0.375444 -1.808422 -0.515182
希腊 0.072154 0.776911 1.569499 -1.513995 -0.096142 1.376795 -0.247699 -1.280072 -0.688560 -0.425873
推迟 0.208738 0.112618 -0.152076 -1.741611 1.196285 -0.880076 -0.484767 -0.600662 -1.462256 -0.211270
架 0.330257 -1.625535 -1.418001 0.963947 2.964223 -1.172131 -1.912085 0.451144 -1.223864 0.791398
客户 0.068055 -0.268980 0.689159 -0.565730 1.271344 1.377740 -0.851369 -0.093892 -1.776311 -0.617680
等 -0.309702 -0.126033 1.213166 -0.459178 0.480140 1.178023 -0.822059 -1.310195 -1.258083 -1.036495
彭博 0.457622 -0.282509 0.249631 0.596557 -0.243252 0.488038 -1.869960 -0.827222 -2.203295 -0.465293
税前 0.583959 -0.752979 2.254832 -0.362669 1.635334 -1.432729 -0.336283 0.770453 -0.112132 -0.214497
娱乐 -0.349453 -0.674516 0.786935 1.117912 1.592560 -0.913277 -0.255722 -1.427568 1.247945 -0.936851
长江 -0.499848 -0.029450 1.248284 -0.586084 0.783263 -1.588390 -0.351841 -2.170862 0.987685 -0.069303
比例 0.712128 -0.664137 1.182004 -0.617345 -1.049753 -1.066596 0.230645 -1.812932 -1.421815 0.966152
CFO -0.622034 -0.094160 0.625551 -0.582562 1.686051 -0.217809 -0.678798 0.131676 -0.340614 -2.200484
所 -0.236576 0.178725 1.221910 -0.652176 0.222537 -0.057757 -1.109082 -1.615330 -0.966231 0.140921
推动 0.979633 -0.254050 1.736996 -0.604416 0.201105 0.791766 0.669453 -0.487906 -1.534252 -1.309030
万吨 1.862879 -2.401423 0.576447 1.060043 1.915728 0.251461 -0.329280 -0.082553 -0.417073 1.847978
股闻 -0.233419 1.623848 1.353839 -1.812572 1.016441 0.043291 0.632730 -1.577971 -0.294000 -1.600863
菲亚特 0.219702 1.016982 0.966725 0.414221 1.889807 -0.791277 -1.044682 -0.507612 -0.047982 -1.288991
5% 2.022204 -1.065083 2.253655 0.210759 -0.463668 -0.689956 0.314606 -0.572503 -1.051581 -0.076142
燃气 -0.224942 0.038654 0.648572 0.174217 1.480959 -1.272518 0.321630 -1.955347 0.960064 0.217477
300 0.943603 -2.494763 0.623997 -0.284194 1.064482 -0.344065 -1.404056 -0.617267 -0.993326 1.165335
初步 0.351587 -0.222359 0.894135 -1.317141 0.210437 -0.660926 -1.439868 -0.422027 -1.836279 0.405349
到期 0.051227 -2.372629 0.241554 -2.669396 0.660428 -0.146725 0.041736 0.840444 -0.687533 0.544509
水平 1.195901 -1.054482 0.221428 -1.791351 0.363781 -0.366037 1.079403 0.248175 -2.014571 -0.062037
所有 0.031093 0.190896 0.578110 -0.968109 0.918795 0.461046 -0.882312 -0.578517 -1.894403 -0.405035
沃尔玛 -0.087619 -0.333085 0.384000 0.317409 1.178824 -0.063970 -0.256579 -0.890670 0.014066 -1.873535
25 0.580324 -2.196367 0.467849 -0.857790 0.690312 -1.225435 -1.469332 -0.679857 -1.144279 0.597395
新股 -0.316033 -1.106174 1.069944 -1.926910 -0.198830 0.237470 -1.314694 -1.325756 -0.439161 1.093776
伦敦 -0.069596 -0.291969 0.597009 -0.587885 -0.081373 0.739004 -0.403733 -1.888542 0.489339 -0.459430
潜在 -0.436666 0.834994 1.206268 -0.625511 0.102567 0.421917 -1.841192 -0.362353 -2.083253 -0.367095
而 0.842795 0.361908 1.845676 -1.102128 0.220355 0.277116 -0.081264 0.428435 -2.331219 -0.518292
KeyBanc -0.931802 0.376584 -0.473391 -0.304043 -0.551363 -0.479396 0.310553 -3.096449 -0.477313 -1.565201
法院 -0.678182 1.881717 -0.219492 -1.378085 0.662866 -0.431429 -1.040835 -1.135579 -1.365478 -0.884598
至少 0.950050 -1.275891 1.740861 -0.798935 0.233718 -1.372682 -0.288795 0.207191 -1.450017 0.798559
戴姆勒 0.218259 0.463425 1.116114 0.801323 2.013025 -0.724876 -0.738694 -0.555636 0.440466 -1.195761
达到 1.406900 -1.636834 0.811768 -0.987676 0.972089 -0.781773 0.164245 0.478304 -1.750508 0.609912
国债 1.346464 -1.214770 1.173638 -1.549183 -0.220749 1.311966 -0.277622 -1.178132 -0.642632 1.427922
点心 0.102239 -1.475173 0.869774 -2.274711 -0.118793 0.876003 -1.003503 -1.272246 0.315626 1.730029
东方航空 0.777150 -0.153979 0.594310 -0.056973 2.113268 -0.394577 -0.108061 -2.081270 0.564771 0.497478
内 0.448198 -0.851865 -0.462969 -1.969928 1.081015 -0.976076 0.214015 -0.289500 -2.173033 0.289186
海洋 0.002487 -0.187005 0.536952 0.179977 1.861665 -0.983739 0.482736 -1.884596 0.646021 -0.509991
钢铁 0.542167 0.253295 0.705013 0.773331 2.510346 -0.651170 0.622139 -1.977827 0.133165 0.403531
款项 -1.102003 -1.586111 1.854167 -1.236842 1.104291 2.877886 -1.467387 0.220949 0.234159 -0.155159
估值 0.439010 -0.999596 1.135971 -0.965200 -0.496956 -0.584969 -0.982141 -0.401144 -1.587102 0.243287
BMO -0.994756 0.012159 -0.786017 -0.206462 -0.809564 -0.319281 -0.682159 -2.801565 -0.647311 -2.240710
持平 1.514918 -1.257492 1.644060 -1.149242 -0.054816 -0.523042 1.375801 -0.092698 0.187526 -1.131390
新增 0.698385 -1.994498 0.543819 -0.572487 1.881164 0.325413 -0.468914 0.374341 0.588749 0.593439
+ 0.764132 -3.303576 -0.178354 -0.333910 -0.515677 2.030155 0.796435 -1.142107 0.199156 -1.658376
派发 -0.831231 -1.149541 0.644109 -2.635320 0.160478 -2.578756 -1.142114 -0.068421 -0.048107 0.080362
苏格兰 -0.316298 0.427053 1.819247 -0.098568 -0.236866 -0.429100 -1.022090 -1.302230 0.270602 -1.122662
尚未 -0.288344 1.246715 0.719503 -1.732043 0.493068 -1.213802 -0.924996 -0.702953 -1.800816 -0.462664
接受 -0.476716 0.850460 0.318252 -1.327369 0.295583 -0.671643 -1.408813 -0.435720 -1.458919 -0.467305
荷兰 -0.519583 0.849854 0.880853 -0.099298 1.031096 0.081679 -0.954161 -1.043880 0.099935 -1.043640
披露 -0.010202 0.575681 0.991857 -1.208634 -0.522731 -0.327469 -1.011270 -0.272038 -1.560653 -1.164389
油田 0.748512 0.471487 0.011443 1.215816 2.221854 -0.649901 0.237798 -1.679688 -0.804845 0.644108
每日 -0.185842 -1.077198 0.097650 -1.572840 -0.801042 2.398741 -0.891448 0.092583 0.378504 0.142142
高 1.252437 -1.335543 0.681409 -0.803809 -0.492961 0.031147 0.463596 -0.561722 -1.275008 0.312471
大华 -0.172650 -0.414889 0.450400 -0.494527 -0.163132 -0.741321 -0.257029 -3.317354 0.465969 -0.156899
盈科 -0.480673 1.008161 0.985853 -0.080617 0.314679 -1.623855 -0.948668 -2.106347 0.364471 -0.167919
万元 1.495125 -2.651800 1.225162 0.523986 0.718777 -1.263265 -1.682118 0.967030 -0.252849 1.684601
日产 0.300482 0.275786 0.627308 0.218797 2.321345 -0.067186 -0.522926 -0.397071 0.592034 -0.905311
商业银行 0.294065 0.903398 1.211944 0.400187 1.281790 -0.307213 0.087158 -1.620097 0.475874 0.294597
最大 0.439427 0.074394 0.966691 -1.182708 0.818725 0.541014 0.083370 0.394603 -1.504241 -0.082894
宏达 -0.088206 0.228491 0.495606 0.515359 1.601718 -1.398648 -0.109578 -1.530453 0.784344 -1.288054
优先 -0.687339 -1.976097 -0.121398 -2.202756 0.131179 0.640205 -0.901023 -0.459514 -0.644342 0.650452
准备 -0.356045 0.478325 0.722410 -1.467808 0.587372 -0.839398 -0.936294 -0.462686 -1.334503 -0.435464
壳牌 0.042045 1.029462 0.858320 1.176755 1.778351 -1.254651 -0.787919 -0.801460 0.073252 -1.019137
水泥 0.139674 -0.582507 1.035807 0.060282 1.478327 -0.393797 0.952516 -2.559460 1.363436 -0.048804
全年 0.584922 -1.197064 1.164794 -1.148918 1.033043 -1.030598 0.973105 0.324201 -0.663978 -1.201088
航班 1.026339 0.175441 -0.615817 0.366714 2.055690 0.741228 0.143346 -0.462021 -1.474798 0.251147
设备 0.475510 0.170170 0.320877 0.875015 2.095863 0.982671 -0.169437 -0.318882 -1.561317 -0.717113
建议 -1.001930 0.136691 0.298040 -2.035867 0.040244 -1.103242 -1.245848 -0.460143 -0.775457 -0.879646
渣打 -0.637631 -0.586486 1.505793 -0.816689 0.450619 0.075220 -0.738391 -1.168531 0.499600 -1.259231
06 0.571149 -0.469472 1.768517 -1.641930 1.424589 -1.939914 1.136204 -0.219327 0.528303 -0.417093
SunTrust -1.111715 0.302872 -1.099291 -1.181001 -2.027484 -0.952465 -0.610358 -2.305956 -0.735432 -2.042328
Partners -1.229521 -0.518797 -0.664505 0.580036 -0.975854 -0.995426 -2.299854 -1.176575 0.329866 -1.788302
移动 0.300507 0.410680 0.515795 1.139377 2.767010 0.483525 -0.209108 -0.509597 -0.920685 -0.470697
13 0.566664 -2.283680 0.487675 -0.885951 0.888228 -1.040096 -0.970632 -0.334136 -0.473056 0.286355
S 0.285894 -1.147563 0.238719 1.275717 0.381715 0.334737 -1.164262 -0.107011 0.501351 -2.479222
Research -0.898292 0.019666 -0.090606 -0.675980 -2.016718 1.006371 0.273918 -2.063015 0.497897 -3.046258
期货 -0.036754 -0.391379 1.137946 -2.497137 0.537387 2.174182 0.900637 -0.277634 0.994660 -0.853853
煤炭 1.499838 -0.412226 1.024273 0.620399 2.830308 0.649274 0.801677 -1.000104 -0.188669 0.385603
国家 -0.338596 0.600074 0.676181 -0.845041 0.878983 1.419489 -0.380566 -1.734827 -1.073906 0.053073
法国巴黎 -0.009013 0.143503 1.593889 -0.616910 -0.115125 -0.449028 -0.353453 -1.577806 0.662129 -1.181264
超 0.857958 -1.703267 1.376753 -0.714598 -0.058938 -0.832054 0.527365 0.755135 -0.569982 -0.828751
飙升 1.737383 -0.457713 2.454464 -0.408209 -0.671691 -0.654725 0.563346 -0.392687 -0.147914 -1.003403
季度 0.652030 -1.327555 0.558742 -1.036987 0.027876 -1.863813 0.292946 0.039444 -0.884501 -1.003300
BABA 0.902436 -1.108478 0.649437 1.716777 -0.467231 0.754805 -0.590191 -0.418723 -1.467171 -1.286613
Financial -0.484363 -0.274048 -0.885840 1.011299 -0.605394 -1.558953 -0.603655 -1.201875 0.359490 -2.585575
导致 1.059911 0.709788 1.902945 -0.765654 0.703234 0.194815 0.720787 0.150260 -1.764290 -0.244999
合资企业 0.239193 0.267492 0.837003 0.473773 1.128749 0.235121 -1.079325 -1.558577 -1.424276 0.608727
非 -0.657040 -0.515457 1.084824 -1.181956 1.094455 0.207039 -1.100709 0.286695 -0.485117 -0.024722
经营 0.430507 -0.598970 1.785222 -0.489944 1.423962 -0.143000 0.335451 1.077278 -1.399507 -0.477210
西班牙 -0.009544 0.699073 1.440024 -0.843749 0.139880 0.890249 -0.129723 -1.750004 0.325754 -0.389683
观察 0.115939 -0.798191 0.239742 -1.212437 -0.898783 1.345069 1.084740 -2.752851 -0.695704 -1.479170
配股 -0.640734 -0.679383 1.486469 -1.975257 0.342752 0.070538 -1.126728 -0.617219 -0.283184 1.125517
酒店 0.019260 -0.244302 0.554419 1.120340 1.653804 0.213223 -0.540021 -1.287826 0.688079 -0.196586
私有化 -0.148099 0.632104 0.614699 -0.172945 0.119028 -1.181649 -1.491099 -1.030545 -1.237237 -0.454642
取消 0.043912 0.107264 0.282813 -1.125465 1.227022 -0.137772 -0.667217 -0.319144 -0.794094 -0.484949
兑 0.480310 -2.539647 1.638404 -2.329372 -1.565988 1.596230 -0.210961 0.035256 -0.088843 -1.038300
Nicolaus -0.836162 0.146559 -0.475895 -0.830799 -0.975194 -0.768978 0.152262 -2.598630 -0.512945 -2.133974
21 0.576968 -1.713079 0.216977 -0.358804 0.591773 -1.705448 -1.533724 -0.315549 -0.674114 -0.149233
同店 1.727135 -1.788390 1.256250 1.500511 2.363437 0.596087 0.684771 0.372747 0.177337 -1.579837
存托 0.215703 -1.415597 2.037182 -1.512162 -0.247452 1.557391 -0.818491 -0.491067 0.811876 -0.753355
供应 0.897034 0.503342 0.815249 0.246850 1.494991 0.696768 0.446533 -0.882722 -1.981720 0.457400
退休 -0.168111 -1.493120 -0.069687 -0.996249 1.046838 0.179166 -0.999178 0.928369 -1.315010 -1.565358
16 0.582483 -2.335875 0.328394 -0.669213 0.726427 -1.408939 -1.233334 -0.457050 -0.708369 0.419451
来 -0.087495 -0.780323 0.378367 -2.183743 0.562380 0.269068 -0.537010 0.487827 -2.056540 0.132788
Robinson -1.474236 0.595497 -1.433949 -2.153636 -2.346034 -1.623415 -0.422196 -2.482389 -1.053165 -2.132957
受到 0.603851 0.556808 1.957329 -1.021972 0.772053 -0.110526 0.465851 0.300238 -1.540369 -0.839650
雷曼 -0.284886 0.295165 0.969825 -0.382105 0.207104 0.222843 -1.061571 -1.896855 -0.864696 -0.230280
百度 -0.088548 -0.344379 0.303457 0.453088 0.999137 -0.214296 -0.039223 -1.114250 0.127300 -1.766662
联想集团 -0.027577 -0.460425 0.841004 0.181831 1.204987 -1.379057 -0.237095 -1.374824 0.919622 -1.061774
有望 0.700221 -0.173208 1.151899 -1.641793 0.677555 -0.370690 0.444383 0.088231 -0.952433 -0.560753
18 0.519115 -2.313250 0.298012 -0.690367 0.791821 -1.194188 -1.202751 -0.408392 -0.807573 0.339728
起 0.244066 -1.355749 -0.226459 -2.688378 0.564213 -0.372169 0.378705 -0.983746 -0.843899 0.111912
零售 0.495426 -0.524858 1.383725 0.471440 1.698949 1.530408 0.196672 -1.013538 -0.205349 -0.572445
15% 1.910281 -0.973967 2.267313 0.488468 -0.361620 -0.924657 0.391371 -0.757416 -1.165329 0.164741
专访 -0.457543 0.854513 1.232855 -1.587032 1.544542 -0.526786 0.053453 -1.650538 0.122483 -0.897283
持续 0.785313 -0.262394 1.175923 -1.269732 0.459521 -0.347896 1.065652 0.167604 -1.968290 -1.039743
亿英镑 0.401661 -1.390871 1.570986 0.507864 0.087451 -1.088703 -1.748634 0.229513 -0.211455 0.566368
租赁 -0.543180 -0.574076 0.676669 0.032636 2.190504 0.184664 -1.117516 -0.912352 0.042172 0.520213
中兴通讯 -0.000474 0.204512 0.479550 -0.248298 1.472091 -1.017313 0.237372 -1.564022 0.270372 -0.507646
名单 -0.176601 -1.028240 -0.457558 -1.144734 -2.032671 1.406647 0.300977 -2.280899 -1.367155 -0.804376
深圳 0.317130 -0.392991 1.824968 -0.286692 0.777984 1.010094 -0.413868 -2.032368 1.353158 0.253316
发出 -0.262098 0.418630 0.427543 -0.959492 -0.299519 -1.158247 -1.658680 -0.029073 -1.491671 -0.311959
息率 1.210629 -1.507712 1.797291 -3.293860 -1.685278 0.653279 0.687939 0.243590 -1.446517 0.860473
？ 0.291468 0.714227 -0.180473 -1.528084 -0.500323 -1.121059 1.022014 -0.894422 -1.758869 -0.465881
救助 -0.284071 0.872066 0.946662 -1.087311 0.514677 0.907202 -0.918741 -1.345853 -1.355933 0.190324
公开 -0.607300 -0.556498 0.352759 -1.991192 -0.635697 -0.484175 -1.411256 -1.278032 -0.596613 0.540516
破产 -0.293184 0.885362 0.029131 -0.547279 0.212712 0.202416 -1.312328 -0.990222 -1.714981 -0.616095
短期 0.061525 -1.346821 0.470933 -2.581043 0.358529 -0.503013 0.182978 -0.302733 -0.484982 1.003600
SEC -0.483014 0.881949 0.632538 -0.786396 0.505110 0.362663 -2.243519 -0.213736 -0.850285 -1.257524
兄弟 -0.312575 0.124012 0.644827 -0.028112 0.228546 0.593360 -0.896222 -2.058051 -0.647480 -0.179181
区间 0.970232 -1.157112 0.772538 -1.852377 -1.150381 -1.211011 0.526732 -1.044806 -2.221446 0.085089
Humphrey -1.373462 0.884697 -1.253680 -1.887403 -2.168391 -1.377093 -0.247674 -2.961301 -1.129546 -1.921333
下半年 0.374854 -0.179742 1.054649 -1.314052 1.493040 -0.794274 1.246786 -0.196143 -1.091565 -0.908791
表现 0.948739 -0.289757 0.958581 -0.975466 0.303686 0.366037 1.722474 -0.263124 -1.987478 -1.733686
万股 0.172228 -2.437988 0.642745 -0.223291 -0.298506 0.547563 -2.360299 -0.596213 0.182244 0.697664
制药 -0.314262 0.356984 0.301971 1.135961 1.277361 -0.940891 -0.573794 -0.755417 0.443664 -1.352571
宏基 -0.050718 0.144124 0.838687 0.223542 1.929368 -1.515581 0.248009 -1.505689 1.096730 -0.893547
14 0.702765 -2.303569 0.533648 -0.736893 0.611068 -1.197131 -1.182200 -0.457949 -0.672981 0.435398
周一 0.317807 -0.028690 0.826821 -2.692690 0.479875 -0.086058 0.445034 -0.487025 -0.375681 -0.985090
2007 0.484902 -0.411296 1.152797 -1.337061 1.522283 -2.020181 0.949712 -0.779732 0.191663 0.068082
放缓 1.270414 0.179932 1.455324 -0.833213 0.809648 0.296132 1.675573 -0.092157 -2.140558 -0.949260
07 0.385464 -0.347394 1.472465 -1.218001 1.814757 -2.023289 0.652392 -0.524593 -0.067846 0.186447
最 0.284818 -0.598972 0.090867 -2.076784 -0.220241 -0.714217 0.447909 -1.328435 -1.806487 0.305938
交通银行 -0.546585 -0.093440 0.932739 -1.068460 1.336928 -1.167766 0.066004 -1.820475 1.152779 0.359070
巴西 -0.071313 1.170258 0.889441 0.678337 1.242939 0.237378 -0.791379 -1.696630 -0.489081 0.307563
政策 0.203561 0.163951 0.139068 -1.820526 0.007683 1.532363 0.530976 -0.501730 -1.937403 -1.276448
行政 -1.104381 -1.007225 1.436342 -1.802299 1.405683 1.240501 -0.967169 0.934132 0.762542 -1.658519
研究 -0.374380 0.194717 0.521884 -0.580612 0.405481 0.423108 -0.744504 -0.696160 -1.507058 -0.823183
信息 0.122255 0.276443 0.360549 -0.620504 0.810056 0.838114 -0.354868 0.342504 -1.948312 -1.108984
三星电子 0.325931 0.980702 0.978838 0.457495 1.782068 -1.262206 -0.092014 -0.016422 -0.158222 -1.322361
月末 0.806177 -1.459647 0.279665 -2.514018 2.537860 -0.891148 0.502924 1.000879 -0.754181 0.252153
软件 0.291821 0.264693 0.093835 1.078614 1.549552 -0.262315 -0.100389 -0.906296 -1.116384 -0.528276
WFC 0.522655 -1.331910 0.061144 1.258453 0.000174 0.765557 -1.261351 0.134402 -1.890135 -1.794248
30% 1.938415 -0.619139 2.243545 0.498930 -0.117812 -1.034445 0.404601 -0.538521 -1.461147 0.649516
中华 -0.427966 0.256653 0.793309 -0.461079 1.262806 -1.346222 0.182537 -2.187031 1.423510 0.060605
小幅 1.410301 -0.792514 2.090520 -2.350727 -0.454231 0.578857 1.583537 -0.068240 0.024543 -1.708017
宝马 0.868387 -0.168132 1.037706 0.357361 2.734310 0.245589 -0.072453 -0.529751 0.877680 -0.981522
美股 0.055028 -0.046596 2.269944 -3.330109 -0.697670 0.614052 1.081254 0.475201 1.280064 -2.373030
Brands -0.159827 -0.887535 -0.302094 1.129280 0.700607 -1.465461 -0.597622 -1.032398 1.737165 -2.192671
上市公司 0.469851 -0.461105 1.830405 -0.968449 -0.566809 -0.115646 0.991637 -0.105995 0.919714 -0.538752
压力 0.068741 0.140382 0.756541 -1.755315 -0.177654 0.756328 0.673538 -0.669881 -2.025091 -0.798088
提交 -0.408882 0.303836 -0.121875 -1.705712 0.470858 -0.321905 -1.607310 -0.406987 -1.583101 -0.468970
行业 0.495813 0.668347 0.791454 -0.193118 1.249825 0.523728 1.305904 -0.996605 -1.565963 -0.379080
黄埔 -0.462603 0.212535 0.980262 -0.177455 1.043911 -1.124851 -0.110070 -2.116577 0.998834 0.299499
iPhone 1.044049 -0.119553 -0.665911 0.299055 2.279108 0.106444 0.328026 -0.282426 -1.451824 -0.743609
太平洋 -0.463014 -0.524058 0.527575 0.135259 1.335484 -1.484391 0.265331 -1.876844 1.888603 -0.276776
万港元 1.038433 -3.105006 1.527796 -0.089139 0.754023 -0.872871 -1.712508 1.068060 0.126952 0.726801
电气 -0.557984 -0.097772 0.526690 0.080855 1.172088 -1.344815 0.038793 -1.942579 1.239175 -0.433758
道 0.266683 -0.104385 1.896677 -0.636697 0.806752 1.000430 -0.431964 -0.131494 1.184096 -1.167473
建立 -0.419236 0.025289 0.253944 -0.147343 1.429570 0.730333 -0.849410 -1.750212 -1.466865 0.373098
ADR 0.280553 -0.782117 2.081559 -1.294859 -0.532833 1.693096 0.060132 -0.963657 0.651987 -1.324947
环球 -0.333161 -0.124891 0.613783 0.175929 1.294443 -0.990442 0.248084 -1.268361 1.963857 -0.866499
吉利 0.467481 -0.042980 0.525913 0.578973 2.276502 -1.224625 -0.144943 -1.321891 0.817930 -0.403646
神华 0.562124 -0.865150 0.761120 -0.528329 2.370979 -0.649981 0.573097 -2.061547 1.466412 0.387312
权益 1.022060 -0.215339 1.653287 1.082577 0.419846 0.469866 -0.840169 -1.025233 -1.352022 1.085144
交付 1.179883 -0.827235 -0.593522 0.167940 2.346004 -1.487842 -0.061362 0.982582 -1.508517 -0.179134
审计 0.271829 -0.011105 1.347491 -0.455441 2.052934 -0.644787 -0.192393 0.137188 -0.352790 0.480896
智能手机 1.066711 0.240383 -0.193514 0.741927 2.419668 0.075723 1.131441 -0.725902 -0.959109 -0.595449
持 0.362123 0.838786 1.537927 -0.202289 -0.798667 -0.230566 -0.216976 -1.866036 -1.383048 0.167919
黄金 0.274825 -0.267443 -0.139284 -0.457315 1.302458 0.470449 0.822616 -1.376603 1.278260 -0.631760
远洋 -0.086883 -0.894811 0.803280 -0.488118 1.689495 -0.736011 0.283984 -2.002330 1.801422 0.042401
60 0.327925 -2.320842 0.330718 -0.463548 0.393729 -1.264248 -1.375642 -0.575703 -1.057454 0.947219
表示 -0.235953 1.476390 0.927840 -1.231538 0.445420 -0.654031 -0.401609 -0.668770 -1.141677 -1.315009
08 0.490671 -0.575111 1.244470 -1.302626 1.738207 -2.042990 0.634996 -0.419339 -0.372687 -0.144619
迪士尼 -0.158410 0.085439 -0.106640 0.998009 0.859783 -1.010659 -0.687190 -1.126411 -0.126600 -1.353500
延长 0.274532 0.058366 -0.336846 -1.249139 1.065737 -1.501750 -0.890199 -0.162339 -1.568251 0.175637
令 0.772481 0.262705 1.589772 -1.212569 0.336560 0.540619 0.558790 0.046080 -1.363388 -0.975512
油价 0.970795 -0.355705 1.192431 -1.074766 -0.006484 0.479599 1.303264 -0.472847 -0.427834 -1.286016
联华 0.297427 -0.192842 0.660221 0.593295 2.151450 -1.515594 0.089871 -1.548460 1.555531 -0.613898
华为 -0.068730 0.827967 0.375159 -0.203346 2.306169 -0.173008 -0.170868 -0.507925 -0.693523 -0.734534
结束 0.593369 0.410137 0.402935 -1.725647 0.483677 -0.555887 -0.312640 0.274309 -1.576911 -0.628227
证交所 -0.028872 0.905594 0.915824 -1.150056 -0.484883 0.200839 -0.777253 -2.243509 -0.025077 -0.749045
保费 1.018834 -1.239945 1.028377 0.935863 4.134819 0.950255 -0.078020 -0.144992 1.456533 1.034322
收到 -0.525228 0.594302 0.501844 -1.389799 0.562428 -1.112908 -1.771339 0.163397 -0.810940 -0.612030
公司债 0.411880 -1.670866 0.810183 -1.729787 0.507195 0.964101 -0.232211 -0.814751 -0.708077 1.014737
抵押 -0.264401 -0.136029 0.681189 -0.149377 1.464101 1.337005 -0.860276 -1.544077 -1.233093 0.441284
17 0.824155 -2.299146 0.355960 -0.446983 0.902416 -1.226407 -1.001929 -0.285925 -0.885789 0.211805
专利 0.134660 1.620592 -0.313213 0.933805 1.726348 -0.839307 -1.167614 0.068865 -2.526114 -0.173572
长期 -0.126181 -0.475429 0.399214 -0.956376 0.304745 0.870329 0.889494 -1.519287 -1.333532 -0.844999
东方 -0.616265 -0.276963 1.174880 -0.185714 0.928117 -0.836473 0.117704 -2.218979 1.835156 -0.268213
继显 -0.476189 -0.302647 0.269121 -0.515337 -0.128017 -0.940919 -0.356357 -3.166089 0.689717 -0.277795
达成协议 -0.016998 0.673518 0.595768 -0.376164 0.160242 -0.237044 -1.280622 -0.765882 -1.768863 -0.404405
进行谈判 0.138409 0.894058 0.903601 0.290973 0.118603 0.399844 -1.947568 -1.377989 -2.089235 0.221878
置 0.081945 -0.552296 0.274584 -0.444858 1.526412 -0.879638 -0.121985 -1.567713 1.221574 0.609415
增速 1.476070 -0.904911 0.992035 -0.960578 0.728880 -0.429304 2.173612 -0.129983 -1.367662 -0.737114
反垄断 -0.454584 1.319635 -0.123789 -0.799183 1.062473 0.786179 -2.139641 -0.402186 -2.653053 -0.934785
存在 1.019810 1.179874 1.106172 -0.397838 0.627701 0.617731 0.286419 0.109961 -2.744525 -0.183757
Riley -1.375312 -0.564575 -0.666637 -1.735805 -1.925334 -0.478093 0.014130 -1.897536 0.912434 -2.371566
Pharmaceuticals -0.900204 -0.268785 -0.698365 1.462771 -0.949865 -1.362486 -0.496756 -1.006509 1.447926 -2.494309
澳门 0.432163 -0.247214 1.020735 0.698367 1.854490 -0.202652 0.399866 -1.358392 0.419127 0.098223
麦当劳 0.481660 -0.954985 0.079964 0.666711 1.540373 -0.166741 0.243096 -0.898859 0.216669 -1.749224
参与 -0.328635 0.970918 0.858371 -0.973436 0.729400 0.276796 -0.884851 -1.071526 -1.168819 0.407410
物业 0.441343 0.261432 2.584089 -0.033108 1.778927 0.482039 -0.677696 0.265265 -0.509797 0.670697
负责人 -0.638775 -0.346961 0.728382 -0.221791 1.159847 1.860293 -1.120480 0.306989 -0.527585 -1.709645
Global -0.967394 -0.335667 -0.640400 0.977392 -0.635200 -0.707603 -2.080535 -1.214104 0.386107 -1.834382
安全 -0.101345 0.983095 0.082083 -0.602216 1.562805 1.436846 -0.094829 -0.464809 -1.892802 -0.941742
至弱 0.674194 -1.048647 -0.024714 -0.614138 -0.810549 -1.290491 1.272745 -2.945618 -1.878966 -1.607497
05 0.685503 -0.359401 2.155948 -1.695969 0.592716 -1.512044 1.225050 0.318735 0.906209 -0.821553
认为 -0.564616 1.235979 1.102189 -1.394020 0.316757 -0.103173 -0.066504 -0.963476 -0.656764 -1.682869
Corporation -0.598185 -0.163454 -0.293863 -0.359800 -0.684009 -2.348087 -0.368054 0.552190 0.793901 -3.200111
Therapeutics -0.810559 0.094304 -0.870244 1.330214 -1.191909 -0.988159 -0.503643 -1.160136 1.253735 -2.131287
400 0.924556 -2.601764 0.880389 0.099723 0.754337 0.072385 -1.569066 -0.040628 -0.372548 0.695863
一家 -0.140287 0.349193 0.920729 -0.260453 0.762780 0.914915 -0.799557 -1.838465 -1.144054 1.017278
; 0.766233 -2.037312 -0.023086 0.677491 -1.041519 -1.729418 -0.339498 0.374363 -0.263878 -1.675984
华尔街 0.074295 0.551144 1.026555 -1.106371 -0.057748 0.013346 0.832740 -0.611998 -0.719451 -1.600856
消费者 0.040495 0.370469 1.037090 -0.047056 1.145049 1.320564 -0.194051 -0.230165 -1.482323 -1.061049
加入 -0.706543 -0.610201 0.024483 -1.106179 0.426467 0.551287 -1.143319 -0.677649 -0.523211 -1.166220
友达 -0.023996 0.480532 0.602997 0.480121 1.820263 -1.660629 0.210205 -1.907233 1.456828 -0.335340
美国市场 1.253470 -0.814685 0.734567 -0.973583 1.791625 0.633159 0.482030 0.359086 -0.461883 0.261687
需要 -0.227174 0.282655 0.657336 -2.031865 0.418991 -0.268215 -0.478005 -0.397265 -1.689270 -0.071732
2006 0.371741 -0.209923 1.385425 -1.274013 1.531001 -2.009095 0.981876 -0.604306 0.017216 0.214233
Fed -0.616220 0.409094 0.707444 -2.396042 -0.575501 1.050324 -0.073387 -1.274325 -0.463509 -1.705428
监管部门 -0.869207 1.371516 0.654923 -1.471992 0.692146 0.323220 -1.452804 -1.478378 -1.096680 -0.377315
要约 0.076974 -0.225679 -0.026782 -0.701514 0.045180 -1.611180 -1.975222 -0.138358 -1.697985 0.251873
遭 0.272288 1.033939 0.643207 -0.691874 -0.570505 0.092786 -0.215451 -0.806035 -1.446027 -1.353924
关注 0.321939 0.637151 0.980684 -1.669335 -0.327486 1.251524 0.784359 -0.916849 -1.179068 -1.329287
低于 1.436665 -1.028840 1.278843 -1.187900 0.094532 -1.614008 1.036926 0.554072 -1.503745 -0.170213
晶片 0.598714 0.254508 0.255678 1.112077 2.526650 0.391725 0.737032 -1.454377 -0.829571 0.127463
凭证 0.315480 -1.165339 2.386931 -1.919026 -0.255983 1.967823 -0.506659 -0.879180 0.550877 -0.284426
意大利 -0.042342 0.644361 0.938167 -0.589862 0.766246 0.918608 -0.329502 -1.749969 0.146161 -0.274124
东亚银行 -0.599872 -0.167609 0.977369 -0.926456 0.666348 -1.112774 -0.086282 -1.745247 0.959876 0.185912
罚款 0.247881 -0.641074 0.956436 -0.103398 0.163117 0.531160 -2.645475 0.459897 -1.637272 -0.038011
两家 -0.141478 0.529490 1.002722 -0.371970 0.632433 0.494790 -1.111366 -1.460088 -0.878861 0.356969
美孚 0.174960 0.466373 -0.155969 1.113369 1.514293 -1.135520 -0.292177 -1.016386 -0.452393 -1.297738
委任 -1.105527 -0.669185 1.113859 -1.627362 1.153031 0.692988 -1.065454 0.705131 0.564565 -1.672592
最终 -0.008730 -0.431590 0.106920 -1.368208 -0.215048 -0.615910 -0.987417 -0.750039 -1.974075 -0.018302
也 0.261134 0.615087 1.444632 -1.111842 0.205963 -0.606383 -0.128541 -0.177959 -1.457002 -1.004059
埃克森 0.156868 0.620798 -0.153304 1.154077 1.524001 -1.148799 -0.312385 -1.067155 -0.202698 -1.316709
工业 0.143341 0.192968 0.544625 0.938897 1.505977 -0.439208 -0.009908 -1.574384 0.463252 -0.787687
中银 -0.674679 -0.476639 0.401260 -0.751274 1.696761 -0.820650 -0.010970 -2.164475 1.325420 0.288058
工作 0.302319 -0.111023 0.197958 -1.364614 1.361516 0.948312 -0.803181 0.691553 -2.262586 -0.188136
设立 -0.627972 -0.586471 0.080784 -0.599471 0.984259 1.322521 -1.089512 -1.884890 -0.994448 0.896867
兴业银行 0.050608 -0.111691 1.830916 -0.648635 0.123488 -0.398455 -0.609184 -1.247276 0.862587 -0.377576
一倍 1.920686 -1.130821 1.938712 0.084493 -0.238006 -1.080797 1.204150 -0.170293 -1.619599 0.588195
广告 0.622177 0.034858 0.208745 0.667274 1.747456 0.983439 0.066861 -0.019588 -1.870731 -0.883011
金 -0.464532 0.150607 0.316276 -0.143808 1.481284 -1.386625 -0.551019 -1.264662 0.444125 -0.348594
发现 0.223945 1.276278 0.172488 -0.633183 1.177752 -0.588494 -0.355840 -0.438503 -1.918518 0.126949
大跌 1.507831 -0.248346 2.111513 -0.434242 -0.989138 -0.124023 0.393394 -0.314651 -0.377961 -1.820829
贝雅 -1.076586 -0.121863 -0.592258 -0.371359 -0.709283 -0.754629 0.036491 -2.679200 0.094062 -1.458057
Securities -0.788795 -0.211146 0.138950 -1.372945 -2.012626 0.165659 0.557679 -1.757785 0.123217 -2.446256
美元兑 0.220768 -1.909420 1.949269 -2.086979 -0.807803 2.073141 -0.747014 0.192672 0.299540 -1.071763
启动 -0.339188 -0.178424 0.001906 -1.680252 0.935207 -0.423451 -1.070977 -0.590274 -1.308552 0.294732
作出 0.109703 1.176401 0.169416 -1.172678 -0.279537 -1.212257 -0.784571 -0.153229 -3.052383 -0.676206
等待 0.144996 0.768205 1.171155 -2.463533 -0.501488 -0.025248 -0.081341 -0.159635 -1.258462 -1.114996
索尼 0.268342 0.391798 0.870213 0.377166 1.184614 -0.241083 -0.223121 -0.752830 0.555991 -1.392871
事件 1.001775 1.413825 0.895643 -0.115603 0.846363 0.290574 0.171286 0.283933 -1.991946 -0.276776
大涨 1.525347 -0.116187 2.174422 -0.336712 -1.206925 -0.350352 0.269434 -0.177045 0.060216 -1.892085
WMT 1.067493 -1.365052 -0.197250 1.822511 -0.081349 0.620953 -0.384458 -0.055129 -1.572400 -1.827916
Bank -0.656220 0.138737 0.082954 0.682311 -0.805694 -0.461015 -1.444144 -1.059240 0.804824 -1.456711
关系 -0.430694 0.253479 -0.005426 -0.073411 0.606110 1.314636 -0.648028 -0.951634 -2.331457 -0.491098
电器 -0.489146 0.523569 0.821150 -0.012014 1.088920 -1.616604 -0.264662 -1.631144 1.356699 0.341821
建设银行 -0.646069 -0.177341 1.342557 -0.610074 0.499246 -1.083434 -0.719518 -1.754690 0.290572 0.026125
INTC 0.884176 -1.153841 -0.319284 2.063434 -0.023536 -0.185304 -0.176156 -0.208694 -1.650371 -1.778145
本田 0.938725 -0.208697 1.001453 0.447523 3.041921 0.692197 0.148009 -1.124045 0.943641 0.076215
终止 -0.293610 0.501435 0.845300 -0.268401 0.802755 -0.470681 -1.540458 -0.306759 -0.919339 -0.286276
末期 -0.461116 -0.899370 0.798248 -3.282325 0.277606 -3.076367 -0.051838 0.126284 0.034261 0.345338
以来 0.824891 -1.575098 -0.106038 -2.789983 1.047339 -0.754678 0.238593 1.027736 -0.726507 -0.085164
占 0.540528 -0.262070 1.699373 -1.102843 0.650912 -0.072347 0.350376 -0.051781 -1.684376 0.700420
惠普 -0.067637 0.398056 0.131781 0.684444 0.731701 -0.810331 -0.580183 -0.678629 -0.165025 -1.550529
聘请 -1.327618 -0.117297 0.497253 -1.256240 0.101685 1.014880 -1.312724 -1.044352 -0.039574 -1.405993
拟将 -0.562272 -1.068940 1.410133 -1.332452 0.831315 1.119660 -1.083190 -0.843633 0.644217 0.214027
使用 -0.124813 0.135890 -0.537236 -0.506232 1.253644 0.392099 -0.179266 -0.489916 -1.973642 -0.576782
华能 -0.019271 -0.691471 1.195276 -0.219955 1.463510 -0.701015 0.229762 -1.979695 1.880864 0.398600
讨论 -0.437594 1.099446 0.317093 -1.315472 0.616274 -0.274607 -1.405613 -0.509559 -1.717364 -0.767180
路透 0.279444 -0.358643 0.829470 0.725888 0.380781 -0.549822 -1.787291 0.258962 -1.544198 -0.732204
措施 -0.155190 0.296514 0.390876 -1.705286 0.134638 1.173601 0.332336 -0.406104 -2.552124 -0.366573
日起 0.119714 -2.604390 -0.461375 -2.132108 1.616095 -0.566054 -1.416804 0.297169 -0.937419 -0.271884
Technologies -0.981222 -0.596651 -0.639061 0.945067 -0.770954 -1.063309 -0.852284 -0.828471 1.441387 -2.242816
再 0.011272 -0.184034 0.368621 -1.111244 0.761040 -0.007481 -0.985434 -0.390722 -0.977987 0.337795
电信 0.174946 0.512325 1.292641 0.918329 1.733451 0.246039 -0.673416 -1.817695 0.179810 -0.024001
计入 0.063766 -0.557403 1.888606 -0.633994 0.660189 -0.849865 -1.422696 1.384552 -0.770262 0.310944
近 1.855179 -1.636927 1.783314 -0.538914 -0.244539 -0.680567 -0.484536 0.200211 -1.094422 0.365722
立即 -0.910303 -0.586577 0.808996 -2.081080 0.674331 0.266789 -0.739187 1.280938 -0.489734 -1.637721
发售 -0.158225 -1.348861 0.313052 -1.468197 0.486034 -0.228074 -1.470205 -1.089025 -0.644265 0.945975
2% 2.141616 -1.150085 2.127390 0.521696 -0.384306 -0.552834 0.890343 0.058082 -0.705292 -0.742138
拒绝 -0.393742 1.575259 0.491667 -0.695897 0.048357 -1.297425 -1.255015 -0.624734 -0.714172 -1.044280
3% 1.888660 -1.398368 2.002731 0.393991 -0.681371 -0.400104 0.587047 -0.211259 -0.945681 -0.537711
不变 0.853746 -1.044072 -0.146469 -1.132610 -0.677915 -0.393958 1.277717 -0.785826 -2.041517 -0.817066
竞争 0.539787 1.587816 1.081256 -0.255782 0.488954 1.348183 0.229015 -0.667726 -2.148375 -1.268462
上半 0.236175 -0.343255 1.930931 -0.816274 1.267443 -2.109593 0.549764 0.033058 1.206615 -1.194927
定 0.853628 -1.348313 0.631499 -2.227720 -1.154872 -0.402658 0.409639 -2.289908 -1.088588 0.737521
新华社 1.285748 -0.314779 0.995434 -0.362488 0.874975 -0.102194 0.100154 -0.287832 -1.703734 0.859149
私人 0.441497 -1.292185 0.889468 -0.478085 1.446076 1.923977 -0.912573 -0.799899 -0.359082 0.037925
指导 1.085189 -1.203954 0.996195 -2.832969 -1.555889 0.398949 0.135209 -1.009889 -1.649917 1.103002
星巴克 0.185093 -0.494883 -0.293069 0.685466 0.991682 -0.553515 0.297391 -0.850971 -0.018580 -2.126351
GS 0.370221 -1.294380 0.355052 1.450029 -0.326911 0.771150 -1.220178 -0.055820 -1.500186 -1.528920
备忘录 -0.429304 -0.459396 0.110649 0.196545 0.814850 1.145156 -2.019377 -0.235728 -1.556078 -0.060300
煤 1.048116 -1.029030 0.488625 0.401052 2.274910 0.080924 0.992759 -2.095593 1.283023 0.420426
国内 0.707082 0.033798 1.135904 -0.860131 1.833745 0.754274 0.757037 -1.149322 -0.892889 0.329139
疲软 0.985176 -0.016545 1.716213 -0.995835 0.814655 1.025916 1.900797 0.023850 -1.495504 -1.563335
40% 1.729301 -0.586523 2.328561 0.594863 -0.286665 -0.837131 0.197433 -0.557105 -1.236482 0.800278
欧宝 -0.408237 1.744392 0.736676 0.048646 0.915953 -0.533344 -1.553319 -1.164216 -0.495473 -0.169789
JPM 0.752411 -1.284446 0.657552 1.797321 -0.434747 0.679942 -1.116211 0.193606 -1.924183 -1.401625
发债 -1.153987 -1.072895 1.344987 -1.689501 0.750717 1.279154 -1.557086 -0.255793 -0.558386 0.590747
测试 0.160786 0.459550 -0.081443 -0.655665 0.788185 0.926390 0.227335 -0.674546 -1.752250 -0.899709
应用 -0.022346 -0.222783 -0.849900 0.675947 0.892057 0.307729 0.345618 -0.968126 -1.128598 -1.592734
情况 0.325073 0.085556 0.754750 -1.114921 0.142742 0.121681 0.587622 0.055177 -2.370695 -0.827467
普通股 -0.531827 -1.814281 0.586441 -0.818741 -0.564477 0.074334 -1.552067 -0.180931 -0.431377 -0.665727
International -0.672176 -0.671509 -0.424460 0.475736 -0.338524 -1.567424 -0.876900 -0.380502 1.184405 -2.047333
150 0.631503 -2.267203 0.409517 -0.323940 0.864428 -0.570090 -1.359534 -0.407914 -0.699656 1.107256
年度 0.423774 -0.685107 0.302182 -1.525567 1.112239 -1.726107 0.283454 0.810291 -1.232636 -0.529498
优步 -0.496203 0.233997 -0.017966 0.217728 0.157680 -0.008265 -0.802668 -1.105490 -0.214603 -1.653652
发行价 0.197897 -1.539110 0.599836 -2.686822 -1.670865 -1.145199 -0.137134 -1.070065 -0.359961 -0.104655
产能 0.895537 -0.735434 0.631038 0.012219 1.507794 0.420359 0.387140 -0.608666 -1.805694 1.086465
财团 -1.007442 0.487658 0.771840 -0.784266 0.033490 -0.105071 -2.459970 -1.272637 -0.464806 0.244666
转为 0.804050 -1.083554 1.548742 -1.557054 0.497592 -1.433503 0.802329 0.907223 -0.017030 -0.809437
计价 -0.710348 -2.556054 0.243761 -1.634686 0.112386 1.618482 -1.750680 -1.379505 -0.237966 1.072916
独立 -0.973235 -0.333316 0.378668 -1.087932 0.651812 1.340678 -0.963266 -0.551661 -1.159078 -0.595526
现有 -0.900234 -1.017458 1.356711 -1.205906 0.154009 1.341084 -1.589559 -0.247753 -0.868729 0.296135
利润率 1.064173 -0.776392 1.884642 -0.140049 0.950319 -0.530375 1.213372 0.800802 -1.127529 -0.883796
CNBC 0.504041 -0.249820 -0.176685 -0.171722 -0.312721 -0.101000 -1.073604 -0.352239 -2.446462 -0.352111
招商银行 -0.362836 -0.199887 1.058291 -0.804243 1.133002 -1.153874 0.472414 -1.803358 1.062654 0.416670
起诉 -0.247845 1.293932 0.534172 -0.301435 0.623631 -0.077557 -1.011629 -0.502277 -1.137260 -1.026369
25% 1.726889 -0.534274 2.056338 0.567781 -0.525797 -0.893894 0.158589 -0.871738 -1.002053 0.479202
600 0.941832 -2.442810 1.201159 0.040160 0.820632 0.468821 -1.578926 0.082090 -0.256006 0.652789
基建 -0.822472 -0.430772 0.549826 -0.505681 1.045691 -0.576510 -0.116338 -1.513764 1.493115 -0.001311
太阳能 0.105848 -0.169355 0.509451 1.467732 1.650047 0.579714 0.392106 -0.988924 0.780554 -0.380803
深证 0.212025 -1.152606 3.218966 -1.385477 0.035111 -2.594824 1.398091 -1.694297 3.244539 0.610498
地区 0.590000 0.340193 0.901452 -0.216856 1.129179 1.081899 0.327766 -0.851536 -0.874983 -0.098916
特朗普 -0.636571 1.396968 0.538349 -1.719523 0.723944 1.045384 -0.468695 -0.298408 -0.511940 -2.198466
QCOM 0.672540 -0.478507 -1.145900 2.017214 -0.063610 -1.105354 -1.626107 -0.140912 -2.213204 -1.416219
制造商 0.468402 0.710782 0.534430 0.728758 0.994466 0.605478 -0.237148 -0.957797 -0.998400 -0.362498
退出 -0.264891 0.842541 0.569568 -0.859856 0.528196 0.477778 -0.420399 -1.050675 -1.137340 -0.694829
成指 0.046993 -1.467598 3.184436 -0.703403 0.169840 -2.030022 0.960504 -1.806558 2.907124 0.218535
重大 0.349214 0.824443 1.758570 -1.322500 -0.030084 -0.944152 0.010602 0.858864 -2.524371 -0.147321
软银 -0.620450 0.601401 1.163395 -0.051057 0.714530 -0.347340 -1.883780 -0.596237 0.594892 -0.647230
见闻 -0.441628 1.395023 1.197435 -1.358816 0.364722 0.642861 0.713485 -1.456020 -0.272606 -1.176044
剥离 -0.141043 0.097666 1.488159 -0.313022 0.722194 0.002844 -1.317411 0.436233 -0.897380 -0.384928
戴尔 -0.448558 1.062281 0.491602 0.673463 0.876918 -1.399798 -0.855759 -0.568446 0.290122 -1.316624
时 0.695551 -0.538346 0.219277 -1.076757 0.292848 -0.318207 -0.075259 -0.129300 -1.069076 -0.024580
KKR -0.603252 0.144570 0.429654 0.977000 -0.317445 -0.086395 -2.495750 -0.625709 -0.653644 -0.988059
中华电信 0.014038 -0.306594 1.280971 -0.791204 1.440768 -0.866149 -0.071982 -1.264011 1.060152 0.325427
三星 0.093971 1.359982 -0.305618 0.221133 2.271406 -0.596009 -0.072229 -0.248011 -0.766130 -0.920158
改善 0.430276 0.299483 1.489827 -1.039480 0.697211 0.571323 1.183830 0.709377 -2.069751 -1.095646
首日 0.476991 -0.236105 1.703684 -1.858586 -1.184123 -0.203895 0.497819 -0.996725 0.399119 -0.762933
已经 0.030597 0.748616 0.365737 -1.634365 0.612621 -0.570499 -0.503821 -0.213458 -1.714789 -0.447917
B股 -0.170391 -0.766819 2.123705 -1.357152 0.047367 1.721847 0.559813 -0.816703 2.814047 0.538107
贸易 0.233480 1.410878 1.551366 -0.616557 1.092456 1.631224 -0.341718 0.233456 -1.053762 -0.296123
融资券 0.184841 -1.795706 0.185035 -2.751780 0.635943 -1.275354 0.111654 0.135426 0.279224 2.029224
美联储 -0.510498 0.101294 0.383863 -2.820002 -0.587665 0.492176 -0.003213 -0.014023 -0.454226 -1.720151
2005 0.457874 -0.213028 1.621437 -1.259025 1.478550 -2.333349 1.013254 -0.524435 0.503333 0.222984
4% 2.123686 -1.693559 2.040870 0.391323 -0.708912 -0.195415 0.961082 -0.019316 -1.036615 -0.412531
炼油厂 0.528597 0.991876 -0.095168 0.793624 1.985269 -0.208583 0.239293 -0.793422 -0.733315 0.387116
客机 0.868268 0.434810 -0.789957 0.722013 2.891818 -0.346107 -0.302396 0.605698 -1.506666 0.111701
欧洲央行 -0.045977 0.301341 0.769948 -2.045119 0.324968 1.300586 0.305727 -1.240525 0.119610 -0.519480
管理层 -0.487514 -0.272903 0.588628 -1.235551 0.059768 -0.544578 -0.916736 0.822054 -0.781853 -2.093765
未经 0.608278 -0.154368 0.982993 -0.346481 2.557518 -1.805479 0.098529 0.005577 0.232774 0.646108
金融时报 0.127528 -0.118975 0.850386 0.192496 -0.525900 1.432772 -1.767526 -0.998279 -1.479110 -0.608034
鸿海 -0.338782 0.221456 1.310430 -0.374926 1.514087 -1.203576 -0.717707 -1.423423 1.327176 0.331309
会议 -0.139866 0.059272 -0.219193 -2.717576 -0.254087 0.117157 -0.649862 -0.133160 -1.390193 -0.573422
出口 1.094833 -0.072647 0.465468 -0.342818 1.554996 0.777171 0.863870 -1.065561 -1.285730 0.655095
营业 0.800194 -1.314647 1.834020 -0.409053 1.699724 -0.755229 0.390442 1.136140 -0.170553 -0.714691
22 0.672003 -2.313594 0.364082 -0.706582 0.604874 -1.217447 -1.117452 -0.260148 -0.655137 0.333192
位于 0.736770 -0.000026 0.894432 -0.870569 -0.215705 -0.242206 0.571889 -1.031307 -1.300803 -0.152938
特别 -0.753117 -0.523908 -0.334419 -1.661200 0.471129 -1.174165 -1.346250 0.004527 -1.054182 0.182203
E -0.440120 -0.476823 -0.083162 0.850273 -0.630797 -0.135568 -1.477325 -0.608247 0.020812 -2.033417
减值 -0.156749 -0.157082 2.358892 -1.258611 1.179069 0.116506 -0.653329 2.005761 -1.107841 0.102002
发布公告 1.097319 -0.490742 2.550578 -1.086555 -0.829109 -0.654549 1.823086 0.842913 1.145233 -1.387097
股指 -0.275276 -0.286270 1.126236 -4.111708 0.559015 1.703976 1.437550 -0.018182 1.180549 -1.308199
中心 -0.003840 -0.948163 0.046335 0.223412 1.005159 1.802919 -0.623219 -0.839753 -1.263915 0.321366
35 0.524837 -2.215273 0.199932 0.104558 0.408775 -1.053549 -1.176268 -0.556489 -0.995729 0.578840
24 0.562355 -2.069737 0.069597 -0.492591 0.729518 -1.605869 -1.019697 -0.386730 -0.915428 0.403453
雪佛龙 0.238058 0.736885 0.045515 1.209120 1.158040 -1.149423 -0.354793 -1.195825 -0.240910 -1.221500
增至 1.176605 -1.738564 1.302655 -0.260269 -0.143434 -0.898854 0.019840 -0.501744 -0.922830 1.287868
天期 -0.080350 -2.564592 -0.624745 -3.788766 0.196797 -2.598455 -1.059240 1.086186 0.380855 2.277730
北美 0.336048 -0.732769 1.099668 -0.038678 1.342360 1.507151 -0.179048 -0.521314 0.002580 -1.189699
新鸿基 -0.677986 -0.336330 0.913681 -0.660973 0.462166 -0.784711 -0.227005 -1.394640 1.381895 -0.568986
是否 -0.277880 1.130276 0.242360 -1.581010 0.269733 -0.414675 -0.499725 -0.737484 -1.834378 -0.512343
