： -0.462552 -1.282789 2.183821 -1.242658 0.532902 -0.693403 4.439181 0.827669 1.029137 1.286433
的 -0.182004 -1.408615 0.380450 -0.924365 -0.963140 2.083955 2.507745 0.433107 1.166510 0.728599
将 -0.003504 -0.787317 1.537446 -1.509516 -0.551819 1.277166 2.366653 1.808707 1.307063 0.727508
， -1.217130 0.214570 2.304022 -1.042922 1.691846 2.347642 2.770723 -0.344327 0.646775 0.763239
－ 0.502937 -0.598749 -0.344273 0.352749 -0.921887 3.286958 3.259031 1.246408 1.191452 -0.408537
中国 -0.853479 -1.597607 0.490065 -2.332860 -1.290503 0.869183 2.853716 1.107125 0.168050 0.792596
在 -0.523498 -0.685668 0.429922 -2.048774 -1.049198 0.995364 2.805070 1.955747 0.320913 0.970558
收购 -0.033710 -2.826444 0.357547 0.520710 -0.318492 1.549471 0.882022 1.136438 2.503985 0.943725
美国 -0.386261 -0.200836 0.154910 -0.544299 0.483828 0.494052 4.065258 0.673396 -0.818762 1.052743
- 0.331350 0.397063 0.579935 0.552380 0.719382 3.318267 2.345761 2.071650 0.716973 0.213763
和 0.359332 -1.679250 1.622107 -0.477871 0.312365 1.288065 2.308282 1.196588 0.162569 0.232964
与 0.402714 -2.930024 0.843210 -0.837500 -0.370513 1.206760 1.398394 1.445953 0.217569 1.088567
报导 0.025448 -0.947147 -0.195034 -0.295301 -0.837658 2.977600 2.339199 1.156061 1.204420 0.155580
公司 0.093156 -2.062927 0.742756 -1.650158 -1.532025 1.565813 2.277960 0.811269 0.793879 0.381133
计划 -0.005141 -0.625573 0.570085 -0.957503 -1.027054 0.740487 2.355284 1.587029 1.871349 0.403234
亿美元 -1.294248 -0.075551 -0.455939 -0.090870 0.021041 2.427338 1.012569 2.409433 2.953846 0.667412
年 -0.518140 1.624351 2.272381 -2.414724 -0.591234 0.976301 1.838782 1.380302 0.605255 0.376819
> -1.577800 -1.748813 -0.126180 -0.890714 0.307919 3.201309 0.353404 -0.373683 0.901811 -1.136131
集团 -0.007543 -2.750095 1.400463 -0.687090 0.010728 0.702303 1.383172 1.471674 1.837012 -0.389739
银行 -0.060813 -2.079000 1.118534 -0.339257 0.081270 0.667278 1.982739 0.924080 0.820048 -0.460139
增长 -1.256819 0.899821 2.776741 -2.645384 0.786161 2.875398 0.652814 -0.220992 -0.164062 -0.698063
亿元 -2.102999 0.802429 0.673324 -1.012414 0.687442 1.533216 -0.004844 2.195103 2.885475 -1.398712
汽车 -0.521113 -0.767219 0.673868 -1.741535 -0.376802 0.766923 1.729387 3.021695 -1.832088 0.316807
对 0.550053 -1.667459 0.794581 -0.338292 -0.571318 0.833225 2.299436 -0.096306 0.451307 1.646665
更新 -0.421827 -0.423340 1.859696 -1.484842 -0.071877 -0.854736 2.140227 1.053745 1.343813 0.212410
人民币 -1.684596 0.824664 0.754987 -1.415536 0.137832 1.322729 0.689573 1.921216 2.982097 -1.005500
净利润 -1.389356 0.704699 4.011409 -2.372977 1.180876 1.292706 -0.319009 0.867080 1.585881 -0.324127
市场 -1.188835 0.571670 0.105450 -1.428167 0.116023 0.741366 3.437549 -1.000109 -0.308287 0.539691
为 -1.458751 -0.501006 0.771451 -1.095976 0.825814 1.149952 1.578476 0.564705 1.517292 -0.706750
出售 0.901117 -1.220447 0.669322 0.244428 -1.095453 1.390305 1.476920 1.277622 2.269201 0.189978
至 -1.538653 1.134534 1.535210 -1.508676 0.771755 2.971018 -0.095518 1.052408 1.361188 0.120979
业务 0.274720 -0.788932 0.893455 -1.072385 -1.143828 2.039554 2.194475 -0.390430 0.532191 -0.955547
美元 -2.419716 0.136324 0.282243 0.162954 2.941388 0.845731 2.460570 -0.236116 1.157398 0.631710
上 -2.223495 -1.490186 -0.465553 -2.536209 -0.551382 -0.007453 1.334189 -0.589894 0.480214 0.569232
股权 0.975070 -1.369096 0.952085 0.223483 -1.049576 2.637984 0.577990 0.497929 1.913483 -0.600340
交易 0.225027 -1.029205 0.030977 -0.123858 -0.694857 1.675095 1.839662 -0.493205 1.731299 1.315630
, -2.338568 0.817325 -0.376871 -0.461266 0.979389 2.324185 0.679327 2.876126 0.647358 0.491613
（ -2.032663 -1.403754 -0.678723 -2.663675 -1.083113 -0.255614 1.201129 -1.053013 0.783972 0.483212
） -2.059783 -1.416442 -0.329544 -2.820024 -1.054181 -0.652513 1.254330 -0.865740 0.907696 0.333658
投资 -1.117182 -0.826917 -0.631137 -1.170517 -0.729271 0.927801 2.112969 1.641739 1.374858 -0.427178
纽约 -1.087686 -1.654964 0.969989 1.598510 3.076704 -0.301723 2.830729 -0.166192 0.779835 0.536658
因 -0.796901 -0.313316 1.379752 -0.452168 1.416631 1.507759 2.252294 -0.905478 -0.779282 0.704439
向 0.060091 -1.511357 -0.068578 -0.010763 -0.373850 0.488830 1.672974 1.678609 1.133985 1.220193
汇市 -2.726674 -0.503752 0.645518 0.466489 3.320761 -1.370646 3.099158 -0.350200 0.682942 1.118769
； -0.657200 0.633604 1.742759 -0.650923 1.135211 1.634156 2.143282 -0.369582 0.550353 0.780807
预计 0.375319 0.397540 2.683116 -2.075080 0.028754 0.363644 2.055024 1.106038 -0.271699 0.086772
股份 1.167329 -0.300539 2.052697 -0.173465 -0.622644 1.452837 0.625655 1.040750 2.314938 -0.624995
就 0.660111 -1.941810 -0.063407 -0.157166 -0.999158 1.371944 1.244215 1.205791 0.278619 2.056067
国际 0.848880 -0.947947 2.094422 -0.090956 0.444831 0.560507 1.760542 1.327285 1.293657 -1.086333
受 -0.354893 -0.187479 1.968632 -0.165409 1.799762 1.604576 2.675478 -1.306615 -0.625283 0.423002
早盘 -2.196082 -0.327156 0.877863 0.837466 3.121448 -0.791704 2.787802 -0.708497 0.570642 1.618455
欧元 -1.744388 -0.199518 0.673422 0.993621 2.569087 0.955807 2.213239 0.192033 1.245905 1.474888
更正 -0.428085 -0.539622 1.714334 -1.227219 0.041042 -1.662217 1.863882 1.278186 1.431624 1.309500
2 -0.860118 0.750395 0.742231 -0.362809 0.687848 2.058118 1.733675 2.188681 0.914019 0.444625
可能 -0.143098 -0.533494 0.979370 -1.160024 -0.250345 0.941388 1.818911 0.115475 0.403380 1.607845
以 -0.632071 -0.596482 0.588097 -0.187162 0.405576 1.463514 0.440955 1.598239 2.115772 0.890278
月 -1.216203 1.480581 0.823252 -1.144392 0.501597 1.151277 1.101897 2.849732 0.048773 2.342151
石油 0.247694 -2.147878 0.638888 -0.872241 -0.945915 0.658518 1.029368 1.680307 -1.389670 0.769673
月份 -1.051086 1.703826 0.981130 -1.523474 0.574554 1.199094 1.476998 2.997847 -1.284384 0.430109
发行 -0.516720 1.160270 0.017922 -0.108629 0.047144 -0.235557 2.215971 1.289675 2.893577 -0.645086
人士 0.660305 -0.098263 0.210194 0.205552 -0.628017 1.614316 2.461587 1.057478 1.251856 -0.102209
控股 0.027071 -1.248791 1.273632 -1.055931 -0.314134 -0.359663 1.266693 1.413842 2.015009 -0.323506
∶ -0.507006 -0.247278 1.274948 -1.571512 -0.660626 -2.047782 2.259098 -0.048357 1.045787 0.276289
香港 0.094862 -0.181928 0.302747 -0.589013 -0.670742 -0.329999 2.111057 1.128372 2.219173 -0.128537
债券 -0.592144 1.548110 -0.431415 0.603217 0.427522 0.920282 2.639866 0.762544 1.940173 -1.422829
或 -0.230785 -0.577520 1.042410 -0.735586 0.085004 1.078799 1.772043 0.481135 0.799386 1.078079
子公司 0.694180 -1.177703 0.419468 -0.472765 -0.960596 0.821015 1.713149 1.495928 1.287812 -0.645516
协议 0.030744 -1.321178 -0.424819 -0.197451 -0.759865 3.378623 0.588496 0.475721 -0.274774 0.153143
首席 -0.348645 -2.299860 1.048416 -1.089473 0.515910 -0.003548 1.951519 0.316424 -0.076206 -1.473621
消息人士 0.516104 -0.145388 -0.394790 0.731026 -0.419369 2.636818 1.836027 0.888732 1.592017 -0.337786
天下 -0.996697 -1.578472 0.725166 -1.758448 -0.517057 -2.079539 2.742697 -1.121865 0.578215 0.090519
股闻 -0.951135 -1.610602 0.579620 -1.848491 -0.514353 -1.925680 2.640400 -1.327548 0.597274 0.044205
华尔街 -0.710324 -0.740076 0.538618 -0.959893 -0.134411 -1.691004 2.498120 -1.104682 1.506646 0.228170
新 -0.428143 -1.061486 -0.457040 -1.251989 -1.205051 0.892608 1.746530 0.148957 0.450849 -0.889495
航空 0.614883 -1.113424 1.531123 -0.829021 -0.189692 -0.239769 0.464683 2.670322 -0.615899 0.129272
上年 -2.284587 1.049423 2.076950 -1.338201 2.356951 1.985754 -0.272533 1.796552 0.372622 -0.566288
亿港元 -0.833306 1.111726 1.433373 -0.693383 0.374239 1.361960 -0.428918 1.099294 3.096762 -1.087069
走高 -0.727700 0.510877 1.264510 0.675378 2.846828 0.322587 2.730580 -1.180458 -0.470204 0.593216
1 -1.301782 0.701193 0.306919 -0.616422 0.663762 1.239475 1.184061 2.840174 0.888951 0.698153
、 -0.072281 -1.124260 1.260684 -0.294657 1.033139 0.033908 1.754871 0.814348 -0.065506 0.459952
) -1.982290 -1.966374 -0.048268 -1.522094 0.684442 -0.277018 0.447436 1.201252 0.795815 0.795831
( -2.134520 -2.408035 -0.026931 -1.473890 1.008351 -0.677961 0.462807 0.701286 0.109975 0.497440
丰田 -0.358861 -0.329432 0.566838 -1.091222 -0.024781 -0.069785 1.724897 2.060538 -1.740844 0.703150
汇丰 0.313039 -0.982652 1.129368 -0.676041 -0.235984 -0.304200 1.475633 1.557812 1.326787 -0.422888
影响 0.069199 -0.361025 0.686614 -0.300045 0.092934 1.798621 1.549380 -1.922348 -0.514508 2.005685
《 0.281096 -0.035223 -1.134010 1.459167 0.257815 1.491033 3.168691 0.027534 0.644742 -0.890302
》 0.048951 0.192457 -1.347380 1.534118 0.425407 1.021678 3.288098 -0.410283 0.706625 -1.087872
进行 0.681052 -0.583272 -0.439858 0.242147 -1.323760 1.765817 1.534260 -0.072896 1.299895 1.608295
见闻 -0.654924 -0.975759 0.643219 -0.707621 -0.129153 -2.236346 2.647327 -1.184808 1.506871 0.284159
预期 -0.167270 1.450682 1.920701 -1.087570 0.630446 1.907806 0.945888 -1.370621 -0.324072 0.210407
谷歌 -0.756578 -1.787908 -0.029632 -1.617346 -0.605176 -0.061776 1.337163 1.176961 -1.158208 0.244351
其 0.758576 -1.046649 0.995409 -0.872006 -1.071537 1.035390 1.158818 -0.030488 1.301937 0.985891
同期 -2.232873 1.010320 1.814740 -1.020867 2.363307 2.459360 -0.352431 1.438679 0.578888 -0.333696
澳大利亚 0.625054 -1.794289 0.542815 0.440080 0.101912 -0.480095 2.046122 0.268829 0.006890 0.535757
资产 0.657525 -0.774481 0.065135 0.312827 -0.746578 1.700420 1.570776 0.341892 1.128934 -0.312502
德国 0.777562 -1.724726 0.523698 0.709128 0.363634 -0.517768 2.135650 0.373436 -0.057280 0.626055
执行长 -0.089681 -1.551545 0.902743 -1.035643 0.013876 0.116501 2.055560 0.294877 0.046205 -0.339373
亿 -1.485523 0.146858 0.367423 0.672710 1.608493 2.006278 0.717578 1.845192 1.818107 0.747275
基金 0.171033 0.117343 -0.634304 -0.705507 -1.478104 0.773871 2.229735 0.985198 0.402846 -1.412976
财季 -0.941283 -1.394665 3.288280 -1.493362 1.912525 0.796936 -0.573778 -0.583128 -0.062750 0.726234
贷款 0.019474 0.387056 -0.901100 -0.046083 -1.036157 1.696899 1.738685 0.318133 1.100663 -0.408560
合资 0.383801 -1.472897 -0.271105 -1.729573 -2.363344 1.789861 0.770207 1.720517 -0.005341 -0.936796
考虑 0.321024 -1.332162 0.187090 -0.220405 -0.519373 0.373196 1.691875 0.998608 0.973265 1.228859
批准 0.019232 -1.390195 -0.513639 0.494587 -0.350807 -0.360571 1.776661 0.664754 1.930015 1.504209
下降 -1.061199 0.919223 2.307704 -1.574890 1.090637 2.224464 0.169823 -0.076592 -0.135876 0.167377
3 -0.971937 1.215171 0.320034 -0.138446 0.727039 0.995535 1.820670 2.386917 0.809424 0.229906
法国 0.971824 -1.650322 1.190158 0.679431 0.387890 -0.717951 1.837546 0.667814 -0.117020 0.055218
IPO 0.578534 1.244903 -0.593589 0.297784 -1.054963 0.146209 2.413836 0.424250 2.456348 -0.043481
走低 -0.524245 0.268785 1.007231 1.071877 2.894078 0.579078 3.128649 -1.425479 -0.840630 0.910814
CEO 0.207743 -1.762210 1.405879 -1.011652 -0.055117 -0.174290 1.627065 0.480505 0.280018 -0.096527
全球 -0.948017 1.019630 0.615644 -1.626927 -0.076821 0.189044 2.280480 0.464338 -0.634808 -0.564450
经济 -0.244628 0.303420 0.941428 -1.334069 0.113276 0.606044 2.515136 -1.632382 -1.396049 0.776157
评级 -0.320921 -0.286372 1.471682 -0.503984 0.640166 1.393524 1.208246 -1.184475 0.198516 -1.374557
上半年 -0.843913 -0.286268 2.927192 -1.740889 0.985555 0.185300 -0.062619 1.012257 0.710343 -0.393854
旗下 0.849348 -1.346597 0.255525 0.090543 -0.844845 0.615193 1.721524 1.252404 0.622380 -0.615669
较 -1.180317 2.031937 1.578326 -1.334757 1.517890 1.524194 0.780540 1.484973 -0.994102 -0.649455
存托 0.024252 1.495002 1.133759 1.115063 2.077769 -1.019388 4.436573 -0.159893 0.525041 -0.867083
下调 -0.277615 -0.084923 1.596189 -0.806974 0.762282 1.059749 1.012862 -0.217501 0.174483 -0.336911
项目 0.352510 -1.044845 -0.347216 -1.007793 -1.865602 1.299702 0.693526 0.965394 0.139639 -0.956441
于 -0.458887 1.170499 0.986507 -1.448971 -0.556202 0.004426 1.271574 1.698312 0.768085 2.060595
收盘 0.630482 0.788942 2.261959 1.312602 2.977800 -0.228315 2.946280 -0.936573 -0.421088 0.165753
通过 0.758882 0.657261 -0.041474 0.101264 -1.054906 -0.476904 1.916579 1.050623 2.763195 -0.058389
凭证 0.130148 1.267951 1.134973 1.370897 2.133006 -0.877540 4.571538 -0.496289 0.583113 -0.746486
科技 0.613460 -1.494286 2.021353 -0.867356 -0.016641 -0.455978 -0.322387 1.687450 0.409815 -1.345751
韩国 0.870474 -1.625314 -0.105539 0.805520 -0.058462 -1.259193 1.477940 1.895985 0.126209 -0.273539
已 -0.135953 -0.993283 0.407238 -0.537037 -0.172293 0.543454 1.199777 0.692993 0.957480 1.757577
发 -0.332340 -0.265913 1.226842 -1.087590 -0.361141 -1.564683 1.533193 1.141258 1.592696 1.015135
知情 0.666365 0.307867 -0.875092 1.166193 -0.588950 2.499996 2.266825 0.914088 1.756903 -0.350681
5 -1.329398 1.052017 0.069536 -0.609190 0.421045 0.999304 1.597205 2.473360 1.287130 0.404088
不 -0.500841 -0.194394 0.246643 -0.629038 -0.625444 -0.080476 1.339456 -0.659957 2.189402 1.473930
称 0.028276 -1.100837 0.783756 -0.642112 -0.028874 -0.405560 2.093646 0.266103 0.101699 0.969208
管理 0.738739 -0.499084 0.394338 -0.566236 -1.091208 1.118473 2.180878 1.118676 0.375500 -0.728048
重 -0.327825 -0.182024 1.491598 -1.281250 -0.448849 -1.917144 1.879173 1.167002 1.692219 1.371256
10 -1.207567 1.022889 0.060665 -0.450767 0.345028 1.019111 1.503770 2.026381 1.465742 0.463781
华 -1.161504 -0.048004 0.060647 -2.473789 -1.193649 1.716637 0.541561 1.965733 -1.151421 -0.516647
拟 0.107611 -0.462687 0.249902 -0.261267 -0.557560 -0.096487 1.481373 1.909331 1.890057 0.068188
利润 -0.759711 -0.386925 2.789943 -1.531595 1.045093 1.379406 -0.250344 -0.791165 0.155765 0.111017
上市 0.317151 0.445456 0.315274 -0.297624 -0.662430 0.313079 1.789401 -0.128449 1.889214 -0.008929
从 -0.620360 -0.124468 1.118706 -0.901407 0.122034 0.715739 0.701120 0.902836 0.981061 1.315247
ADR 0.161154 0.525612 1.535101 1.578008 2.870739 -0.569731 3.905475 -1.197213 -0.325142 0.038882
台湾 0.004761 -0.669251 0.542756 -0.328394 -0.339160 -0.503146 1.844940 1.007913 1.330905 -0.882751
问题 -0.672807 -0.953265 -1.029176 -0.094911 -0.131623 1.214171 1.581380 -0.329676 -0.760468 1.453932
谈判 0.608667 -1.459179 -0.404753 0.300792 -0.848121 2.830375 0.965673 -0.713782 -0.194712 1.557223
中 -0.246814 -0.569412 0.052278 -1.224300 -1.053558 0.843863 0.996617 -0.345014 0.409689 1.005813
政府 -0.118210 -0.813159 -0.713064 0.848219 0.020387 -0.130124 2.101983 0.483567 1.136072 0.615335
调查 0.439794 -1.321364 -1.088389 0.282987 -0.819812 1.003674 1.638186 -0.482203 -0.315808 1.751355
“ -1.667471 -1.331142 -0.808445 -1.312849 -0.202109 -0.203768 1.204957 -0.588877 -0.023119 -0.703523
力拓 0.429987 -2.417643 1.115178 -0.749328 -0.123161 0.363406 0.950659 0.854194 -0.210267 0.465301
签署 -0.298982 -1.619256 0.313525 -0.899692 -0.793429 1.985587 -0.072011 0.720004 -0.236208 0.799088
股东 0.617610 -1.361464 0.172369 0.296100 -0.531721 -0.413634 0.906114 -0.126407 2.222923 1.600512
企业 -0.297196 -1.094945 -0.058642 -0.630149 -0.451156 0.415940 1.714540 0.206947 0.115871 -0.209467
达成 0.404293 -1.480535 -0.185358 -0.019058 -0.474522 2.338822 0.318581 0.621291 -0.272641 1.647246
公司债 -2.115297 1.223236 -0.790391 -0.687307 0.906463 -1.047796 3.488189 -0.408130 0.851562 -0.256674
推出 -0.700130 -0.312326 -0.798011 -1.553712 -1.033765 -0.096446 0.974954 1.061926 0.268865 -0.899107
投资者 -0.731111 -0.222176 -0.601832 0.026934 0.337311 0.483432 2.194335 -1.189103 0.648687 1.072895
日本 -0.275297 -0.538059 0.496592 -0.978176 -0.229835 -0.065640 1.914534 0.152554 -0.246053 0.458032
？ -1.647630 -0.662448 -0.633334 -1.407871 -0.345821 -1.493815 0.771454 -1.040800 0.528292 1.997977
” -1.641977 -1.278234 -1.041585 -1.252689 -0.352053 0.165906 1.065854 -0.970128 0.068601 -0.944262
合作 0.435298 -2.513134 0.029044 -0.772957 -1.258995 2.347175 0.656861 -0.277704 -0.194824 0.132719
股票 0.015632 0.466910 0.427133 0.344478 0.168102 0.692541 1.301515 0.238518 1.845975 -0.165606
合并 0.901980 -1.926450 0.848097 0.329920 -0.154635 1.718271 0.779792 -0.106035 0.706799 0.632298
竞购 1.104124 -1.831689 -0.217066 1.176365 -0.417430 1.154025 0.773706 0.538809 1.298737 0.469902
部分 0.490295 -0.388591 0.517279 -0.096361 -0.707732 1.468424 1.272958 0.301437 0.713044 0.078318
000 -2.065843 1.197680 -1.154078 -0.028796 0.824762 2.273498 1.073925 2.348187 -0.032987 0.395419
亚洲 0.010588 -0.194632 0.662379 -1.040283 -0.579119 0.240184 1.824510 -0.029694 0.555433 -0.924169
及 0.077400 -0.596178 0.552561 -0.341787 0.160618 0.973993 1.825150 -0.493816 0.002914 -0.195622
董事长 0.202968 -0.837729 1.385076 -0.720929 -0.161390 -0.891351 1.342968 0.858768 1.119848 -0.856721
新台币 -1.601525 0.432866 1.302923 -0.679987 1.247344 0.637273 -0.386894 1.701870 2.364697 -1.180455
仍 -0.270094 -0.588435 0.717485 -1.079371 -0.210690 0.763087 1.438710 -0.379822 0.201964 1.725385
提议 0.365939 -1.884919 0.033463 0.916563 -0.002680 1.443655 0.318472 0.407230 1.799343 1.302986
提振 0.000195 0.548692 1.056375 -0.020858 0.734330 1.902556 1.864940 -1.860565 -0.397701 -0.042411
提高 -0.027972 -0.115528 1.001921 -0.911448 -0.443084 2.166406 -0.139398 0.311880 0.460412 1.276060
被 -0.246154 -0.546887 0.424873 -0.342676 0.109517 1.249097 0.534358 -0.206951 0.392599 0.460819
高盛 0.168497 -0.989843 0.904280 -0.682047 -0.226093 -0.016397 1.107495 0.300268 0.769020 0.190783
数据 0.014258 0.290956 0.231300 0.195304 0.735358 1.044076 2.330282 -0.667424 -2.102430 1.376227
前 -0.230351 0.490628 0.280143 -0.347671 0.379581 0.091783 1.635435 0.994283 0.166585 1.280762
价格 0.490734 0.483738 0.822370 0.361855 0.420216 2.045539 1.124499 0.004967 -0.384614 0.200105
电脑 0.092176 0.372835 1.641359 -1.599588 -0.388077 -0.981835 0.846502 0.350176 -0.690003 -1.379848
收入 -0.761218 0.769416 1.970191 -1.494053 0.994094 1.260394 0.633918 0.530996 -0.727819 -0.884558
欧洲 0.014144 -0.537671 0.416473 0.081870 0.309646 0.332575 2.632603 -0.366903 -0.575129 0.285123
电力 0.661921 -0.684832 2.222463 -0.306131 0.799723 -0.204810 0.734152 2.561887 0.342672 -1.145867
克莱斯勒 1.084989 -1.183814 1.320287 0.132330 0.332156 0.734704 1.203145 1.765453 -0.626736 0.137499
获得 -0.491340 -0.356445 -0.492113 -0.118719 -0.370428 0.681111 1.038737 1.298833 1.295335 0.697222
4 -1.207107 0.903272 0.299676 -0.544269 0.500462 0.778317 1.170041 2.621754 0.581480 0.819406
寻求 -0.117680 -0.899877 0.278343 -0.433707 -0.458919 0.189811 1.232128 0.252079 1.497694 0.672043
了 -0.218902 -0.588372 -0.213453 -0.344134 -0.484137 0.462006 0.719959 0.254155 0.793968 1.651914
生产 0.448949 -0.062353 -0.047756 -1.024704 -1.345212 1.690771 1.007972 0.493378 -1.332900 0.084507
电讯 1.757665 -1.064040 2.278736 0.604201 -0.018670 -0.047658 0.692172 0.766983 1.737339 -0.239708
铁矿石 0.872995 -1.022626 0.936623 -0.786480 -0.720684 1.527008 0.915775 0.735877 -2.074424 0.111322
筹资 0.090637 1.785520 -0.125904 0.242534 -0.422821 0.742286 1.344845 1.149395 3.333749 -0.287473
不会 0.151248 -0.639721 0.898913 -0.705828 -0.316527 0.428697 1.065956 -0.673681 0.113839 1.733417
地产 -0.564951 0.049334 0.955729 -1.603202 -0.410233 -0.699481 0.702748 1.509395 0.503498 -1.380961
花旗集团 0.077800 -1.539303 0.684750 -0.724880 -0.297344 0.076969 0.440220 1.084509 0.414477 0.230115
6 -1.331562 0.782990 0.426229 -0.814065 0.477191 0.877972 0.909887 2.763967 0.218453 0.981681
上调 0.294679 0.306354 1.657506 -0.322240 0.514508 1.431910 0.128008 -0.014141 0.508199 0.577615
增加 -0.758320 0.786858 0.931252 -1.092128 0.294823 2.021063 0.361299 0.225269 -0.227274 0.197373
飞机 0.188550 0.025123 -0.577758 -0.249993 -1.015258 0.913765 0.660504 1.897140 -1.421680 -1.625009
今年 -0.231359 0.296260 1.463952 -1.686354 -0.255044 0.125105 1.445245 0.902162 -0.015060 0.291572
福特 -0.286141 -1.158645 0.521091 -0.919886 -0.090755 -0.104505 1.012277 2.604679 -1.272772 0.136111
拖累 -0.130391 -0.164324 0.664212 0.581863 1.220098 2.120576 1.263819 -1.889575 -0.562790 0.392411
大陆 -0.500189 -0.707439 -0.272713 -1.282435 -1.004312 0.485424 1.724877 1.135044 0.391368 -0.514913
任命 -0.664568 -0.793808 1.062135 -1.019653 0.432108 0.114118 0.976781 0.364647 1.137258 -2.475391
继续 -1.118230 -0.489882 0.186955 -0.682786 0.482516 0.923932 1.206727 -0.485899 0.026758 1.252707
风险 -1.574349 -0.051356 -0.959733 0.121659 0.766624 1.126214 2.077332 -1.879653 -0.120794 0.851416
2010 0.027204 1.198863 2.100628 -2.151832 -0.713690 0.194178 1.168991 1.120584 0.663696 0.220238
金融时报 0.622554 -0.004795 -1.117376 1.776077 -0.039252 2.011530 2.966124 0.091357 0.600408 -1.293081
融资 -0.341629 0.222485 -0.813814 0.181443 -0.735826 1.311650 1.184100 0.196360 1.812730 -0.440389
摩根士丹利 0.409404 -0.943510 1.122613 -0.568077 -0.011636 -0.151934 0.811526 0.637165 0.641005 -0.331339
销售 -0.099338 0.514350 0.573426 -1.366826 -0.500051 1.509250 1.591917 0.368839 -1.238969 -0.284320
交易所 1.004286 -1.908763 0.893602 0.893688 0.776977 0.241861 1.663656 0.406620 0.690711 -0.424359
担忧 -0.257329 -0.218761 -0.670756 0.758780 0.784936 1.405953 1.852735 -2.640134 -1.502509 1.718709
9 -1.125238 0.994792 0.914757 -0.775929 0.866548 1.045544 0.673077 2.600015 0.024803 1.077451
俄罗斯 0.709182 -0.995099 -0.348048 -0.127280 -0.788813 -0.184133 1.688855 1.054802 -0.679952 -0.140864
有 -1.022250 -0.208334 -0.229056 -0.900331 -0.102969 0.767549 0.942077 -0.380619 0.023064 1.597984
但 -0.575105 0.489262 1.254731 -0.876127 0.696359 0.856118 1.491202 -1.488194 0.396572 1.633189
需求 -0.258610 0.295415 0.981094 -1.023563 0.290536 1.495931 1.440576 -1.145410 -1.946686 0.198683
第一季度 -0.549901 0.408152 2.472744 -1.739293 0.505992 0.213927 0.176894 0.965351 0.156607 -0.536421
面临 -0.421751 -0.947092 -0.612895 -0.720820 -0.723696 0.444594 1.563447 -1.272961 0.041253 0.891435
正 0.365277 -1.633930 0.209447 0.036080 -0.395505 0.683925 0.944237 0.762122 0.682852 1.544796
机构 0.263815 -0.898177 -1.075481 0.332597 -0.471037 -0.131005 2.309727 -0.083518 0.216083 0.935982
美 0.226718 -0.228595 0.219546 -1.119476 -0.721022 -0.345918 1.205862 0.934515 -1.218654 0.584906
英国 0.488792 -1.345553 0.341764 0.251180 -0.300949 0.667520 1.029630 0.979244 -0.124629 -0.386819
救助 -0.331111 -1.548081 -1.431782 0.382482 -0.334982 0.167858 2.238211 -0.317682 0.304281 0.401228
提供 -0.452399 -0.899126 -1.386886 0.371662 -0.231297 1.196054 0.952598 0.353297 0.866576 -0.084358
日圆 -1.501833 0.238656 0.547582 1.010839 2.488037 0.499085 1.157957 0.396809 0.250565 0.993261
是 -0.865720 -0.457063 -0.416293 -0.687811 -0.321024 0.272135 1.080222 -0.883328 0.336266 1.018908
股市 -0.344631 -0.443596 1.751209 0.002247 2.017906 0.090808 1.050921 -0.725016 -0.048786 0.561736
证券 1.154811 -0.671842 -0.215644 -0.144076 -1.508990 0.219710 0.635951 1.294327 0.754868 -0.919322
国泰 -0.044024 -0.940329 1.836165 -0.878751 0.816755 -0.918303 0.102843 2.471295 -0.901289 0.002006
2011 -0.406324 0.757789 1.766377 -1.812096 -0.274815 0.034357 0.898447 0.908190 0.348125 0.419709
实现 -0.329775 1.462270 2.008509 -1.698514 0.069283 1.078855 -0.282022 0.300721 1.029237 0.292273
工厂 0.036726 -0.202278 -0.457700 -0.840988 -1.038776 1.130881 0.953666 0.915822 -1.132893 -0.406243
下滑 -1.075598 0.554281 1.774935 -0.847476 1.832362 1.301015 0.725386 -0.673248 -0.584311 0.051529
辆 -2.338265 0.679291 -0.940568 -0.512839 1.072685 2.479055 0.260861 1.488982 -1.360393 0.114112
必拓 1.033211 -2.600634 1.742586 -0.159289 0.466560 0.817517 0.498520 1.130451 -0.342874 0.238857
展开 0.340229 -1.743231 -1.123349 0.366742 -0.635425 2.345218 0.605780 -0.473654 -0.194675 1.451740
电子 0.424022 -0.554733 1.514408 -0.457916 0.259678 -0.145038 -0.394141 2.317857 -0.231937 -0.252344
销量 -1.562520 1.316331 0.298318 -1.772999 0.327031 1.238079 1.073728 0.540935 -1.948965 -0.310598
同意 -0.015879 -1.704872 0.220614 -0.005585 -0.198777 0.099062 -0.103058 1.799450 1.552457 1.553173
斥资 -0.994559 -0.418448 0.418111 -0.583019 0.228405 0.565609 -0.545317 2.880231 2.491633 0.538033
组建 0.268162 -1.341226 0.125225 -1.865369 -1.973452 1.406659 0.061871 1.529692 -0.014565 -0.633181
8 -0.829671 0.991705 0.243675 -0.317958 0.349022 0.846053 0.912488 2.567369 0.256218 0.725670
万美元 -1.975726 0.017061 -1.085179 0.039968 0.963504 1.981818 -0.349008 2.498840 0.760734 0.784816
东京 0.196234 -0.734849 1.826475 0.717800 2.167363 -0.341145 0.925307 0.660628 -0.173394 -0.078466
摩根 0.427817 -1.795583 0.681968 -0.704008 -0.212020 -0.143700 0.962173 -0.924442 0.957572 0.154616
7 -1.100357 0.876336 0.315794 -0.383761 0.677367 0.859200 0.890503 2.616518 0.396503 0.679399
后 0.189839 -0.454350 0.945864 0.076239 0.158970 1.282984 0.786367 -0.670099 0.520760 1.640531
必 0.942368 -2.747464 1.939270 -0.036828 0.684964 0.520137 0.486429 1.021263 -0.410463 0.327558
波音 0.273525 -0.978572 0.262158 0.064892 0.152500 -0.324869 0.236374 2.376209 -1.647382 -0.748000
扩大 -0.541058 -0.137422 0.299174 -1.077473 -0.334900 1.479556 0.368440 0.558364 0.335976 0.807688
汽车销量 -1.408718 1.043748 0.693261 -2.038989 0.201049 1.862919 0.497667 1.724350 -1.991052 0.181856
申请 0.073233 -0.013559 -1.466419 0.525331 -0.697296 0.159994 1.838357 0.423692 0.898638 0.328471
增 -1.345904 1.157409 1.708900 -1.211851 1.209921 2.377468 -0.802049 0.729065 -0.979830 0.098636
服务 -0.270045 -1.090130 -0.966172 -0.954152 -1.337712 0.993068 0.653164 -0.288744 -0.604258 -1.449160
空中客车 0.347854 -0.609133 0.057785 -0.069538 -0.554949 -0.639162 1.125420 2.453798 -0.700333 -0.906589
Fed 0.236922 -0.363216 0.208270 0.529268 0.744289 -0.376000 1.954764 -0.169276 -0.767855 0.775166
主席 1.017795 -0.970059 1.341417 0.447943 0.670818 -0.984682 1.426554 0.619631 0.023153 -0.521338
事宜 1.159652 -1.487574 -0.885724 0.894652 -1.317351 2.488041 0.259782 0.312762 0.831887 0.565411
债务 0.047045 -0.543692 -0.730973 1.194714 0.661568 1.878476 1.892293 -1.236909 -1.255173 1.268272
超过 -1.135537 1.426161 0.296983 -0.918157 -0.337475 1.556538 0.443058 0.737257 1.973324 0.441906
总裁 -0.417896 -0.643846 1.132689 -0.993225 0.542408 -0.952212 1.676268 0.872703 -0.058624 -1.592218
记 1.523758 -1.601855 2.493915 0.361055 0.595545 -0.336759 0.703057 1.593618 0.647278 -1.147168
至多 -0.226700 1.108231 -0.208450 0.290957 -0.427137 1.098567 0.346200 1.572634 2.959982 -0.547039
财年 -0.623463 0.337366 2.413015 -2.357258 0.050232 -0.267656 -0.341737 -0.195603 1.147916 -0.543861
未来 -0.432333 1.318618 0.329457 -1.491908 -0.487507 -0.654541 1.141699 1.898909 0.405656 1.688380
印度 0.040369 -0.597705 -0.085804 -0.733735 -0.892003 0.522382 1.155622 0.678042 0.135940 -0.233676
合约 0.393242 1.618768 -0.298376 0.129497 -0.873360 2.441558 1.070304 0.856527 0.314572 -0.915461
天然气 0.583960 -0.843708 -0.619147 -0.457102 -1.244894 1.263992 0.987229 1.550111 -1.986819 -0.074980
彭博 0.865871 -0.073892 -1.188597 1.487966 -0.504192 2.320148 1.703778 0.570092 0.585823 -0.783635
美国银行 0.769191 -0.873722 1.164907 0.711507 0.900789 -0.238603 0.810178 0.991016 1.247852 0.152604
银行业 0.379943 -1.111783 -0.049479 -0.131755 -0.422355 -0.365536 2.053395 -0.675164 -0.363574 0.625986
完成 0.482829 -0.596901 0.694464 -0.007140 -0.077281 0.783981 0.417983 0.898339 0.835335 1.417980
业绩 0.115914 0.326635 1.751560 -1.570544 0.026022 0.796480 0.645618 -1.587645 -0.663471 0.263455
董事会 -0.155051 -1.164141 0.177822 -0.160953 0.076385 -0.234364 0.477720 0.276273 1.100867 0.354375
大通 0.286886 -1.759989 0.694069 -0.592718 -0.283984 0.194802 0.936779 -0.532498 0.713087 -0.148954
能源 0.573320 -1.550111 0.773771 0.368496 0.379485 -0.494906 0.607455 0.024950 0.311903 -1.242452
价值 -0.990450 -0.107569 -0.506879 -0.221297 -0.285256 1.180056 0.486764 1.035100 1.804980 1.016881
更 -0.789721 0.068563 -0.838778 -0.527108 -0.859997 0.625699 0.662650 -0.288135 1.211013 0.951246
监管 0.356248 -0.774588 -1.313336 0.366888 -0.779411 -0.420160 2.068368 -0.091406 0.066661 0.970298
支持 0.534885 -0.655329 -0.845580 0.514649 -0.565476 0.420027 1.797123 0.308579 0.784955 0.569851
要求 0.224480 -0.941888 -0.381862 0.575221 0.078013 0.235042 1.326288 0.438553 0.227302 1.226370
上涨 -0.231504 0.440594 0.955678 0.449508 1.623151 0.448770 1.120337 -1.663216 -0.035106 0.527957
多 -0.725526 0.125159 -0.649892 -0.576273 -1.053578 1.208234 0.560074 -0.549669 1.506173 0.397291
把 0.408560 -0.167148 0.771853 -0.766285 -0.813238 0.460383 0.660880 0.728989 0.827753 0.280185
每股 -0.679397 0.345540 1.158205 0.902898 2.134687 1.695616 -0.221052 -0.528568 1.978104 0.886546
金融 0.659131 -1.095483 0.071222 -0.131422 -0.475655 -0.448648 1.233488 0.736555 -0.427591 -1.486285
高管 0.382549 -0.443108 0.670378 -0.509825 -0.208746 -0.408443 1.074518 0.843158 -0.113011 -0.078786
正在 0.929807 -1.403779 0.414801 -0.181269 -0.633288 0.454285 0.979990 -0.114386 0.026206 1.779049
下 -1.989975 -0.042583 -0.471006 -2.303578 -0.738955 -0.584147 0.513336 -0.206448 0.642962 1.154347
亏损 -0.556524 0.217361 1.794581 -0.528214 1.219678 1.803229 -0.714841 -0.184955 0.704446 0.530187
公布 0.025980 0.057723 0.425560 -0.234325 0.193558 0.356564 1.213070 -0.058277 -0.361122 1.612602
北京 -0.306959 -0.599075 -0.089940 -0.727361 -0.528672 -0.353638 0.171655 1.713505 0.592086 -0.998765
希望 -0.139253 -0.992991 0.442167 -0.820722 -0.229813 -0.617877 1.179640 0.757313 0.331177 1.171602
相关 -0.033315 -0.581841 -0.524335 0.907823 0.307531 1.777546 1.250235 -0.923198 -0.385950 0.687080
资本 0.069574 0.695266 0.278896 -0.270771 -0.517164 1.008808 0.935317 -0.613943 0.747105 0.132912
大幅 -0.751828 0.531096 1.912062 -0.268809 1.825555 0.844246 1.050596 -0.780625 0.251309 0.724301
. -1.496741 -2.598451 -0.157953 -0.249023 0.876617 -0.119251 -1.686415 0.249767 0.755565 -0.672691
壳牌 0.731507 -2.260861 0.860747 -0.375673 0.007821 -0.925982 0.721953 1.879266 -0.720897 -0.221826
年期 -1.129000 2.076884 -0.808668 0.418053 0.897919 0.702355 2.347657 1.278465 1.624893 -0.797605
戴姆勒 1.011051 -1.349261 1.290411 0.010704 0.110905 0.631772 1.515458 2.035581 -0.799441 -0.305095
日 -1.039621 0.651032 -0.454505 -0.468686 0.219002 0.685693 0.018985 2.510182 0.216250 2.278341
盈科 1.906429 -0.805612 2.387503 0.705609 0.121421 0.227310 0.379914 0.502816 1.609885 -0.020412
第三季度 -0.557830 0.679924 2.448741 -1.726119 0.524120 0.067151 0.525411 0.877680 0.355470 -0.649681
给 0.629831 -1.185016 0.593135 -0.127484 -1.144574 0.644427 0.629004 -0.533773 1.561480 -0.227667
2009 0.257089 1.071335 2.018104 -1.410073 -0.345030 0.249327 0.869004 1.240213 0.624183 -0.430953
人 -1.865611 1.369226 -1.658084 -0.239447 0.478097 1.649751 1.413839 0.645211 -0.173455 0.583646
方案 0.108829 -0.881912 -1.410611 0.694084 -0.569258 1.163004 1.010651 -1.452289 0.824277 0.479812
伦敦 -1.324167 -1.340367 -0.740398 0.288286 1.430472 -1.112760 1.227610 0.084877 0.134170 -0.701564
希腊 0.092330 -0.832839 -0.403622 1.179755 0.745201 0.723543 2.465272 -1.082990 -0.584554 0.853877
手机 0.399472 0.192406 0.347150 -1.092062 -0.806140 0.326942 1.213827 0.491108 -1.474573 -1.194335
证实 0.243100 -1.478156 0.881696 -0.527849 -0.351664 -0.206549 0.160266 0.632991 0.435408 1.023408
决定 0.493118 -0.128779 -0.477139 0.465247 -0.551183 0.537498 1.029706 -0.134972 0.524566 2.260993
强劲 -0.533897 0.744573 0.932469 -1.064804 0.376259 1.750873 1.440586 -1.606106 -1.072890 0.289992
诉讼 0.301205 -1.644274 -0.691999 0.290416 -0.289006 2.128718 0.434582 -0.749790 -0.716862 1.625179
宣布 0.279741 -0.535883 0.552843 -0.533739 -0.142040 0.076807 0.729586 0.708938 0.432969 0.995686
海外 -0.177486 -0.001860 0.581752 -0.936232 -0.725999 0.253791 1.280474 -0.242757 1.012155 -0.728039
裁员 -0.813165 0.560392 -0.499221 -0.351827 0.225870 1.539949 1.051351 0.923240 0.920570 0.424556
12 -0.425308 1.176511 0.673958 -0.243251 0.510278 0.634930 0.609733 2.652788 0.343666 1.177697
个 -0.589294 1.880217 -0.416226 0.459868 0.477775 1.222722 0.903913 1.922877 -0.389648 1.732962
黄金 -2.022008 -0.673221 -0.636726 -0.845117 1.353884 -0.893130 1.126091 0.332168 -1.316310 -1.124524
并 -0.360817 0.421916 0.394873 -0.561398 -0.409487 0.743284 0.887528 -0.567026 1.486355 0.758039
前景 -0.357457 0.502060 0.686974 -1.335231 -0.610076 0.298515 0.857399 -2.292383 0.255026 0.185071
第一 -0.786673 -0.999597 2.015720 -1.120252 1.236065 -0.462925 -0.480132 -0.318596 -0.044954 -0.024539
华润 0.956994 -0.047578 2.601596 0.317506 1.109529 -0.673368 -0.361500 2.651527 0.355935 -1.132198
德意志银行 0.171754 -1.472122 1.355729 -0.392385 0.491740 -0.036375 0.735908 0.614105 0.218857 -0.051739
目标 -0.432017 1.501050 0.716809 -1.009169 0.042612 1.512665 0.769664 -0.091711 0.345208 -0.592142
联合 0.963604 -2.129013 -0.648598 0.110299 -1.054814 0.323503 0.630314 1.350665 -0.571606 -0.088947
上海 -0.012749 -0.592777 -0.059756 -0.715796 -0.906374 -0.465994 0.843015 1.261538 1.066978 -0.309697
大 -0.328263 -1.076385 0.435559 -1.090746 -0.480492 -0.688642 0.485350 -0.645090 0.833219 0.947210
信贷 -0.527310 -1.081970 0.248424 0.401267 0.835822 -0.199139 1.494516 -1.110136 0.469005 -0.213545
合资企业 -0.201273 -0.870811 -0.370422 -1.464210 -1.616607 1.418327 0.124041 1.618604 -0.123311 -0.088983
工商银行 0.802329 -0.473943 1.580102 -0.391121 -0.271364 -0.751941 0.427027 1.060783 1.510828 -0.223913
约 -1.176026 0.660248 0.019376 -0.211723 0.432294 1.701001 0.123316 1.249722 1.349222 0.451978
下跌 0.002056 0.403441 1.442898 0.700906 1.914842 0.822438 1.111862 -1.186930 0.005075 0.529013
召回 -1.068365 1.058112 -0.107742 -0.989434 0.095307 1.289265 0.552405 1.445898 -1.866366 0.987756
抵押 1.007841 -0.038942 -0.935185 0.310452 -1.399205 0.574332 1.863094 0.888018 -0.402306 -0.600439
有望 -0.313242 0.444675 0.576717 -1.080837 -0.408161 0.430005 0.718180 0.039240 0.325686 0.974596
消息 0.133683 0.646963 -0.323265 0.667258 0.445706 1.747819 1.675944 -1.178039 0.576238 -0.461159
一 -1.356032 -1.319925 -0.312041 -1.861742 -0.918052 -0.385420 0.009997 -0.159275 1.188217 -0.296188
花旗 0.215980 -1.059918 0.795165 -0.656508 -0.311667 -0.423127 0.954500 0.204859 0.582419 -0.015237
员工 -0.809866 -0.105799 -0.896218 -0.426107 -0.165446 0.750198 0.300521 0.886407 -0.444365 -0.106188
巴西 1.009501 -1.070878 0.408165 -0.235446 -0.961700 -0.435772 0.823925 1.357799 -0.793105 0.419574
利率 0.608351 2.094959 0.216716 0.337830 -0.276695 0.998492 1.173696 -0.522704 0.693927 -0.450873
30 -1.159245 0.639072 -0.350362 0.102270 0.337245 1.321717 0.322955 1.983894 1.604348 0.448559
开始 -0.025836 0.545178 -0.070382 -0.920395 -0.758292 0.563366 0.811900 0.761893 -0.205374 1.599929
持股 0.545690 -0.619181 1.967873 -1.405035 -0.822621 2.120493 -0.838828 0.026267 -0.052094 0.744130
推动 -0.383107 0.251069 0.911166 -0.522156 0.760300 1.040435 1.315764 -1.394234 -0.383090 0.253226
通用汽车 0.522352 -1.796915 0.513920 0.267561 0.021889 -0.081828 0.916980 0.535805 0.111046 0.732891
成立 -0.334003 -1.201983 -0.603650 -1.778970 -2.064800 0.632131 0.516030 1.361009 0.330307 -0.247856
雷曼 -0.222191 -0.850574 -0.744736 0.356084 -0.366346 -0.327699 1.674331 0.343953 1.266596 -0.005767
产量 0.186652 0.385300 1.004720 -1.417282 -0.330641 1.867600 0.117274 0.585045 -1.768190 0.518973
关闭 0.280483 -0.535352 0.168619 -0.354734 -0.325004 0.864405 0.725356 0.513441 -0.446401 0.380859
订单 -0.234520 0.441696 -0.603598 -0.125351 -0.927779 1.316125 0.756146 0.999088 0.080318 -1.491724
提出 -0.230964 -1.717424 -0.971584 0.632526 0.081319 0.871324 0.091488 0.246186 0.632759 1.282615
恢复 0.348054 0.264545 0.601223 -0.793283 -0.545512 0.942198 0.424036 0.073652 -0.012468 1.162350
荷兰 0.827459 -2.480833 0.954362 0.404594 0.435222 0.041551 0.884405 1.322810 0.117696 -0.805812
证交所 0.405682 -1.641466 0.269382 0.323771 0.699180 -0.480395 0.867644 0.562692 0.283359 -0.032099
20 -1.024069 0.761182 -0.115724 -0.289300 -0.106653 0.821817 0.570980 1.991069 1.391358 0.483136
并购 0.511512 -0.602252 0.062772 -0.112811 -1.001546 0.559878 1.287112 -1.394998 0.992992 -0.177713
博士 0.190169 -0.346605 0.852681 -0.296856 0.736061 -3.479022 2.440028 -0.387425 -1.593744 0.540671
合同 -0.760065 0.250374 -0.513484 -0.777813 -0.719567 2.254922 -0.107374 0.878244 -0.904522 -0.099439
莫 0.371569 -0.204331 0.817188 -0.175518 0.849365 -3.303584 2.093614 -0.381575 -1.616306 0.776930
资金 -1.101426 -0.500424 -2.123865 0.785679 -0.283826 0.776881 1.120018 -0.317783 1.191654 0.079175
11 -0.607050 1.184963 0.628736 -0.207194 0.565429 0.608190 0.673249 2.246348 0.063872 1.247060
标准 -1.037837 -1.643442 0.875587 0.053268 1.366155 -0.137034 0.453325 -0.160324 0.315134 -1.320150
没有 -0.433278 -0.764294 0.129056 -0.434881 -0.062117 -0.453047 0.998368 -0.662629 1.196486 1.184519
委员会 0.810094 -1.065594 -1.170301 1.019741 0.031474 -1.144379 1.946804 0.539955 -0.566157 1.026161
巴克莱 0.424188 -1.735638 1.036142 -0.160209 0.097218 -0.033734 0.731333 0.697367 1.037164 -0.104214
兄弟 0.068289 -0.975428 -0.868876 0.418236 -0.494220 0.062985 1.650722 0.435733 0.897824 -0.278085
关注 -1.033176 -0.082689 -0.273162 -0.299018 0.904461 -0.101783 1.511751 -0.917298 -1.150731 1.403326
推迟 0.213554 0.654904 0.259842 -0.210901 -0.586025 0.850250 0.723007 0.555834 0.586571 0.957292
信箱 0.136674 -0.080071 0.833201 -0.545308 0.716267 -3.326815 2.345691 -0.460186 -1.637834 0.808274
销售额 -1.592127 1.161210 0.629614 -1.617128 0.095248 1.258773 0.375462 0.721921 -1.208258 -1.130953
股价 -0.383342 -0.133388 1.539821 -0.243285 1.341719 -0.458050 0.679477 -1.637405 1.146687 0.082120
穆迪 0.313674 -0.303301 1.347883 -0.185951 0.553091 0.083482 1.094118 -0.268477 -0.346227 -0.945727
获 -0.077685 -0.390256 -0.719552 0.310131 -0.581468 0.013558 1.186896 0.496594 1.218748 1.475980
增持 0.717397 0.184789 1.569073 -0.680168 -0.382238 0.725802 0.006552 0.489388 0.850780 0.096036
比例 0.280235 -0.155350 1.657726 -1.362469 -0.716176 2.466052 -1.429149 0.103017 0.120408 1.038035
报价 0.047755 -1.151701 0.351157 0.444409 0.284718 2.839625 -0.274651 -0.328885 0.608876 1.248318
欧宝 0.718765 -1.836226 -0.287568 0.974807 -0.120412 0.000460 1.190369 0.405532 0.406330 1.125811
成为 -0.595788 -0.134967 0.068497 -1.218041 -0.689064 -0.362278 0.919407 0.170021 0.565680 0.874160
未 0.527257 -0.995189 1.203313 -0.387116 -0.148790 0.212068 0.389406 -0.866528 0.364475 1.625983
阿里巴巴 0.058823 -1.068942 1.446437 -0.992937 -0.097623 -0.997061 0.404943 0.383688 1.052957 -0.951078
2012 0.185310 1.709610 1.917982 -1.490394 -0.297784 -0.173728 1.177538 0.564170 0.413065 0.246413
官员 0.769488 -0.685647 -0.483465 0.879605 0.135258 -0.598824 2.260300 0.852089 -0.441565 0.869481
菲亚特 1.001962 -2.015509 1.463108 -0.350577 0.154999 -0.068732 0.811861 0.933991 -0.844522 0.008643
重组 0.492095 -0.452863 0.076706 0.423159 -0.136639 0.950536 1.460326 -0.543766 0.135656 0.362746
发出 -0.086480 -1.861982 -0.128737 0.971056 0.206392 1.250175 -0.549307 0.112452 1.525105 1.124430
购买 -0.180229 0.034522 -0.327366 0.267082 -0.019654 0.559578 0.398931 1.885267 0.306567 0.376166
2008 -0.409355 0.940320 2.055971 -2.076118 -0.419276 -0.305734 0.343371 0.408769 0.630441 0.079789
到 0.046933 0.948647 0.997546 -1.448070 -0.836647 0.302260 0.193325 0.245885 0.663018 0.975328
第二 -0.361840 -1.523712 2.400455 -1.201387 1.012550 -0.128976 -0.170009 -0.652138 0.378244 0.439562
出现 -0.388366 0.247600 1.133655 -0.847476 0.419448 1.182407 -0.087694 -0.641260 0.073909 1.200440
大众汽车 0.035769 -0.830720 0.975711 -1.042527 -0.198297 -0.378087 0.416978 2.012860 0.016574 -0.467794
家 -1.206199 0.206855 -0.356182 -0.071879 0.621071 0.469863 0.868184 1.604228 0.420206 -0.518083
网络 0.118795 -0.808815 -0.550848 -0.917660 -1.199906 0.685214 0.221171 0.307121 -1.456667 -0.618625
股 -0.470700 0.543757 0.367089 0.678297 1.451641 -0.059465 1.087127 -0.138679 0.257086 0.203747
削减 0.337212 0.204137 0.360825 -0.344149 -0.241558 1.734179 0.263082 0.117862 -0.335158 1.207552
会 -0.309076 0.016465 0.283255 -1.057049 -0.487273 0.310940 0.310892 -0.445019 -0.233237 1.778598
戴尔 0.400363 -1.258720 0.934986 -0.510163 -0.067067 -0.955255 0.254403 0.517049 0.474007 -0.526171
100 -1.796457 0.603262 -0.850869 0.042213 0.514361 1.165567 0.283227 1.256922 1.582994 0.061008
供应 -0.188545 -0.598736 -0.153005 -0.441427 -0.337890 2.212000 -0.371820 0.328530 -1.667401 0.430777
金属 1.335875 0.284408 2.183874 0.419506 1.882676 -0.507312 1.638770 0.138178 -0.951084 -1.180657
15 -1.532325 0.992872 -0.005614 0.528041 0.983401 0.512587 0.752027 1.399446 1.381077 0.809004
宏基 0.725137 -0.317461 1.809969 -0.119753 0.361070 -0.507019 0.848289 1.004182 0.422344 -0.362757
美林 0.500738 -0.629091 0.770993 0.590471 0.996628 -0.135937 0.581340 1.057918 0.657305 -0.549706
针对 0.013189 -1.218062 -0.248145 -0.065946 -0.150493 0.048007 0.818957 0.385109 -0.476957 1.217700
黄埔 1.690546 -1.248014 2.443153 0.752673 0.810958 -0.221452 0.579669 2.019817 0.308108 -1.179294
可 -0.625720 0.784934 -0.126885 -0.134211 -0.039399 0.144293 0.348428 -0.066494 1.562934 -0.700792
IBM -0.144512 -1.213175 0.321947 -0.806193 -0.414405 0.300720 0.069064 0.257823 0.620295 -0.726918
产品 0.073749 -0.502489 0.027207 -0.678200 -0.511338 0.921912 0.610853 -0.328443 -0.531284 -0.944075
开发 0.032751 -0.704578 -0.802095 -0.404755 -1.268088 1.114679 -0.065601 1.052420 -0.443387 -0.054927
明年 -0.039626 1.239498 0.855235 -1.219081 -0.432687 -0.250766 1.009829 1.559894 0.602020 0.731051
巴菲特 0.020926 -0.529697 -0.681144 -0.309670 -0.464572 -1.599734 0.838318 -0.000442 0.223588 0.215246
微软 0.100020 -1.627108 -0.149379 -0.116980 -0.124436 -0.395040 0.555670 0.012144 -0.810956 0.594118
接近 -0.152272 -0.735343 0.182761 0.191129 0.512920 1.334714 0.064011 0.859312 0.017700 1.830719
晶片 1.047553 0.014649 0.306623 -0.445075 -1.030695 0.719241 0.478456 0.950009 -1.274866 -1.353255
第三 -0.599270 -1.276793 2.647076 -0.909361 1.749741 -0.435677 -0.688485 -0.229829 0.071341 0.762637
10% -0.179878 0.422045 1.038860 -0.162110 0.150428 2.875696 -0.137481 0.611325 0.594105 -0.623544
有意 0.372022 -1.727977 0.258813 0.181709 -0.152746 0.762522 0.610028 0.432458 1.105787 0.690744
炼油厂 0.770086 -0.926638 0.397508 -0.484965 -0.711347 0.147319 0.306006 0.191269 -0.989311 -0.397451
规模 -0.297322 1.079028 -0.263602 -0.329638 -0.627823 1.413217 0.755994 0.280478 1.357139 0.033712
有关 0.452932 -1.075173 0.050424 -0.220588 -0.755190 0.386504 1.020982 -0.538922 0.151916 0.688057
危机 0.247282 -0.340463 -0.445386 0.540100 -0.033267 0.268981 1.274167 -2.009944 -0.795820 0.822257
支付 -0.388151 -0.422863 -0.656834 0.238288 -0.101755 1.110653 -0.385782 1.819294 0.546607 1.505200
欧盟 0.328930 -0.810781 -0.497935 0.774268 -0.020053 -0.485324 1.052000 0.137432 0.495477 2.014574
类股 0.198238 -0.849293 1.587719 -0.058045 0.956123 0.147387 0.798780 -1.304598 -0.476878 -0.077463
美元兑 -1.036963 0.013889 1.685629 0.879056 2.264643 -1.228110 1.546371 0.361611 1.234780 0.487396
铝业 0.270247 -2.029710 0.089604 -0.666107 -0.572818 -0.181002 1.045843 1.198805 -0.123790 0.254487
接受 0.331507 -1.523100 -0.414282 0.528800 -0.291992 0.027345 0.333279 -0.020155 1.091002 1.483699
第二季度 0.073481 0.947132 2.257991 -1.241389 0.617089 -0.026397 0.730347 1.248087 -0.532440 -1.095283
成本 0.113660 0.812021 0.462385 0.097612 0.189621 1.357689 0.294400 -0.268803 -0.412366 0.648301
设立 -0.427258 -0.049961 -1.252084 -1.378685 -1.801140 0.150458 0.851332 1.286421 0.343391 -0.768476
和解 0.200485 -1.102409 -1.266070 0.416395 -0.644545 2.697363 -0.256797 0.777346 -0.227925 1.576981
宏达 1.266565 -0.390801 1.941370 -0.419560 0.182638 -0.545531 0.947169 1.254163 -0.145921 -1.033432
收益 -0.823369 0.621712 1.183249 -0.202934 1.366783 1.330118 -0.329767 -1.081714 1.076438 0.333085
持 1.632549 -0.545987 0.845105 -0.126746 -1.714312 0.544009 0.857816 -2.205682 1.370415 -0.238016
部门 0.189711 0.915332 -0.863960 -0.208619 -0.955823 1.049353 1.369166 1.143988 -0.696453 -1.054223
指控 0.372415 -1.744786 -0.893190 0.559060 -0.198953 0.790894 0.046836 -0.613595 -0.366470 1.488608
要约 -0.246402 -1.913686 -0.265920 1.059491 0.520396 1.574808 -0.475441 -0.382896 2.265168 0.964472
长江 1.046048 -0.838785 2.057279 -0.663781 -0.238279 -1.031804 -0.722466 1.739932 0.935390 -0.600215
长 -1.245379 -1.351860 -0.083114 -1.518563 -0.006184 -0.651400 1.444426 -1.193422 -0.397834 -2.001645
500 -2.110339 0.086942 -0.582236 0.463057 1.591843 0.751539 0.536093 1.387000 0.457027 -0.814737
上升 -0.840429 0.898422 0.289662 -0.440120 0.755514 1.843036 0.229640 -0.599124 -0.754483 0.096780
发货量 0.478364 1.883649 1.573849 -1.212366 -0.350381 0.487502 0.184692 1.151879 -1.750281 -1.764779
支出 -0.338459 0.998016 0.572089 -0.356617 0.434305 1.892685 0.912979 -0.988501 0.504080 0.147498
调整 -0.076862 -0.152459 0.466452 -0.282725 -0.112251 0.530413 0.613782 -0.901317 0.568924 1.033494
鸿海 -0.145884 -1.490547 1.128081 -0.550603 0.179276 -1.160180 0.275200 2.086499 0.195060 -1.264465
2007 -0.197197 0.869204 2.088369 -1.903341 -0.302808 -0.240099 0.077736 0.764234 0.716198 -0.554256
兑 -1.361208 -0.373531 0.692310 0.989025 2.451942 -0.128455 1.294566 -0.541893 1.388219 1.045917
北美 -1.069231 0.066154 -0.706758 0.487656 0.896331 -1.083794 2.094495 0.690155 -0.565985 0.052138
华为 0.443544 -0.938950 0.396528 -0.649371 -0.588416 -0.815762 0.065960 0.660344 -0.567184 0.434659
百度 -0.731375 -1.299639 0.973753 -1.300148 0.314098 -0.576058 0.028531 0.483594 -0.401034 -0.637311
精密 0.042013 -1.189551 0.841988 -0.607937 0.191340 -1.176359 0.168269 2.077473 0.546638 -1.381503
运营 0.273498 0.443201 -0.464100 -0.949719 -1.430358 1.067821 0.837696 -0.599081 0.126665 -0.218531
加拿大 0.654709 -1.251219 0.249509 0.493337 -0.004316 -0.464193 1.034080 0.327506 0.153547 0.018752
同比 -1.747008 0.986386 1.403285 -1.696547 1.081632 1.712722 -0.467190 0.742543 -1.107341 -0.246853
澳门 0.507080 -0.154244 0.404855 -0.182612 -0.368960 -0.579206 0.473638 1.854867 -0.617795 -1.096363
第四 -0.361892 -1.371292 2.508046 -0.900505 1.514508 0.078905 -0.800925 -0.314108 -0.606685 0.358307
金控 0.031992 -1.576566 1.070664 -0.650753 0.281031 -1.766582 -0.345018 2.233944 0.465900 -0.897089
CNBC 1.032456 0.668476 -0.752790 1.461659 -0.204298 2.026220 1.363556 0.103278 0.050990 -0.599020
技术 0.098954 -1.409026 -0.264458 -0.531250 -0.819932 1.355795 0.258904 -0.611473 -0.622253 -0.719796
时间 -0.101351 1.448765 -0.125851 -0.651292 -0.829522 0.935041 0.147070 0.490166 0.870297 1.685716
逾 -1.059825 0.961886 0.515085 -0.878784 0.181740 1.758446 -0.614780 0.427688 1.227775 0.209238
保险 0.773293 -1.462230 0.583118 -0.188173 -0.274185 -0.501099 0.259597 1.226164 -0.489388 -1.225730
准备 0.082184 -0.687280 -0.350679 0.162208 -0.436467 -0.054251 0.651908 0.140604 0.733704 0.588424
发展 -0.241897 -0.111214 -0.057696 -1.382814 -1.220079 -0.045950 0.549110 -0.189920 0.046661 -0.266687
损失 -0.659145 0.242590 -0.282215 -0.034092 0.291254 1.347119 0.538202 -0.633774 0.944843 0.394428
母公司 0.268830 -0.926256 0.908904 0.051228 0.130751 -0.213555 -0.011696 0.733245 1.605932 0.975953
路透社 0.774372 -0.127336 -1.042323 0.983431 -0.795311 2.123816 1.035603 0.158928 0.839046 -0.605092
Facebook -0.004333 -0.581007 -0.299929 -0.788184 -0.838170 -0.386002 0.556418 -0.268511 1.040855 0.193843
尚未 0.256463 -0.737486 0.295466 0.213746 -0.276603 0.193777 0.377923 -0.157844 0.471743 2.253949
战略 -0.403884 -1.775563 -1.161420 -0.431208 -0.982395 1.091066 0.424783 -0.975560 -0.953494 0.845273
美孚 0.834631 -1.480797 0.967698 -0.124438 -0.272608 -0.690740 0.142214 1.693359 -0.624129 0.412472
央行 0.705309 -0.653679 0.542236 0.472691 0.259738 -0.630171 1.435200 -0.276498 -0.130472 0.046721
净亏损 -0.770212 0.658299 2.002314 -0.493936 1.631061 0.498287 -0.901390 0.332718 1.256246 0.020263
本田 -0.301422 -0.316278 0.456330 -1.009441 -0.112671 -0.413654 0.600478 2.369456 -1.815860 0.025940
苹果 0.003998 -1.255195 0.184367 -0.898148 -0.732992 -0.934592 0.781875 -0.427981 -0.407770 0.268785
达 -1.084137 0.890839 -0.046404 -0.525296 0.374573 1.261830 0.139502 0.852660 0.366284 -0.066457
进行谈判 0.689514 -1.947253 -1.104324 0.773167 -1.058234 2.064567 0.481241 0.083626 0.581865 0.501495
交易员 0.953312 0.292827 0.721580 1.217908 0.494855 -1.381929 2.241337 -0.672801 1.185261 -1.743877
减少 -0.897600 0.791837 0.232425 -0.369532 0.809751 1.337337 -0.269973 0.158475 -0.485349 -0.080365
埃克森 0.947148 -1.514996 0.953406 0.140804 -0.252209 -0.734672 0.071828 1.775406 -0.659784 0.529519
新加坡 0.657283 -0.286789 0.435574 0.029484 -0.407715 -0.386273 1.140802 1.077487 0.494314 -0.152720
一家 -0.004543 -0.962857 -0.718048 -1.112214 -1.725177 0.240218 0.427512 0.933397 0.284080 -0.448396
美国政府 0.320060 -1.398406 0.275802 0.367911 0.441839 -0.579612 0.761201 0.431681 0.012106 1.173302
美国财政部 0.936828 -1.021666 0.046478 0.779145 0.165797 -1.035367 1.274119 1.540511 0.394919 1.020710
表示 0.515961 -0.963769 0.215767 0.115076 -0.144735 -0.199609 1.194064 -0.476304 -0.053621 1.029128
客户 -0.840811 -0.575303 -0.590545 -0.193704 0.199853 0.826294 0.631238 0.353797 -0.481225 0.002091
建立 -0.445855 -1.041350 -0.924442 -1.285587 -1.476595 1.335062 0.311837 0.377103 -0.339135 -0.069980
惠普 0.163078 -1.283892 0.615797 -0.377079 0.215443 -0.129150 0.335466 0.832968 -0.159669 0.330611
私有化 1.096267 -0.859208 0.641974 0.043255 -0.833571 0.592062 -0.036528 -0.550223 1.926647 0.259963
东亚银行 0.803564 -0.618143 1.259550 -0.350636 -0.066807 -0.778332 0.383787 1.052886 0.473113 -0.027495
国债 0.720534 0.776757 -0.076449 1.281678 0.687558 0.410676 1.692638 -0.234502 -1.002880 -0.274910
电信 1.094379 -1.485230 0.575485 0.364767 -0.301801 0.243163 1.089885 0.161744 -0.224507 0.259191
皇家 1.217453 -2.682940 0.986184 0.740694 0.573659 -0.712768 0.595948 1.839474 -0.020109 -1.470654
遭 -0.583140 -0.671408 -0.125611 -0.491105 0.047819 0.510499 0.216845 -1.442261 0.000741 0.283782
& -0.230585 -1.820034 -0.853805 1.326387 0.971714 -1.659493 -1.795490 1.155178 1.343170 0.335343
专利 1.512139 -1.619352 -0.203109 0.050007 -1.168147 1.018307 -0.200472 -0.673591 -0.906284 0.575733
两家 0.177024 -1.597007 -0.252805 -0.396751 -0.982577 0.454307 0.826152 0.353550 0.386383 -0.576947
欧元区 0.182731 -0.414215 0.318443 0.588549 0.941380 0.339459 1.415460 -1.430070 -1.547352 1.292678
联想集团 -0.196952 -0.962007 1.543777 -0.408390 0.972089 -0.833154 0.173261 0.497921 0.656724 -0.540449
20% 0.559143 0.343340 1.336520 -0.130894 -0.117004 2.773707 -0.551625 0.337521 0.570347 -0.956545
商业银行 0.673519 -1.255595 0.730360 0.547684 -0.003906 0.284087 0.091585 1.135215 0.534446 -0.342797
尼日利亚 0.997021 -1.170599 -0.059221 -0.102897 -0.921805 -1.099618 0.325785 1.618109 -1.542558 0.088745
普尔 -1.578975 -1.844663 1.111116 -0.201700 1.870817 -0.151426 0.446369 0.078853 0.344030 -1.225530
交通银行 0.071406 -0.030143 1.365070 -1.384038 -0.532179 -0.737735 0.128792 0.763425 1.169195 -0.586921
荷兰银行 1.125977 -2.176316 0.289716 0.750610 -0.278761 -0.211706 0.102245 0.350185 0.436377 0.352767
飙升 -0.494602 0.777927 1.819514 -0.772977 0.832092 0.922394 0.052576 -1.276969 1.010749 -0.196210
建设银行 1.260687 -0.501846 1.633342 0.335102 -0.082278 -0.561172 0.616287 1.106507 1.579229 -0.659945
料 -0.297662 0.580456 0.814126 -1.118134 0.099930 0.406861 0.782317 0.108530 0.063170 0.353757
进一步 -0.168289 0.359821 0.155161 -0.272463 0.195475 0.574548 0.666729 -0.242290 0.496337 0.919822
所 1.345571 -0.761888 0.211257 0.165459 -1.468122 0.312259 0.433664 -0.757542 1.566848 0.320546
报告 0.068066 0.409245 0.202876 -0.239155 0.102089 0.444774 1.116137 -1.008162 -0.772691 0.551412
压力 -0.109571 -0.236992 -0.463329 0.193283 -0.315083 -0.011609 1.439578 -2.097760 0.064291 0.284641
国家 0.314180 -0.556794 -0.662662 0.763048 -0.070072 -0.164147 1.194588 -0.475694 -0.790622 0.801718
澳洲 0.281071 -1.624440 0.151357 -0.488013 -0.583679 -0.899242 0.356833 0.416542 -0.133609 -0.150069
後 0.184661 0.048656 -0.072880 -0.171104 -0.572025 0.671634 0.054144 -0.898738 1.064769 0.525419
本周 0.685391 0.446320 0.753927 0.248646 0.283357 -1.334851 1.510803 0.174333 0.134758 0.349870
第四季度 0.475082 0.894945 2.511016 -0.688957 0.883715 -0.304350 0.396764 1.151270 -0.279704 -0.225543
联华 0.144095 -0.098004 2.021943 -0.723949 0.774017 -0.730898 -0.380185 2.391939 -0.239180 -0.588183
房地产 -0.326144 0.440196 -0.622667 -0.937215 -1.078917 -0.038827 1.109092 0.762077 -0.741569 -0.782160
细则 0.842614 2.013376 -1.143383 0.942706 -1.500639 3.192676 0.950724 0.834432 1.084668 -1.146815
辞职 -0.646462 0.073069 0.419217 -0.761861 0.165184 0.856502 1.394790 -0.255503 -0.069918 -0.974224
钢铁 0.722458 -0.557155 1.025537 -0.720872 -0.949071 0.016586 0.478853 0.433312 -0.799235 -1.428166
A股 0.559921 1.245827 0.082329 0.027560 -0.752690 -0.426562 1.586568 0.065620 1.804487 -0.220750
延长 -0.367740 -0.411017 0.339604 -0.098147 0.232309 1.144310 -0.885896 0.460347 1.082876 1.591225
拒绝 0.345782 -1.779855 0.351086 0.274099 -0.069686 0.007433 -0.041923 0.097920 0.844720 1.399865
维持 0.229014 1.354794 0.284467 -0.286960 -0.255146 0.202543 0.848941 -0.978024 0.563180 0.267403
董事 -1.338432 0.207153 0.404616 -0.493714 0.814169 0.004024 1.209411 -0.757634 0.579994 -2.124206
入股 0.591271 -1.396495 -0.049580 0.167827 -0.583421 0.665648 0.357161 0.371521 0.325516 0.125841
否认 0.450746 -1.465226 0.494856 -0.550811 -0.629227 -0.247557 0.428978 -0.120906 0.260464 0.513179
出口 0.321484 -0.019166 -0.348783 -0.326365 -0.891117 1.158372 0.537947 0.706199 -1.317284 0.311936
原油 -0.786550 0.077893 0.219184 -1.144384 -0.033273 0.379344 -0.198870 1.243896 -2.001020 0.768131
品牌 -0.501570 -0.340141 -0.390841 -0.978065 -0.771260 0.494992 0.033683 0.427018 -0.749366 -0.840061
Group 0.524614 -0.987398 0.376780 0.535385 0.144452 -0.079801 -0.880137 0.659026 0.769541 0.300123
反弹 -0.983124 0.564182 1.001815 0.513836 1.757402 0.775760 0.750962 -0.487156 0.806357 1.114964
存在 -0.706247 0.124102 -0.778740 -0.514580 -0.578674 0.822961 0.824534 -1.209590 -0.367677 1.718573
新闻 0.495955 -0.714087 -0.737137 0.747820 -0.298614 0.342065 1.643001 0.278805 0.237357 -0.391368
江西 1.154008 -0.145688 2.238852 -0.511821 -0.074294 -1.123931 -0.571041 0.966557 0.384818 -1.558241
法院 0.431736 -1.270315 -0.971932 0.739769 0.057057 -0.794699 0.847437 0.423787 -0.222503 1.528512
小幅 -1.118221 0.920673 0.684857 0.158174 2.335979 0.405764 1.776668 -0.767722 -0.437279 0.689117
持有 0.656607 -0.399869 0.876505 -0.150666 -0.663400 0.472090 0.018721 0.163247 1.052335 0.939412
设备 0.608435 -1.038273 0.550463 -1.180713 -1.598673 0.921022 0.021823 -0.106822 -0.414818 -1.097146
华硕 1.101643 0.275392 2.116750 -0.986943 -0.319276 -1.125137 0.671230 0.568763 -0.375171 -1.764020
即将 -0.117491 -0.652065 -0.093216 -0.071066 -0.114268 0.478414 0.071853 -0.070161 0.112272 0.718230
建设 -0.317232 0.025811 0.221791 -1.449252 -1.541550 0.565442 -0.165655 0.370931 0.320879 -0.909006
放缓 -0.176464 0.742641 0.336168 -1.460340 -0.514126 1.523011 1.016503 -1.214622 -0.776430 1.005457
泛欧 0.722238 -2.643604 1.220048 1.821449 1.944408 0.000438 1.341194 -0.042355 0.902395 -0.539910
而 -0.170844 0.248623 -0.268530 0.282831 0.114501 1.071613 0.633191 -1.443882 0.217953 0.436585
50 -1.029174 0.417958 -0.354884 0.128042 0.367028 1.092775 0.050071 1.489806 1.496161 0.012070
财务 -1.002604 -1.337893 -0.060271 -0.968434 0.121160 -0.251962 1.392825 -1.208615 0.016310 -1.684432
万辆 -1.116573 1.153890 -0.761707 -0.282921 -0.030540 1.792551 -0.225597 1.724388 -0.738582 -0.103693
会议 -1.135885 0.411952 -1.280993 -0.047543 0.659187 -0.069942 0.561690 -0.441527 -0.694130 1.056845
实业 0.904750 -1.024876 1.787269 -1.115862 -0.660705 -0.962190 -1.299021 1.294454 0.685676 -0.329875
每盎司 -3.115770 -0.539464 -0.637506 -0.247042 2.508086 -0.391934 -0.018168 -0.001941 0.812597 0.399188
注资 -0.614942 -0.602386 -0.882525 0.889727 -0.049179 0.615715 0.425491 0.766986 2.108025 -0.235354
破产 0.156658 0.141367 -2.166970 0.483657 -0.983112 -0.448384 1.702325 0.532157 0.267684 0.101949
表现 -0.264126 1.279876 0.314289 -0.621066 -0.188629 1.467886 1.054388 -1.417507 -0.646074 0.798722
; -0.093268 -1.324462 -0.794668 1.289179 0.830095 -1.110079 -1.742205 0.857437 1.443196 0.363379
SEC 0.740929 -1.658024 -0.345918 0.254305 -0.270034 0.161307 0.773746 0.416743 -0.747227 1.326186
地 0.954768 -0.096704 1.638636 0.630109 0.553673 -0.584626 -0.072678 1.303213 0.808003 0.134857
定价 0.216289 1.129556 -0.287781 0.229482 -0.022297 1.535844 1.739583 -0.543836 -0.256080 -0.634229
矿业 0.099353 -1.469777 0.485700 -0.039624 0.525773 -0.557813 1.052882 -0.295347 -1.012833 -0.849714
道 0.660337 -1.335013 1.596451 0.152278 0.672602 -1.521093 0.462351 0.995164 -0.424781 -0.502009
金融市场 0.132488 0.746947 1.193898 -1.078191 -0.181749 -2.058290 -0.018412 -0.952131 0.733449 0.080298
首次 0.312449 1.679761 -0.328541 0.279979 -0.382760 -0.026507 1.161165 -0.290001 1.136363 0.250454
年底 -0.082101 1.365570 0.811691 -1.012448 -0.107941 -0.113210 0.874459 0.950724 -0.031777 1.135239
惠誉 0.520985 -0.472700 1.579317 -0.006864 1.243417 -0.115806 1.513801 -0.648350 -0.286275 -0.626981
石化 -0.421285 -1.217825 0.669975 -1.372313 -0.471936 -0.378699 -0.114963 1.042611 0.030222 0.266737
Energy 0.113132 -1.687188 0.387196 0.324048 0.179019 -0.725042 -0.952223 1.109066 0.707137 0.623687
东方航空 0.319768 -0.772824 1.304612 -0.394037 0.225243 -0.174790 0.116507 1.231011 0.413879 0.429959
担任 -0.561050 -0.326665 0.721285 -0.962650 0.094585 -0.190756 0.634714 -0.040888 0.388650 -1.932500
收益率 -0.514914 2.123747 -0.923965 0.461334 0.484728 0.597570 2.054352 0.206042 -0.111659 -0.756829
等 -0.046649 -0.729859 0.803818 -0.047860 0.431816 0.000026 0.604482 0.051229 0.377802 0.559650
系统 0.157735 -0.126418 -0.406419 -0.101156 -0.482287 0.202094 0.147709 0.171313 -0.271616 -0.722717
产能 -0.146290 0.462111 0.102219 -0.962426 -0.756071 1.293979 -0.300688 0.770242 -0.456589 1.034851
作出 0.692992 -0.016999 -0.693985 0.698754 -0.616066 1.327708 0.207304 -0.888950 0.192375 2.012640
分拆 0.874827 0.309627 0.380538 -0.183170 -0.870238 0.165094 1.189256 0.050609 1.318054 -0.998495
周二 -0.366863 0.877835 0.668353 -1.673409 -0.686509 -0.517647 0.684522 -0.072988 0.765878 1.401660
商业 0.041657 -0.009447 -0.904398 0.317347 -0.522865 -0.133111 0.949540 -0.621942 0.541398 -1.444943
商品 0.749089 0.454351 0.695226 -0.074599 0.314836 0.219070 1.909710 -0.239146 -1.727763 -1.393453
最大 -0.101446 0.845749 -0.772358 -0.594749 -1.121635 -0.648290 0.423744 0.010579 0.184163 0.647486
笔记本电脑 0.806585 1.549812 1.054642 -1.016977 -0.775044 -0.089280 0.244572 0.990714 -1.465519 -1.712111
事件 -0.400813 -0.174873 -0.339023 -0.631678 -0.288219 0.557617 0.116337 -0.584260 -1.441468 1.081677
令 -0.497734 0.154407 -0.335981 -0.290199 0.274140 -0.065958 0.856198 -1.183705 -0.150245 0.615763
复苏 -0.816757 0.642124 -0.409499 -1.125402 -0.249041 0.234010 1.004321 -1.266056 -1.343428 0.555186
大型 -0.236855 -0.516198 -0.266615 -0.204437 -0.214066 -0.206116 1.103543 0.520891 -0.594685 -0.513689
导致 0.143152 -0.035563 0.343042 -0.580720 -0.180538 0.409455 0.689258 -0.585464 -0.523559 0.952494
财政部长 0.888012 -0.844226 0.987630 0.428521 0.693750 -1.966098 2.484755 -0.088550 -0.345456 0.247078
政策 -0.313273 -0.103534 -0.607582 0.005347 0.140964 0.152453 1.007565 -1.118108 -1.067006 0.368186
智能手机 -0.029489 0.462770 -0.362891 -1.241732 -1.055876 -0.260364 0.971572 -0.297177 -1.236849 -1.023853
架 -0.430707 0.370927 -0.999045 0.664584 -0.058174 0.232488 -0.439990 2.984251 -0.568815 -1.397748
淡马锡 0.231510 -1.053851 1.120946 -0.513437 0.028146 -0.296689 0.044894 1.313027 1.532529 -0.373976
现金 -0.672905 -0.510913 -0.258217 0.473107 0.282775 1.428933 -0.584667 -0.200689 1.741322 0.760807
米塔尔 0.086326 -2.465737 0.649212 -0.113469 0.541191 -1.480931 -0.017204 0.877079 -0.457165 0.626562
贱 1.647976 -0.000211 2.447735 0.719972 2.250392 -1.286908 1.228433 0.167081 -0.450014 -1.197393
/ -0.638513 0.512805 0.063743 1.243377 2.070023 -0.204113 0.714710 1.438591 0.943194 0.664317
房利美 1.293602 -0.759276 0.822300 0.174625 -0.467333 -0.660007 0.681465 1.444723 -0.943263 0.297823
提交 0.054237 -0.166335 -0.769588 0.639308 -0.087935 0.468728 0.851834 0.349857 0.772929 1.079620
达成协议 0.345275 -0.764724 -0.218449 0.313080 -0.203326 2.099705 0.099053 0.178201 -0.410936 1.120841
零售 0.559546 -0.292325 -0.285633 -0.277359 -1.231124 0.396638 1.058959 0.132388 0.270064 -1.496283
200 -1.762244 0.540713 -0.632776 -0.052674 0.553504 1.290179 0.229685 1.658019 1.085316 0.107108
万元 -2.367433 0.481678 -0.266970 -0.142370 1.450778 1.627589 -0.544832 0.828091 1.609349 0.584173
中心 -0.426583 0.258990 -1.224655 -1.108891 -1.554529 1.208014 0.438314 -0.361692 -0.215588 -1.216995
欲 -0.448491 -0.969025 -0.304104 -0.234422 -0.136868 -0.492608 0.231442 0.192700 0.480621 0.359012
该 0.514520 -0.854117 0.788451 -0.669974 -0.664952 0.292676 0.238832 -0.626908 0.500282 0.442388
出价 -0.144269 -0.652347 0.482593 0.738417 0.755313 0.887528 -0.443672 0.573507 1.782151 1.021998
半导体 -0.239955 -0.229236 0.568530 -1.164858 -0.439392 -1.663825 0.367983 0.861053 -0.153306 0.003477
获准 -0.189750 -0.437291 -0.196312 -1.106559 -0.872885 -0.493185 0.641934 1.037970 0.318432 -0.370875
起诉 0.467535 -1.092285 -0.295057 0.077842 -0.391091 0.420651 0.362809 -0.239697 -0.070525 0.271122
需要 -0.714736 0.628814 -0.577507 -0.390560 -0.282855 -0.571200 1.093701 -0.097484 1.148153 1.210075
首日 0.119974 0.955446 1.259142 -0.336631 0.270715 -0.266032 0.753621 -1.451552 2.022133 0.035976
引发 -0.283390 -0.450564 -0.563611 -0.267165 -0.209901 0.244906 0.684983 -1.599002 -0.445896 1.102768
放弃 0.119351 -1.027920 0.018753 -0.230976 -0.337634 0.266326 0.249474 0.532785 0.617937 0.468123
法国巴黎 0.372357 -1.671400 1.056341 -0.009222 0.287497 -0.124994 0.748548 0.908121 0.391478 -0.368232
疲软 -0.269861 0.584181 0.742959 -0.462688 0.668442 1.409845 1.384703 -1.133821 -1.719954 0.879761
西班牙 0.624804 -0.916257 1.136768 0.679069 0.944797 0.215255 1.099456 -0.259686 -0.498058 -0.443877
财团 0.551235 -1.727654 -0.131573 0.135297 -0.749635 -0.099108 -0.514155 0.822574 1.332313 0.076437
乐观 0.966947 0.163918 0.825971 -0.245916 -0.487381 0.603716 1.106697 -3.035727 0.274191 0.099361
就业 -0.072823 1.061842 -0.078635 0.278690 0.854295 0.165182 1.365639 -0.017041 -2.735853 0.858650
文件 0.073474 0.568959 -1.134954 1.196175 0.220876 1.156846 1.128028 -0.313957 0.010250 0.170360
电器 0.623228 -1.109389 1.487914 0.885688 1.234576 -0.770111 -0.662876 0.905680 0.660954 -1.016773
假日 -0.264487 1.241216 1.234605 -1.743408 -0.095691 -2.041485 0.222078 -0.517071 -0.308307 0.174082
凯雷 -0.129128 -1.922873 0.242288 -0.072242 -0.104382 -0.655459 0.990825 1.593445 0.642454 -0.680949
参与 0.712086 -1.035623 -0.043647 0.073059 -0.939463 0.307950 0.665679 -0.092865 0.648527 0.445566
周三 -0.242538 0.271492 0.365261 -1.235374 -0.777384 -1.092248 0.312085 0.414065 0.884218 1.303727
指数 -1.717481 0.079597 -0.129422 -0.020451 1.360529 -0.752396 0.516052 -0.029618 0.297902 -1.507501
提起 0.828678 -1.661355 -0.257032 0.272038 -0.507273 1.233088 0.356615 -0.711008 -1.164413 1.447308
暂停 -0.009568 -0.004244 -0.012799 -0.441615 -0.321442 0.380406 0.914595 -0.238848 0.043873 0.391837
油田 1.107736 -0.598882 -0.565741 0.224995 -1.380480 0.438312 0.051711 1.204807 -0.948451 -0.297274
研究 0.734734 -0.409672 -0.224160 0.348740 -0.415341 0.561797 0.925442 -0.048938 -0.313240 0.345557
移动 0.727969 -1.362159 0.317553 -0.531536 -0.939843 0.141411 -0.045463 0.171482 -0.962380 -1.019273
行业 -0.391648 -0.123641 0.204704 -1.148329 -0.683819 -0.145319 0.602543 -0.306766 -0.715005 -0.229794
退出 0.068244 -1.075822 -0.141420 -0.118978 -0.118974 0.417033 0.926154 -0.268768 -0.838599 1.118142
食品 1.265285 -1.133881 0.732939 0.296275 -0.244077 -0.447086 0.114736 0.068985 -0.176774 -0.868936
富邦 -0.029505 -1.688104 0.747935 -0.436828 0.090515 -2.071680 0.150957 2.136736 0.875115 -1.169456
盈利 -0.297418 1.214781 0.984323 -0.686873 0.087677 1.151515 -0.527778 -0.177892 0.617001 0.337977
美国股市 0.351674 1.122306 1.935962 0.294789 1.640218 -1.571028 1.289970 -0.930682 0.440618 -0.059929
近 -1.149414 1.574117 0.269961 -0.509221 0.499118 1.389656 -0.740367 -0.159751 0.668155 0.456270
下午 -2.295859 -0.301259 -0.679878 0.224704 2.340250 -1.402146 0.379209 -1.246359 -0.667225 -0.702493
备忘录 -0.334577 -1.115399 0.036190 -0.115692 -0.424961 2.908119 -1.057143 -0.198950 0.390539 -0.326044
是否 0.215099 -0.414465 -0.203904 -0.053278 -0.383640 -0.712913 0.784106 -0.513033 0.271335 1.988693
资讯 1.141567 0.078689 -1.148285 1.438973 -0.668222 2.006368 0.978259 0.481821 0.214716 -1.512397
发布 0.227042 0.066809 0.525147 -0.515259 -0.231808 0.394524 0.296342 -0.073490 -0.294627 0.049571
取消 0.266687 -0.016513 0.300910 -0.062955 -0.338737 0.341829 0.280600 0.091005 0.880642 -0.102669
商谈 1.082026 -1.314045 -0.549467 0.490704 -1.065327 1.557826 0.168339 0.737463 0.004146 0.820661
回购 -0.159727 0.145232 -0.188107 0.462303 -0.026064 0.288368 0.383117 0.454042 2.447292 0.267813
罢工 0.679054 0.187626 -0.263128 -0.035699 -0.548394 0.978443 0.857300 -0.706318 -0.785851 0.074353
铜业 1.384273 -0.079638 2.519689 -0.629929 -0.127535 -0.901577 -0.107927 0.943683 0.467032 -1.606146
公开 0.446085 2.177777 -0.915742 0.639683 -0.694202 -0.471166 1.202207 -0.332124 1.929008 -0.786645
案 0.495390 -0.714507 -1.167878 0.064452 -1.104530 1.057528 -0.019490 -0.630339 -0.635396 1.120135
贝尔斯 0.203479 -1.968648 -0.187108 -0.007151 -0.008650 -1.039227 0.603379 -1.570617 -0.024676 -0.621491
高 -0.769439 1.692906 -0.622320 0.282765 0.707317 0.846431 0.734537 0.400007 -1.041171 0.427573
40 -1.003894 0.908628 -0.272648 0.241786 0.299480 1.025746 0.148175 1.511667 1.360370 0.306285
一倍 -0.816262 1.347760 0.613596 -1.284787 -0.182649 2.741166 -0.945964 -0.831835 0.807043 0.399274
主要 -0.169671 -0.032631 0.279736 0.167352 0.728245 -0.771753 1.121650 -0.291864 -0.120291 -0.127708
对冲 0.280370 0.909419 -0.622675 -0.250259 -0.862885 -0.475106 1.796095 0.045325 -0.344368 -0.490981
持平 -0.450589 0.529071 1.635870 -0.342865 1.748414 0.475167 0.688880 0.145338 -0.409839 0.758586
联手 0.358278 -1.371420 -0.279554 -0.064779 -0.748247 0.732147 0.092493 1.090506 -0.135284 0.708085
评估 0.799863 -0.829234 -0.035599 0.139542 -0.663798 0.373486 0.731054 -0.385247 0.053358 1.124886
部长 1.298923 -1.009874 0.968322 1.195291 0.941261 -1.849164 1.845910 -0.086002 -0.801731 -0.011569
再 -0.299778 0.025968 -0.297094 -0.140061 -0.306504 -0.194550 0.105122 0.304264 0.552318 0.893533
爱尔兰 0.083823 -0.949018 0.036145 0.746268 0.670004 -0.314353 1.251220 0.392275 -0.486534 -0.153585
目前 -0.656525 -0.593715 0.257166 -0.639485 0.009772 -1.239397 1.284268 -0.680905 0.426360 1.451246
走强 -1.445320 0.647177 0.155155 0.015349 1.763589 0.148667 1.291096 -1.312031 0.324719 0.288810
价为 -2.212687 -0.288645 -1.125761 0.256451 1.976430 -0.709592 0.346227 -0.759370 -0.649694 0.337066
AIG -0.189783 -1.296125 0.489602 -0.209012 0.145207 0.226935 -0.170636 0.340954 1.072017 -0.921153
亿澳元 -0.563283 -0.593846 -0.326116 0.413699 0.400830 0.903496 -0.466798 1.105502 1.660460 0.389315
兴业银行 1.566570 -1.202539 0.861974 0.636004 -0.107506 -0.710097 0.870693 0.658727 -0.291018 -0.113522
定盘 -1.837998 0.574418 -1.143697 0.185843 1.756211 -0.851411 0.416035 -0.934986 -0.780232 -0.396593
开设 -1.294283 0.174325 -2.122030 -0.849666 -1.093938 -0.330198 1.221041 0.847531 0.452581 -0.640791
摩托罗拉 0.807639 -1.279982 0.454345 -0.211054 -0.366573 -0.499206 0.136174 0.172840 -0.511411 0.075539
新华社 0.510553 0.612546 -0.829064 0.569254 -0.605751 2.105611 0.868125 0.533531 -0.095792 -0.801501
有限公司 0.450210 -0.546702 0.482683 -0.732091 -0.901436 0.378393 0.235829 0.156429 0.749015 -0.849802
内 -0.151868 1.335667 -0.115396 -0.866191 -0.830675 0.219638 -0.199374 1.181979 0.016151 1.676056
周记 0.449422 0.316598 1.179281 1.262131 1.224273 -2.631998 2.491715 -0.636721 1.695154 -1.900125
工会 0.974183 -0.486093 -0.737704 0.744730 -0.470808 0.172810 0.586440 0.268901 -1.131818 0.079576
所持 1.280183 -0.272059 0.841904 0.142358 -1.137399 0.697859 -0.504063 0.876106 1.535348 -0.941213
达尔 0.672747 -1.831771 1.426885 -0.180545 0.181584 -1.348578 0.667742 1.423488 -0.372259 -0.501894
万 -2.174760 0.714801 -1.034997 0.958477 1.551840 1.015509 0.512811 0.805500 0.824071 0.877748
华能 0.847453 -0.460414 1.910273 0.176929 0.761471 -1.022032 0.932044 1.484543 0.296749 -1.567144
奥巴马 0.219300 -0.343119 0.122321 0.497162 0.573407 -1.181646 1.025630 0.524363 0.216484 0.706866
新股 0.198316 1.318978 -0.154615 0.458153 -0.310336 0.285186 0.422455 0.164046 2.424640 -0.614025
由 -0.337952 -0.310215 1.142866 -1.066058 0.199288 1.794925 -0.878651 -0.348593 0.021110 0.394882
私人 0.816327 1.507246 0.178528 -0.208323 -1.014149 0.887470 1.223152 1.343175 -0.471357 -1.549641
货币 -0.254819 0.469212 0.837596 0.454499 1.550940 -0.659365 0.871433 -0.571495 -0.098168 -0.827271
雅虎 -0.029251 -1.397993 0.133563 -0.392951 -0.392112 -0.388009 0.613065 0.123224 0.474021 -0.257972
其他 0.020413 -0.552459 0.515581 0.646929 0.845639 0.127739 0.849590 -0.750128 0.091254 0.270024
无 -0.215809 1.226981 0.744194 -1.274053 -0.781481 -1.111867 -0.150318 -1.765882 1.590411 0.713408
生产商 0.181103 -0.496726 -0.694520 -0.661240 -1.190967 0.215043 0.584190 0.534014 -0.714984 -0.756467
结束 0.030957 -0.167406 -0.014033 -0.110455 0.022182 0.547698 0.107762 -0.750001 -0.216445 1.559224
认为 0.140100 -1.114166 0.325656 -0.462637 -0.128028 -0.827751 0.822451 -0.522325 -0.112827 0.882784
2006 -0.041034 0.875704 1.560737 -1.569372 -0.442052 -0.279965 0.205178 0.678600 0.550908 0.064783
50% 0.191837 0.496957 0.839256 -0.493962 -0.593733 2.508734 -0.045677 -0.521686 0.855448 -1.297136
Bank 0.666694 -0.879460 0.091321 0.739435 0.166449 -0.467015 -0.567953 1.168315 0.194913 -0.457756
G -0.134898 -0.648711 1.346885 -0.224056 0.578675 -1.501688 -0.928453 0.765996 1.670808 -0.390852
宝钢股份 -0.240809 -0.296321 1.416676 -0.917164 0.344888 -1.671979 0.416137 0.760762 0.102425 -0.103931
康菲 0.589018 -1.999823 0.893071 -0.310849 -0.338001 -0.637830 0.220675 1.734876 -0.846604 0.302249
扩张 -0.048009 0.989725 -0.690847 -1.099594 -1.545766 0.570520 1.115533 -0.038797 -0.095314 -0.509007
措施 -0.120523 0.065827 -0.757469 0.168060 -0.426972 0.839815 0.656434 -2.074059 0.165364 -0.095625
行政 0.047443 -1.001383 1.497572 -0.264560 0.948323 -1.326749 0.945646 0.999636 0.534241 -1.571524
: -0.817964 -0.858539 0.470636 -0.955216 0.082788 -2.275527 0.671413 0.956877 0.957584 0.761749
产业 0.771626 -0.714153 0.182847 0.751948 0.027406 -1.381646 0.681638 1.200792 0.038377 -0.881903
亿英镑 -0.287167 -0.357052 0.126942 0.453716 0.205226 1.587093 -0.809779 1.629198 1.616799 -0.022069
工人 0.241423 0.171127 -0.638068 0.043536 -0.329783 0.541118 0.954907 0.126233 -1.314753 -0.412714
最 0.240553 1.166974 -0.688669 -0.375267 -1.466840 0.725640 -0.143404 -1.473953 1.707724 0.143085
iPhone -0.288780 0.742235 -0.220827 -1.057889 -0.654364 -0.980598 1.102867 1.282087 -0.431581 -0.081323
债 -1.344089 1.982778 -1.206833 0.753261 0.937335 0.382648 2.151879 -0.451301 1.187719 -0.618894
南亚 0.416402 -1.129409 1.660075 -0.100266 0.831011 -1.586534 -0.473204 1.472996 0.702368 -1.102430
去年 0.173288 1.086248 1.311383 -0.107011 0.989502 -0.093305 0.333164 1.714279 -0.446681 0.839468
广告 -0.518644 -0.507154 -0.119020 -0.926215 -0.262285 0.691816 0.085828 -0.174882 -1.178210 -0.945064
报纸 0.182860 -0.143541 -0.503601 0.632836 -0.253457 1.316589 0.919222 0.273065 0.110876 -0.743779
认购 0.305187 0.006200 -0.786843 1.367991 0.098880 0.700489 0.687342 -0.078697 1.329243 0.507603
限制 0.139887 -0.383934 -0.577658 0.155144 -0.493857 0.419956 0.278177 -0.838720 0.119958 0.242323
2013 0.140189 1.384834 1.552003 -1.514490 -0.214864 -0.590547 1.161965 0.161643 0.200726 0.193928
Capital 1.061581 -0.693025 0.212229 0.877107 0.145505 -0.895090 -0.449538 2.228553 0.111015 -0.020710
俄铝 0.751618 -0.013805 1.709420 -0.574041 -0.082525 -1.459042 0.183539 0.987391 0.698515 -0.176711
启动 -0.085511 0.782478 -0.563802 -0.481118 -0.997495 -0.292719 0.685639 0.583824 0.873521 0.865815
多数 0.490958 -0.447769 0.919107 1.106887 0.788445 0.636059 1.085925 -0.482844 0.920060 -0.879281
建议 0.420957 -0.854707 -0.338845 0.518869 -0.317800 -0.175763 0.283750 -0.413268 1.445730 0.681726
非 -0.304511 1.040631 -0.524996 -0.184934 -0.367051 -0.168840 1.232949 -0.887957 1.295114 -1.426298
水平 0.280160 1.934035 -0.194111 0.096665 -0.405917 1.224516 -0.053663 -0.365495 0.286991 0.721038
港元 0.324018 0.599600 -0.088368 0.769024 0.342497 1.003099 0.213975 -1.073458 1.519563 0.769564
减持 0.984144 0.393071 1.048574 0.328334 -0.224176 -0.133911 0.596522 0.336571 0.881491 -0.380349
达到 -0.569416 1.577819 -0.050905 -0.776066 -0.361594 1.064840 -0.069145 0.812360 0.546183 1.008691
配售 1.224083 1.691150 0.360579 0.425533 -0.668796 0.420765 0.531800 0.542690 1.840564 -0.726445
主权 0.394813 0.326934 -0.050505 0.362630 0.176529 0.833097 2.118259 -0.496650 -1.855280 -0.394450
偏好 -1.656399 0.050415 -1.346946 -0.607733 0.364556 1.177292 0.931290 -2.020207 -0.922928 0.885973
关系 -0.016264 -1.771632 -0.959587 -0.935814 -1.485227 1.296856 -0.302479 -1.336369 -0.644053 0.347282
发电 -0.186503 -0.258425 1.163232 -1.074059 -0.047982 -1.005869 -0.728346 1.389091 0.060784 -1.537180
等待 -0.898519 0.402656 -0.212028 -0.117428 0.730260 -0.050504 1.548892 -1.535426 -0.230477 1.295575
通告 -0.409867 1.233892 0.646456 -2.017721 -0.506018 -2.731917 0.263843 -0.346500 -0.330659 -0.267528
个人电脑 0.524583 0.688779 0.490106 -0.998239 -0.895085 0.541772 1.179667 0.257798 -1.173150 -0.932480
保持 -0.545730 0.602778 -0.103990 -0.927240 -0.477949 0.405211 0.284034 -0.968364 0.089606 0.651505
发生 0.038557 0.038481 1.088727 -0.676698 0.055626 1.262665 -0.897519 -1.202923 -0.730272 0.674627
吉利 -0.322529 -1.228992 0.229737 -0.329280 0.000009 -0.986780 -0.205618 1.863655 -0.765830 -0.070210
国美 0.561260 -1.298832 1.265712 0.881481 0.951146 -1.162175 0.130424 0.576484 0.755911 -1.201659
执行 -1.718484 0.775587 0.249245 -0.682923 0.921744 -0.368989 1.064201 0.000747 0.352913 -2.100100
贝南克 -0.211707 -0.246683 -0.059043 0.118130 0.856920 -1.296826 1.065872 0.584102 -0.972707 0.116106
下挫 -1.182852 -0.183637 1.389967 0.140580 2.055831 0.528545 0.628155 -1.147977 0.230154 1.001282
发售 -0.521260 0.880193 -0.153869 -0.026586 0.165355 -0.027910 0.675015 0.566261 1.672904 -0.168865
增至 -0.480065 0.378923 0.728398 -0.883365 -0.320329 2.086512 -1.826905 0.422741 0.581107 1.022271
搜索 -0.512157 -0.005263 -1.340517 -1.272220 -1.051011 0.310368 1.222338 0.115026 -2.511768 -0.766050
消费者 -0.357180 -0.147775 -0.959190 -0.348434 0.041814 0.473103 1.547378 0.213381 -1.357011 -0.151225
签订 -0.142888 -0.948619 0.071344 -0.317636 -0.283791 1.644080 -0.822101 0.720741 -0.072638 0.875072
09 0.223228 1.562586 1.519767 -1.282133 -0.419519 -0.492562 1.136882 0.552474 0.033760 -0.068986
25 -0.503464 0.717602 -0.179258 0.667023 0.499287 0.769702 -0.210690 1.848211 1.332530 0.699124
宝马 0.140253 -0.757709 0.337956 -0.661901 -0.125112 -0.004402 0.769444 1.566500 -1.604834 0.276277
期货 -0.442284 1.088610 0.180518 -0.105974 1.336420 -0.074141 1.724837 -0.242207 -1.751171 -0.873185
比亚迪 0.789647 0.006185 1.510892 -0.604412 -0.275056 -0.450948 -0.010966 0.791949 0.530027 -0.531823
至少 -0.325221 0.823970 -0.101085 -0.476842 -0.444411 0.726991 -0.085472 0.523162 0.917670 0.311061
重新 -0.011078 -0.087061 -0.493928 -0.093111 -0.409317 0.241673 0.239221 -0.205755 0.027843 1.487137
金价 -0.484785 1.332834 1.626351 -1.387777 0.672860 -0.008720 0.712835 -0.248510 -0.237671 0.028856
南方 0.415239 -0.968982 1.141309 -0.644627 -0.137704 -1.040275 0.401603 1.841425 -0.028884 0.100378
应 -0.255450 -0.254425 0.079165 -0.180714 -0.081346 -0.993097 0.741748 -0.417953 1.043834 0.885894
河谷 1.346245 -1.142700 1.089719 -0.962055 -1.310801 -0.881003 0.546008 1.219483 -1.924914 1.044011
淡水 1.468121 -0.990803 1.086617 -0.871919 -1.199802 -1.053954 0.681891 1.268433 -2.183361 1.131785
级 -1.943717 1.152310 -0.924861 -0.931306 0.472070 -0.439082 2.554614 0.076487 0.829232 -1.419800
资源 0.824455 -1.405110 1.373271 -0.128863 0.000760 -0.246784 -0.207266 0.344058 -0.565789 -0.220349
轿车 -0.840285 0.902144 -0.824143 -0.380267 -0.158597 1.433950 0.714598 0.801255 -1.103667 -0.601362
5% 0.426829 0.258481 1.440578 0.108939 0.752871 2.379246 -0.066084 0.205655 0.386060 -0.836076
LG -0.231668 -1.673139 1.115690 -0.310864 0.702880 -1.695472 -0.726598 1.955681 -0.708252 -0.095498
休市 -0.215861 0.510323 0.539684 -0.539666 0.163704 -1.735483 -0.553883 -1.161148 0.480542 -0.250488
低点 -1.364226 1.820094 0.819477 0.590926 1.263676 0.386680 -0.279196 0.275670 0.892146 1.729062
周五 0.074508 0.576278 0.922631 -1.398691 -0.579715 -0.888436 0.361151 -0.060809 0.527006 1.292909
权益 0.500515 -0.935651 -0.180880 -0.270928 -1.723449 1.852936 -0.924277 -0.107663 1.079776 -0.830759
李嘉诚 1.732486 -1.282485 1.470409 0.060471 -0.451946 -0.614194 0.875060 0.849257 -1.110364 -1.036096
莱斯 0.632458 -1.650261 0.640826 0.414673 0.273334 -0.466359 0.666889 1.204666 0.185880 -0.616651
解决 -0.723263 -0.429141 -1.076512 -0.008880 0.047797 0.044064 0.487339 -0.198716 -0.534670 1.343242
讨论 -0.317528 -0.763282 -0.669994 0.151858 -0.263636 0.887440 0.029882 0.320038 0.316557 1.341326
amp -0.038970 -1.552953 -1.133529 1.427749 0.785777 -1.277051 -1.653430 0.992977 1.342497 0.687672
东方 0.796506 -0.661394 1.448571 -0.261865 0.009383 -0.917444 0.208826 0.671332 0.625098 -1.212401
亚太地区 -0.275192 1.053454 0.900725 -2.250867 -1.595297 -1.648718 0.027298 -1.147284 1.288223 -0.201703
初步 0.055719 -0.493780 -0.163666 0.616918 0.219577 0.861059 0.134254 -0.289158 0.140200 1.464080
安全 -0.531531 -0.122796 -1.077870 0.194756 0.007988 -0.069544 1.192790 -0.462495 -1.135192 1.053098
审查 0.048258 -0.710823 -1.249063 0.125123 -0.764356 0.082538 0.657778 -0.229989 -0.264132 1.317955
澳新 0.716811 -1.355179 1.027826 0.081271 0.062577 -0.536627 0.938734 0.767215 0.260883 -0.549181
结果 -0.006584 0.332304 -1.477923 0.856804 -0.235074 -0.058831 0.868606 -1.840033 0.197097 0.423273
让 -0.242832 -0.407808 -0.193912 -0.600740 -0.308113 -0.747458 0.560237 -0.144616 0.283287 0.682416
财政 0.893117 -1.372012 0.732665 0.200914 0.770441 0.095669 0.261090 -1.024319 -2.036978 0.187182
软件 0.247219 -0.728802 0.067710 0.096551 -0.195825 0.426154 0.490432 -0.847772 -0.606320 -0.413421
进军 -0.804205 0.165607 -0.575811 -0.597796 -0.303035 -0.045052 1.038624 0.183573 -0.093074 0.477529
降 -0.816284 0.422566 1.912032 -0.983013 1.161650 1.661858 -0.975241 -0.392038 -0.001045 -0.371227
帮助 -0.323023 -0.286320 -0.220331 -0.193291 -0.201279 0.266789 0.459933 -0.383717 0.303592 0.174639
平台 0.111687 -0.051631 -1.020083 0.205768 -0.810267 0.223575 0.568671 -0.069688 -0.425350 -0.672425
戴尔公司 0.279913 -0.549445 1.057306 -0.977253 -0.282205 0.002651 -0.359454 0.803704 0.621713 -0.091789
监管部门 0.173319 -0.849366 -1.102215 0.614997 -0.332066 -0.940802 1.478968 0.146810 0.321129 2.050596
30% 0.266940 0.425820 1.098156 -0.316053 0.001348 2.532063 -0.579227 0.336622 0.064254 -0.219823
Google -0.758735 -1.161533 -0.147687 -0.976950 0.080352 -0.388210 -0.032748 0.317768 -0.371809 -0.170794
一事 0.714582 -0.995289 -0.723867 0.378179 -1.189258 1.497665 -0.036250 -0.181859 0.469017 0.512564
分析师 0.343895 1.058807 0.886249 -0.333054 0.192433 0.514816 0.938029 -1.296119 -0.324000 -0.379182
名单 0.199820 0.377260 -0.046345 -0.089790 -0.757295 1.300592 -0.330536 -1.913221 0.147154 -2.600598
大宗 1.224752 0.422132 1.579826 0.255548 0.184339 0.048190 0.677046 -0.146109 -1.513029 -1.089833
活动 0.221631 1.436573 -0.685918 -0.142339 -1.068706 0.423003 1.066666 -0.882959 0.389196 -0.107082
互联网 0.063113 0.351692 -0.861973 -1.248022 -1.365760 -0.005296 1.655463 0.326778 -2.360811 -0.462894
保护 0.091521 0.885985 -1.891926 0.594238 -0.815972 -0.218314 1.282095 0.557408 0.382154 -0.150727
带来 -0.684332 -0.614831 -0.512646 -0.445319 -0.485549 0.322159 -0.097220 -1.042554 0.677661 0.116650
爱立信 0.163244 -1.636512 0.542024 -0.353066 0.190632 -0.466517 0.458178 0.691392 -0.257143 -0.645700
看点 0.334641 0.897544 1.328950 0.783825 1.187151 -2.006718 1.844767 0.016879 0.636910 -0.155892
研发 -0.174678 -0.112948 -1.281474 -0.671604 -1.456535 0.921108 0.295873 0.149546 -0.349397 -0.998980
麦格理 0.733210 -2.291361 1.422580 0.300337 0.523491 -0.697898 0.750358 0.239866 0.573574 -0.722775
08 0.090876 1.357101 1.413793 -1.442396 -0.403118 -0.204256 0.416424 0.849147 -0.241129 0.473701
周四 -0.157620 1.129008 0.500337 -1.354033 -0.896839 -0.886577 0.212192 -0.208781 0.810797 1.271418
Arcelor 0.540241 -2.170555 0.816024 0.440987 0.581393 -0.496175 -0.804524 0.432337 0.217687 0.387923
大唐 0.126283 -0.435728 1.444195 -0.788003 0.025868 -1.350742 -0.757471 1.627775 -0.120420 -1.847742
工作 0.459322 0.477034 0.105407 0.021975 -0.398233 1.003065 -0.275777 -0.113682 -0.288048 0.610917
燃气 0.663115 -0.863314 1.102995 -0.258204 -0.246626 -0.307775 -0.628614 0.830529 0.415743 -0.461220
还 -0.643051 0.044910 0.091588 -0.475604 0.389410 -0.334633 0.058124 -0.933362 0.555859 1.864597
07 0.130412 1.006915 1.867340 -1.534930 -0.269914 -0.260526 0.071895 0.230990 0.672571 -0.256399
12% -0.214601 -0.116565 1.493946 -0.369128 0.592636 2.039965 -0.531825 -0.280186 0.302224 -0.684801
15% 0.475036 0.813247 1.137072 -0.001472 0.243254 2.539316 -0.166210 0.277437 0.157007 -0.682554
上扬 -1.161190 0.074307 1.536028 -0.607441 1.701924 0.828273 0.480963 -1.394425 -0.148205 0.567951
地块 -1.302751 -0.755798 -0.668467 -0.929485 -0.681736 -0.185050 -1.390330 -0.165151 1.882025 -0.801514
总经理 -0.675685 -0.730563 0.676304 -0.394379 0.508501 -0.557076 0.944180 -0.219276 0.239635 -1.894312
手中 -0.262165 -0.794474 -0.003063 0.540845 0.099346 0.274439 -0.614536 0.598303 1.551622 1.428765
持续 -0.007526 1.245542 0.005743 -0.561801 -0.325669 0.401265 0.485060 -0.592839 -0.193437 1.101587
竞争 -0.157337 -1.373429 -1.110869 0.017621 -0.263651 0.368690 -0.023547 -1.055137 -1.075492 1.031044
终止 -0.359131 -1.538413 -0.173867 0.002360 0.130214 1.068001 -0.570321 0.402286 -0.021288 1.028993
聘请 0.249043 -0.203539 1.069140 -0.583767 0.158031 -0.513476 0.312635 -0.175012 0.413007 -0.690518
负面 -0.219734 1.080130 1.427434 -0.633713 0.296726 0.909514 -0.503716 -1.674572 1.143208 -2.422689
贸易 -0.076716 0.486203 -0.766217 -0.319046 -0.767634 -0.240210 0.487611 -0.415400 0.198635 0.453591
迪拜 0.600320 -0.577687 0.167662 0.914022 0.564974 -0.201930 0.545783 -0.274745 -1.313296 0.334725
反对 0.457034 -0.621434 -0.139313 0.421588 -0.132688 -0.389336 0.375846 0.321645 0.584941 1.483120
名 -1.990916 0.877776 -1.880860 0.048149 0.512921 1.075286 0.436230 0.783263 -0.823724 -0.186925
墨西哥湾 0.516839 -0.021842 -0.177108 0.102595 -0.210812 -0.280894 0.460297 0.685148 -1.621130 -0.114222
恒生 0.208079 -1.394654 2.127418 -0.397685 0.700113 -0.380679 0.416637 0.565250 0.669578 -0.764814
意大利 1.155044 -0.547439 0.720309 1.360086 0.610816 0.379605 0.865108 -0.157041 -0.513635 -0.403953
房地 1.213498 -0.910909 0.816745 -0.339912 -0.620239 -0.725915 0.693254 1.520193 -1.533858 0.215375
潜在 0.071601 -0.975784 -0.882885 0.001529 -0.904364 0.815126 0.317379 -0.701337 0.149769 0.886413
40% 0.083459 0.448925 1.053333 -0.542646 -0.148765 2.196740 -0.289924 -0.204261 0.637488 -0.707065
主管 -0.217108 0.338374 -0.626548 -0.568768 -0.836282 0.086452 0.903255 -0.044684 -0.322920 -2.295632
举行 0.025859 0.108789 -0.775499 -0.071550 -0.822444 1.403081 -0.147673 -0.415079 -0.371417 0.685498
信息 -0.429580 -0.045760 -0.610666 -0.580757 -0.602416 0.864592 -0.129761 -1.249348 0.058929 -0.161234
反垄断 0.309446 -0.884386 -2.005336 0.835894 -0.904142 -0.060078 1.412728 -0.533391 0.084991 1.648531
德国政府 0.286178 -1.238502 0.050382 0.189957 0.193637 -1.096260 0.797944 0.024294 0.017916 1.104313
联邦 1.621927 -1.158922 0.052636 0.658024 -0.736489 -1.152246 0.746043 0.489963 -0.984342 -1.098727
麦当劳 -0.556034 0.099880 0.777688 -1.150355 0.138548 -0.516720 -0.019600 1.707467 -1.182358 0.185017
Gazprom 0.950228 -1.094627 0.589394 -0.184024 -0.322220 -1.138163 1.363026 1.449933 -1.348797 -0.401181
下半年 0.340554 0.938663 1.138375 -1.210052 -0.514379 -0.374990 0.779082 -0.027401 -0.240755 0.516497
交付 0.232914 1.694194 -0.673703 0.101967 -0.983517 0.125285 0.084006 1.652552 -0.628473 -0.584496
使 0.373677 0.567581 0.693689 -0.968042 -0.734203 -0.017358 0.067865 -0.082395 0.479773 1.083501
信用 0.215874 -0.213159 0.472473 -0.260727 -0.014991 0.528281 0.487938 -1.286096 -0.850432 -0.670196
富士康 -0.075319 0.070453 0.626070 -0.885283 0.026156 -0.762362 0.020775 -0.015190 -0.753487 0.149745
煤炭 0.207328 -0.767674 0.135305 -0.215505 -0.441932 0.753846 0.140322 -0.002181 -0.952296 -0.239295
联盟 0.480158 -1.369172 -0.572145 0.181718 -0.724270 1.392346 -0.325100 -0.487102 -0.840574 0.436041
银行业务 0.483743 0.988315 -0.198831 -0.380665 -0.916968 0.847538 1.148956 0.100630 0.217809 -1.867014
300 -1.223163 0.770671 -0.673902 0.430624 0.702772 1.319329 -0.154817 1.414649 0.891346 0.109428
DELL -0.976860 -0.662182 -0.164811 -0.892025 -0.137083 1.512954 -0.570243 -0.705441 0.853159 -1.025511
信心 -1.247180 0.775071 -1.295939 -0.152176 0.364459 0.348381 0.931790 -0.496699 -1.261389 0.652620
制造商 0.328445 -0.378369 -0.158283 -0.375784 -0.718145 0.333812 0.478231 0.681844 -1.149856 -0.154727
增速 -0.129568 1.212972 0.046824 -1.203748 -0.619672 0.578811 0.618857 -1.314658 -0.437426 0.907477
媒体 0.079197 -0.529395 -0.106267 -0.706093 -0.695860 0.499446 0.599906 -0.065273 -0.461450 -0.702142
已经 0.151414 0.218050 -0.030590 -0.226792 -0.381337 0.074107 0.577739 -0.280121 0.442811 1.065912
避险 -0.653327 -0.158802 0.675178 -0.341180 0.429296 0.889385 0.274839 -1.765672 0.425710 0.433076
高点 -1.315495 1.576151 0.358112 0.565924 1.615296 -0.166652 -0.417401 -0.147165 0.357989 2.461617
2005 -0.122753 0.646169 1.832608 -1.660553 -0.341599 -0.452949 0.033944 0.831346 0.369750 0.215934
25% 0.188553 0.245044 0.895875 -0.186136 0.005001 2.013063 -0.867766 0.045269 0.513967 -0.045687
3Q -0.679798 0.300785 2.227472 -1.174960 0.913114 -0.663736 -0.609415 0.273269 1.095315 -0.201189
A380 0.774362 -0.127645 -0.533957 0.244592 -1.198560 -0.045305 0.389714 1.644541 -1.092340 -1.670591
停止 0.052201 -0.199696 0.140127 -0.118801 -0.202007 0.516369 -0.142390 0.729452 -0.032594 1.171689
停牌 -0.359093 1.116148 0.609225 0.565293 1.259645 0.461571 0.504898 -0.422564 0.909668 0.717123
创业 0.750230 0.698910 1.798409 0.028562 0.597834 -0.849389 -0.756740 2.147918 -0.016775 -1.172949
受到 -0.177917 -0.040185 -0.526286 -0.352910 -0.409838 0.069636 0.709966 -1.358470 -0.072211 1.156814
巨头 -0.357535 -1.100117 -0.303812 -0.779133 -0.336617 -1.112460 0.225104 0.328508 -0.917461 -0.101487
平板 0.101527 0.446327 0.411670 -1.109927 -0.769688 -0.619297 0.641055 0.331236 -0.668865 -1.414529
广达 0.527094 0.004985 1.963571 -1.025961 0.071623 -0.703314 0.301362 0.236708 -0.310936 -1.571421
应对 -0.321848 0.302358 -0.081095 -0.218496 -0.042133 0.230938 0.073468 -0.312115 -0.057352 0.347632
沃尔沃 0.153274 -1.469770 -0.400796 0.246636 -0.497572 0.068243 0.210710 1.449070 -0.010397 -0.562032
磋商 1.000294 -0.903796 -0.884951 1.335770 -0.414118 1.744515 0.448331 0.320521 0.210963 1.501989
金沙 0.142123 -2.412414 0.935692 -0.588191 -0.488485 -1.289204 -0.328082 1.636271 -0.290443 -0.760725
阿尔卡特 1.044400 -1.343951 0.709100 1.118972 0.447324 -0.840467 -0.207797 1.722208 -1.223813 -0.097617
买家 -0.018913 -0.269172 -1.355142 0.182454 -1.041057 0.882332 0.260752 -0.558702 0.374479 -0.157057
共同 0.433953 -0.632667 -0.516201 -0.379331 -1.076661 0.735999 0.153468 0.661862 -0.120939 -0.411446
加大 -0.146162 -0.105684 -0.704496 0.043245 -0.365601 0.073433 0.750259 0.240658 0.281817 1.110887
华电 1.477437 -0.446315 2.379519 0.856343 1.295597 -0.553488 0.748141 1.742360 0.651694 -2.363704
基建 0.633378 -0.440980 1.523749 -0.166691 0.262109 -1.087969 -0.704711 1.599902 0.674726 -0.386261
基本 -0.117746 0.181753 1.157328 0.169092 1.734205 0.363944 0.225025 -0.572362 -0.122957 1.417720
情绪 -0.659090 0.791470 -0.126499 0.312467 0.564487 0.915758 0.143845 -2.854437 -0.090349 0.554338
挑战 -0.663914 -1.000138 -0.961140 -0.673602 -0.742451 -0.160591 0.132184 -1.119016 -0.365551 0.632107
登 0.386353 -1.915336 -0.243050 -0.031189 -0.290075 -0.547202 0.681528 -1.401309 0.069952 -0.404617
负责人 0.374890 0.072353 -0.365198 0.147746 -0.799574 0.260001 1.279952 -0.452581 0.506471 -1.658993
787 0.888521 -0.303498 -0.244579 0.051104 -0.931132 -0.204804 0.041042 1.402789 -2.114675 -1.258340
LME 1.095408 0.200282 1.977041 0.713475 2.118107 -2.280040 0.712339 0.235522 -0.336444 -0.960339
交投 -1.090557 2.343797 0.464216 -2.273744 -0.031484 0.498539 1.487672 -1.219633 -0.435762 -0.886985
创 -0.103864 2.065569 0.400338 0.116368 0.188357 -0.161967 -0.227218 -0.303683 0.479894 1.581061
到期 -0.531853 2.124147 0.513608 -1.099872 -0.799007 0.652153 0.288600 0.070652 1.344059 -0.179344
周一 -0.070257 0.541129 0.573623 -1.088633 -0.324922 -1.340114 0.396665 0.215548 0.050300 0.997490
威胁 -0.274484 0.194460 -0.443087 -0.613811 -0.620545 0.104288 0.089951 -0.264514 -0.292077 0.501172
承诺 -0.338865 -0.285498 -0.339074 0.143325 0.078033 0.116969 0.177997 0.269528 0.423502 0.529072
改革 1.316583 -0.313185 -0.023608 0.154471 -0.960847 -0.337565 0.493018 -0.600058 -0.232538 -0.093566
竞标 0.756853 -0.316244 -1.051781 0.007558 -1.558415 0.850298 0.057129 0.347094 0.175150 -0.507698
若 -0.060640 -0.126545 1.032461 -0.229171 0.884325 -0.820534 0.904260 -0.642071 -0.616482 0.796944
财长 0.888591 -0.393356 0.090043 1.023862 0.840981 -2.238256 1.667227 0.847938 -1.181120 0.222516
赢得 -0.108486 0.022287 -0.513795 -0.028572 -0.456408 -0.095287 0.208145 0.130619 0.461091 0.868010
起 -0.460577 1.527261 0.604072 -0.884972 -0.215107 -0.091585 -0.077168 0.387642 0.297187 1.877744
13% -0.157666 1.365379 1.269109 -0.341950 0.770842 1.849544 0.168013 -0.253369 -0.043429 -0.298130
ADP 0.667164 0.565983 1.056092 -0.238543 0.116090 -0.094510 1.537813 1.306716 -1.776291 -0.570823
如何 0.047035 0.060601 0.113840 -0.557297 -0.153027 -1.777080 0.625276 -0.296271 -0.822174 1.783662
最终 -0.031637 -0.486159 -0.246906 0.153513 -0.274734 1.458272 -0.635848 -0.554112 0.478734 0.703915
来 -0.362904 1.184796 -0.940048 0.102527 -0.371546 0.017208 0.300698 0.097346 0.312610 0.994333
欧洲央行 -0.281021 -0.021231 0.070949 0.353601 0.884675 -0.157794 0.556115 -0.419940 -0.380821 0.395808
油价 0.186050 0.616327 0.959012 0.243755 0.871066 -0.218409 0.604667 -1.306585 0.016454 0.484987
离职 0.066264 0.402861 0.107506 -0.311547 -0.005328 0.623661 -0.004400 0.994896 -0.163205 -0.553403
美分 -2.058485 1.709812 0.091212 -0.229345 1.868370 1.490085 -1.084866 -0.332086 1.009384 0.258955
观察 0.437422 0.970756 1.540002 -0.089299 0.412378 -0.997060 -0.022700 -1.243273 0.438707 -3.227685
警告 -0.122868 -1.835298 0.386667 0.700399 0.950431 -0.183251 0.484656 -0.211619 0.635770 0.573404
达克 -1.158336 -0.384907 -1.016358 -0.272978 0.830654 -1.128447 1.297444 0.342535 0.156999 -0.217786
遭遇 -0.126572 0.255874 -0.803408 -0.370495 -0.846616 -0.104337 0.249100 -0.457812 -0.335478 0.633802
那斯 -1.191572 -0.397715 -1.000169 -0.137648 0.803339 -1.311460 1.150415 0.195507 -0.009412 -0.168718
铝 0.560817 -0.694021 0.937519 -1.446136 -0.986907 0.922699 0.547032 -0.131469 -1.576282 1.130011
长期 -0.615414 -0.019433 -0.112085 -0.838567 -0.347226 0.773970 0.105730 -0.249752 -0.535896 0.635301
国内 -0.251879 -0.023790 -0.185747 -0.787182 -0.482143 -0.102483 0.632005 -0.039675 -0.522735 -0.068616
太阳能 0.140491 -0.393444 0.350174 -0.004533 0.192906 -0.519413 0.329690 0.075924 -1.025889 -0.790624
核电站 -0.718532 -0.495796 1.061658 -1.413272 0.535989 -1.614191 -0.839265 -0.838328 -0.225340 -0.697027
涨势 -0.743249 0.186709 0.798094 0.165742 1.576358 0.158026 -0.244441 -1.243434 0.420597 1.009083
混合 0.348208 -0.042962 -1.107860 -0.179143 -0.879356 -0.149701 0.293543 1.586808 -1.775808 -0.813553
简讯 0.190640 -0.568851 0.781789 0.237434 0.513309 -1.945724 1.230748 0.077015 0.522812 0.475500
触及 -1.083181 1.566905 0.844569 0.726159 1.937031 -0.587584 -0.392237 0.609000 0.365229 1.764249
计入 -0.704675 0.514644 -0.065252 0.351543 1.070771 0.777760 -0.353246 -0.406958 0.778108 0.612398
谨慎 -0.016835 0.335752 -0.415351 -0.000568 -0.541557 0.222403 0.207273 -2.626657 0.702438 0.545424
16 -1.231623 0.438745 -0.400919 0.073926 0.408988 0.661170 -0.452458 1.390047 1.004212 1.291516
GOOG -1.327798 -0.316492 -0.744700 -0.852843 -0.197152 1.921566 -0.871723 -0.385516 -0.005161 -1.082490
中国银行 0.944053 -0.808267 0.796213 0.243289 -0.668233 -0.397417 0.304357 0.766745 1.051323 0.112275
供应商 0.103457 -0.156114 -0.901906 -0.076706 -0.813355 0.134137 0.449794 -0.152483 -0.297577 0.178935
全部 1.136840 -0.278543 0.809547 0.425038 -0.589612 1.025243 -0.464241 0.250744 1.004793 -0.098575
总额 -0.924935 0.422195 -0.559619 -0.057275 0.005039 0.624654 -0.335107 0.339258 1.838272 0.533156
收到 0.032102 -0.431840 0.122888 -0.282765 -0.403920 -0.140570 -0.338617 0.335590 0.285828 1.279302
最高 -0.024134 2.049973 -0.485318 0.140901 -0.281379 1.063828 -0.107101 0.057516 0.702580 1.048372
测试 0.259966 -0.269780 -0.872043 0.617009 -0.215292 -0.025628 1.572879 -1.993342 0.131954 -0.131093
纽约时报 0.789780 0.799349 -1.315856 2.394506 0.176223 1.457576 2.580734 -0.469517 0.820860 -1.369963
航空公司 0.313790 -0.535686 0.070196 -0.284239 -0.632798 -0.079814 -0.013232 -0.108270 -0.092840 -0.382978
苹果公司 1.012149 -0.885548 0.366876 0.488526 -0.162665 -0.277966 0.007818 0.248184 -0.072759 0.470368
选择 -0.139829 -0.419122 -0.850432 0.224494 -0.456699 0.162122 0.010108 -0.869686 0.366324 0.929321
长荣 0.425269 -1.144181 1.513195 -0.436348 0.601217 -1.628855 -0.557444 1.859976 -0.499576 -0.499405
需 -0.249381 0.376612 -0.330931 0.090307 -0.147216 0.177359 0.256059 -0.494569 1.343818 1.000179
鞍钢 1.337058 -0.687019 2.220338 -0.204229 -0.073512 -0.288673 0.218522 0.719373 1.283432 -0.659547
600 -1.241469 0.855112 -0.674479 0.469258 0.954226 1.359595 -0.179330 1.516857 0.331928 0.486374
估值 -0.850614 0.655248 -0.480823 -0.467442 -0.011650 0.886695 0.245302 -0.466048 0.802291 0.748419
信用卡 0.283877 -0.281111 -0.133820 -0.661720 -1.027749 0.305631 1.164706 0.388261 -0.342548 -1.280880
再度 -0.290343 -0.043857 0.027646 -0.147212 0.472356 -0.008281 0.213202 -0.925972 -0.134669 0.699925
力晶 -0.102583 -0.035376 0.560357 -0.943215 -0.258900 -2.362894 -0.318732 1.017592 0.195226 0.095513
加入 0.465380 -0.284970 0.115173 -0.076060 -0.508090 0.118937 0.183281 0.627758 0.352251 0.153846
加州 1.298957 -2.262007 -0.004608 0.025819 -1.065522 -0.484427 -0.170192 1.184498 -0.910429 0.061707
可能性 -0.367667 0.244448 -0.686084 0.337975 -0.044092 1.428108 -0.065291 -0.455038 0.574351 0.630276
援助 -0.908367 -0.533816 -1.617921 0.745829 0.126798 0.017052 1.247501 -0.605024 0.617132 -0.133320
正式 -0.359196 -1.107872 -1.130720 0.155704 -0.575529 0.458906 -0.510882 0.387373 0.258493 1.535959
票据 -0.496536 0.731176 -0.754008 0.762026 0.340218 -0.030852 1.340689 -0.765119 1.898080 -1.507641
英镑 -0.736362 0.067716 0.950899 0.391589 1.786192 -0.337197 0.734630 -0.516064 0.222081 0.575140
薪酬 0.333412 0.276584 -0.082649 -0.406017 -0.585168 -0.144291 0.904469 0.097229 -0.322735 -0.197583
走软 -1.520456 0.978784 -0.197298 -0.106178 1.504845 0.149152 1.325156 -0.917619 -0.015112 1.023487
转换 -0.585560 0.884950 -0.634562 0.414935 0.130033 0.233280 1.001136 -0.306567 1.751235 -1.457731
TCL 0.453174 -1.051268 1.377072 0.726376 1.009178 -1.276133 -0.827873 1.127321 1.281738 -0.356547
─ 0.084594 -0.034182 -0.205830 0.393815 0.155265 -1.413885 0.895648 -0.749175 -0.016898 0.372366
事故 -0.312313 -0.131889 -0.218764 -0.613796 -0.191511 0.736279 -1.006040 -0.450857 -1.349914 0.632090
使用 -0.038788 0.022541 0.124988 -0.897623 -0.563019 0.060051 0.075828 -0.547379 -0.369225 0.271396
侵权 1.255073 -1.456301 -0.886182 0.214991 -1.159926 1.070365 -0.182694 -0.682379 -1.045773 0.922703
发现 -0.109967 -0.721193 -0.327869 -0.506411 -0.597660 -0.277567 0.489130 -0.299432 -0.631451 0.755500
定为 0.268911 1.586897 0.243541 1.010172 1.160719 1.491690 0.791994 -0.848419 0.250308 -0.589322
据称 0.247092 -1.036487 0.226406 0.224011 0.172673 -0.631681 0.175950 0.437608 0.240675 0.586124
状况 -0.144838 0.841590 -0.189702 -0.832632 -0.502635 -0.019794 0.652624 -1.255826 -0.652643 0.357550
联想 0.409736 -0.427316 0.602081 -0.943723 -0.731295 -1.223650 0.081990 0.041472 0.585743 -0.573318
苏格兰 1.278475 -2.668766 0.818052 1.120655 0.342249 -0.888787 0.288602 1.144014 -0.217917 -1.129959
进入 -0.419592 -0.184770 -0.965182 -0.107045 -0.428481 0.572187 0.436706 -0.736946 -0.615542 0.543230
中国政府 0.095359 -1.126092 -0.251060 0.221438 0.020586 -1.122452 0.528716 -0.109387 0.344134 1.521533
修改 0.610254 -0.360420 0.227138 0.322736 -0.329225 0.856036 -0.049837 -0.197588 1.066389 1.470177
兴建 -0.747846 0.809068 -1.033940 -1.846441 -1.904331 0.102163 0.281133 0.616560 -0.225701 -0.692568
利丰 -0.226386 -0.343186 0.810990 -0.499611 0.214600 -0.670658 -0.219834 0.896773 0.496645 -0.527053
刺激 0.047612 -0.090153 -0.522065 -0.173891 -0.559447 0.654526 1.308472 -1.857030 -0.283980 0.064811
升温 -1.078835 1.123816 -0.728708 -0.078182 0.281616 1.803347 0.201699 -1.780934 -0.050530 0.836914
可口可乐 -0.299636 -0.866553 0.216901 -0.285791 0.191945 -0.764188 -0.281856 -0.214172 0.150935 0.060412
安联 1.068076 -1.608990 1.281163 0.099523 0.269180 -1.229559 0.041790 1.242479 -0.740705 -0.777838
客机 0.257618 0.134928 -1.034307 0.591938 -0.608102 0.278383 0.077175 1.534786 -0.948850 -1.161332
推进 -0.859909 -0.701847 -0.367320 -0.237871 0.270525 0.495120 0.375285 0.110949 -0.299014 1.318555
法官 0.747534 -0.708016 -1.058363 1.202719 0.430369 -1.527852 1.772973 -0.304283 -0.640697 1.794469
温和 -1.108997 0.743729 0.319214 0.458252 1.832505 -0.017366 1.424980 -0.794872 -0.003023 1.095208
联发 0.758168 -0.897026 2.167492 -0.670697 0.218736 -1.106514 -0.095927 1.336772 0.089453 -1.380158
裁定 0.779878 -1.055059 -1.074993 0.997025 -0.213204 -0.505996 0.794522 -0.192728 -0.819771 1.409034
进口 -0.344863 -0.533040 -0.293583 -0.740261 -0.476314 0.175098 -0.229752 0.562648 -1.281027 0.710399
13 -1.153083 0.609283 -0.029606 -0.059051 0.612042 0.462671 -0.614276 1.170927 1.019391 0.240608
3G 1.022450 -0.631081 1.208551 -0.527867 -0.639070 0.487763 0.720596 -0.523921 -0.690989 -1.409299
F -0.674766 -1.006902 -0.276634 -0.370888 0.344367 1.124789 -0.626541 0.185102 -0.019698 -0.275678
亿股 0.745506 1.429546 -0.096286 1.127187 -0.411039 -0.186316 -0.100276 0.934750 1.843355 -0.457933
侵犯 1.659980 -1.289408 0.364577 0.342635 -0.824858 0.001965 -0.282648 -0.924455 0.301533 1.087550
信托 1.093567 0.292853 0.800716 0.718887 -0.012593 -1.244052 0.388766 0.985017 0.901147 -0.766230
前日 -1.476179 -1.166932 0.800858 -0.444917 1.199227 1.073814 -0.646390 0.635623 1.123444 0.433857
加强 0.425933 -1.149114 -0.282428 0.127280 -0.513324 0.863725 -0.166816 -0.330970 -0.180344 1.280225
区间 -0.348311 1.018783 -1.542151 0.105672 -0.167063 1.681232 0.348297 -0.842393 -0.429887 0.123660
基点 -0.092897 2.314405 -1.054089 1.444229 0.416467 2.228611 0.610539 1.705942 -1.710758 0.806439
安赛乐 0.235245 -2.138171 0.575284 -0.051526 0.354952 -1.750956 0.142446 0.978249 -0.639715 0.499000
扭亏为盈 -0.326883 0.569997 1.824636 -1.335356 0.422924 0.544341 -0.675186 -0.158900 0.292107 0.118036
投行 0.231173 -0.098346 0.048818 -0.272456 -0.517453 0.142026 0.874014 -0.596047 -0.466409 -1.107693
新增 -0.449057 1.615344 -0.010370 -0.840704 -0.595081 0.215913 0.437595 0.894608 0.015592 -0.608772
机会 -0.839793 -0.445691 -1.257519 -0.166313 -0.977886 0.797416 0.504074 -0.534754 1.320554 -0.418861
汽车业 0.346994 -0.708540 -1.308726 0.853534 -0.201871 -0.790793 1.596670 -0.339723 -0.449236 -0.046216
涨幅 -1.247951 0.271536 0.106465 0.261560 1.059171 0.463619 -0.270065 -0.437189 1.315808 0.903046
用户 -0.681674 0.100947 -0.475374 -0.252908 -0.105336 0.523584 -0.030883 -0.427163 -0.064251 -0.370660
经营 -0.019984 0.421034 -0.153303 -1.127783 -1.234031 0.771409 0.061438 -0.208368 -0.419276 -0.057396
Glencore 1.058301 -1.193685 0.358857 0.504061 -0.282461 -0.810619 0.336150 0.791051 0.870591 -0.169737
下周 0.082214 1.031503 0.016656 -0.384562 -0.383034 -0.181213 0.295805 1.016673 0.293192 1.511083
副 0.894509 -0.631643 0.983812 0.680074 0.812691 -1.779897 1.280404 0.773778 -0.329128 -0.871809
厂 0.161588 0.045908 -1.006384 -0.978484 -1.756544 0.230141 0.118181 0.164168 -0.421957 -0.993128
广州 -0.432160 -0.727789 -0.348602 -0.734313 -0.638263 -0.992838 -0.503144 1.492670 -0.404777 -0.221923
态度 1.000511 -0.182299 -0.579842 0.386206 -1.263423 0.730685 -0.088502 -3.184297 0.550436 0.153777
成功 0.063053 -0.124964 0.467815 -0.000397 0.005851 0.457624 -0.620956 0.079240 0.861437 0.911718
拓展 0.392799 0.519988 0.895003 -0.798830 -0.604520 0.383976 0.864623 -0.603288 -0.019831 -0.505395
条款 0.181280 -0.532943 -0.642472 0.380315 -0.296966 1.404039 0.483775 -1.255521 0.532993 0.589823
油气 0.878955 0.066382 0.084764 -0.447556 -1.350753 0.856766 0.183406 0.187765 -0.641271 -0.628583
管理层 -0.133671 -0.004418 -0.384902 0.225430 0.118728 -0.173329 -0.082286 -0.528517 -0.013042 0.993441
能 -0.996387 -0.000741 -0.361582 -0.845848 -0.222564 -0.548981 -0.013433 -0.489772 0.284137 1.240398
造成 0.543396 -0.117373 -0.264599 -0.106204 -0.770673 0.623259 -0.326511 -1.619131 -0.208860 1.200357
音乐 0.571802 -1.965518 -1.038336 0.134998 -1.237651 -0.606092 -0.305752 -0.233701 -0.558884 -1.221179
马来西亚 0.666153 -0.876557 0.618736 0.044566 -0.129783 -0.763201 0.049506 0.350709 -0.007720 -0.262234
高级 0.790051 -1.150434 -0.023476 -1.034496 -1.538131 0.064112 -0.429553 -0.694278 -1.201498 -1.890037
06 -0.041587 1.402355 1.216256 -1.474630 -0.929061 -0.403778 0.324628 1.128978 -0.606868 0.071968
三家 0.348783 -1.243222 0.057846 -0.260550 -0.478584 -0.354813 0.880009 0.346467 -0.490054 -0.492371
作价 0.093652 0.376873 0.116852 0.623426 -0.050363 0.510614 -0.209766 1.689831 2.148086 0.503774
净利 -1.369426 1.180536 1.662769 -1.319604 1.111974 0.211540 -0.709002 -0.103435 0.733418 -0.909777
吗 -1.087621 -0.014962 -0.393195 -0.487994 -0.055765 -1.701719 -0.317453 -0.737829 0.881601 2.297781
必达 1.070757 -1.054040 0.177297 0.620003 -0.162689 -2.005564 1.020324 0.607811 -0.801489 -0.681550
总统 0.699948 -0.647615 0.499284 0.118673 0.483982 -1.975059 0.612334 0.448173 -1.171378 -0.473421
新高 -0.250296 1.951176 -0.269160 0.539431 0.178835 -0.135332 -0.979905 -0.501131 0.538235 0.555032
用于 -1.045403 0.382734 -0.834154 -0.219300 -0.133597 1.157752 -0.241163 0.095513 0.840844 0.222313
